<?xml version="1.0"?>
<opencv_storage>
<stage13>
  <maxWeakCount>6</maxWeakCount>
  <stageThreshold>-5.6397736072540283e-01</stageThreshold>
  <weakClassifiers>
    <_>
      <internalNodes>
        0 -1 67197 -934148 -67321921 2147261949 -196609 1072715773
        -1074680131 -17022979 -139267</internalNodes>
      <leafValues>
        -4.7976878285408020e-01 5.3800827264785767e-01</leafValues></_>
    <_>
      <internalNodes>
        0 -1 114808 -426794614 -1429567828 -250538599 -136073829
        -641496597 -294674259 -101016717 -842271371</internalNodes>
      <leafValues>
        -7.0023620128631592e-01 3.5495460033416748e-01</leafValues></_>
    <_>
      <internalNodes>
        0 -1 55126 1899487324 1978347919 -9989355 -35700472 -1559264274
        -1848064646 -1886786834 -1081626898</internalNodes>
      <leafValues>
        -4.9795949459075928e-01 4.8637765645980835e-01</leafValues></_>
    <_>
      <internalNodes>
        0 -1 115857 -924649830 -94777254 -1034565988 -1431530988
        -1844813302 1552611611 -626319746 -19142066</internalNodes>
      <leafValues>
        -6.6218096017837524e-01 3.8116464018821716e-01</leafValues></_>
    <_>
      <internalNodes>
        0 -1 96700 -134823938 2141917647 428867856 1010312687 875172764
        429916580 676018620 2109702143</internalNodes>
      <leafValues>
        -6.3244509696960449e-01 3.5322934389114380e-01</leafValues></_>
    <_>
      <internalNodes>
        0 -1 72503 -534517630 -1084292413 -745807213 -808484581
        -788401767 -1751913949 -779499364 -2121412593</internalNodes>
      <leafValues>
        -5.7917547225952148e-01 4.3766540288925171e-01</leafValues></_></weakClassifiers></stage13>
</opencv_storage>
