<?xml version="1.0"?>
<opencv_storage>
<stage12>
  <maxWeakCount>7</maxWeakCount>
  <stageThreshold>-9.8313510417938232e-01</stageThreshold>
  <weakClassifiers>
    <_>
      <internalNodes>
        0 -1 16814 -84423937 -262145 -486621441 -15015457 -1343618913
        -108463207 -1090531329 -532481</internalNodes>
      <leafValues>
        -4.3099388480186462e-01 6.1949896812438965e-01</leafValues></_>
    <_>
      <internalNodes>
        0 -1 91938 -574306820 501601679 -668347461 -378435565 -873994773
        -1683254781 -55637045 -1073796209</internalNodes>
      <leafValues>
        -6.7520731687545776e-01 3.7471407651901245e-01</leafValues></_>
    <_>
      <internalNodes>
        0 -1 106576 -10625025 -677547127 -1860969443 1484331178
        1336081897 -667969196 456585224 268783731</internalNodes>
      <leafValues>
        -7.3478072881698608e-01 2.9459339380264282e-01</leafValues></_>
    <_>
      <internalNodes>
        0 -1 81945 -1761085490 -740301425 -1600106422 -775564657
        -1152127345 1162397898 -141902902 -141571121</internalNodes>
      <leafValues>
        -5.0532788038253784e-01 5.0086015462875366e-01</leafValues></_>
    <_>
      <internalNodes>
        0 -1 22191 -226514386 -619069356 -1072531809 -2067015569
        -78968060 -112257015 -254287650 -289153185</internalNodes>
      <leafValues>
        -5.8056408166885376e-01 4.1972109675407410e-01</leafValues></_>
    <_>
      <internalNodes>
        0 -1 14516 -273943890 -1343641042 1883512899 -1920129782
        1105589958 -460177259 1948602512 -5251185</internalNodes>
      <leafValues>
        -5.4110878705978394e-01 5.0271242856979370e-01</leafValues></_>
    <_>
      <internalNodes>
        0 -1 92110 1474220507 1934966101 1765263679 1575686401
        -1399543061 2046870174 -1149704753 1406094333</internalNodes>
      <leafValues>
        -5.9453582763671875e-01 4.6398651599884033e-01</leafValues></_></weakClassifiers></stage12>
</opencv_storage>
