<?xml version="1.0"?>
<opencv_storage>
<stage14>
  <maxWeakCount>6</maxWeakCount>
  <stageThreshold>-5.7452625036239624e-01</stageThreshold>
  <weakClassifiers>
    <_>
      <internalNodes>
        0 -1 70008 -1713097257 -135844517 -1790915625 -1073930891
        -1622564865 2056880769 -542347281 -1079457883</internalNodes>
      <leafValues>
        -5.3996551036834717e-01 5.0456744432449341e-01</leafValues></_>
    <_>
      <internalNodes>
        0 -1 125547 -653789992 -1727008616 -1786271528 -642256830
        -1173147749 -1077160406 -1945109346 487319707</internalNodes>
      <leafValues>
        -6.0674107074737549e-01 4.0315783023834229e-01</leafValues></_>
    <_>
      <internalNodes>
        0 -1 10923 -94638066 -768943673 1846753531 -196369777 -744855552
        -159151329 -1844779345 -17827058</internalNodes>
      <leafValues>
        -5.9100037813186646e-01 3.9129191637039185e-01</leafValues></_>
    <_>
      <internalNodes>
        0 -1 93685 -405012481 1990065491 1405720534 493311454 1902349307
        1170816490 2039282681 489814743</internalNodes>
      <leafValues>
        -6.3909012079238892e-01 4.0056723356246948e-01</leafValues></_>
    <_>
      <internalNodes>
        0 -1 79121 20 1963545504 1037274975 -2504229 -343440705
        -422865178 -1165833473 -22552190</internalNodes>
      <leafValues>
        -6.8049734830856323e-01 3.4024825692176819e-01</leafValues></_>
    <_>
      <internalNodes>
        0 -1 88533 -754462718 1998322715 -1051213139 -715695997
        -72903969 -366894456 -999634717 -2136481621</internalNodes>
      <leafValues>
        -5.3016859292984009e-01 4.8675373196601868e-01</leafValues></_></weakClassifiers></stage14>
</opencv_storage>
