<?xml version="1.0"?>
<opencv_storage>
<stage6>
  <maxWeakCount>6</maxWeakCount>
  <stageThreshold>-1.1932066679000854e+00</stageThreshold>
  <weakClassifiers>
    <_>
      <internalNodes>
        0 -1 11244 -546561 -32769 -585969665 -34177609 -345045938
        -6072481 -8912897 -8388625</internalNodes>
      <leafValues>
        -5.2356559038162231e-01 6.2014561891555786e-01</leafValues></_>
    <_>
      <internalNodes>
        0 -1 99001 -1073495998 -174068397 -65811213 -137374961
        -993267201 -838680014 -1048346149 -739257597</internalNodes>
      <leafValues>
        -5.1221948862075806e-01 5.9635764360427856e-01</leafValues></_>
    <_>
      <internalNodes>
        0 -1 109512 -681574401 -3023106 -617522181 1026291711 2146172115
        396093135 1816656863 388233695</internalNodes>
      <leafValues>
        -6.0524207353591919e-01 4.5793089270591736e-01</leafValues></_>
    <_>
      <internalNodes>
        0 -1 99755 -616892422 2068886884 1529143291 2146999604
        1858780156 -1097045624 1608351723 -269500228</internalNodes>
      <leafValues>
        -5.8441901206970215e-01 5.0394344329833984e-01</leafValues></_>
    <_>
      <internalNodes>
        0 -1 91679 -786968510 -37807109 -134217745 -142608385
        -1479675225 -134234125 670773951 -1599142133</internalNodes>
      <leafValues>
        -4.9796310067176819e-01 5.8393549919128418e-01</leafValues></_>
    <_>
      <internalNodes>
        0 -1 24240 1869342192 -846792414 -913288750 -1353321664
        1240173245 -1894807615 479963635 -268440655</internalNodes>
      <leafValues>
        -6.4931041002273560e-01 4.6702969074249268e-01</leafValues></_></weakClassifiers></stage6>
</opencv_storage>
