<?xml version="1.0"?>
<opencv_storage>
<stage8>
  <maxWeakCount>6</maxWeakCount>
  <stageThreshold>-1.3386248350143433e+00</stageThreshold>
  <weakClassifiers>
    <_>
      <internalNodes>
        0 -1 11231 -166210494 -149564931 -528376611 -128202477
        -639972352 -1644590915 -1460552001 -17040901</internalNodes>
      <leafValues>
        -6.1430394649505615e-01 4.7295969724655151e-01</leafValues></_>
    <_>
      <internalNodes>
        0 -1 6831 1775161343 -552517034 -1413273729 -69009120 -385287253
        -920410926 -352302149 -1093006</internalNodes>
      <leafValues>
        -5.2259451150894165e-01 5.3489917516708374e-01</leafValues></_>
    <_>
      <internalNodes>
        0 -1 102012 1071644671 -176721901 259921277 2144820309 588921787
        2147155995 526596495 1564442143</internalNodes>
      <leafValues>
        -6.0899591445922852e-01 4.5821461081504822e-01</leafValues></_>
    <_>
      <internalNodes>
        0 -1 125397 -573588263 1367448725 1598475713 1293499811
        -1884307557 -33816613 -1613390565 -1987330049</internalNodes>
      <leafValues>
        -5.1090502738952637e-01 5.9864515066146851e-01</leafValues></_>
    <_>
      <internalNodes>
        0 -1 78253 -2621466 -111828509 -1329549078 1904101594
        -1591757938 1762017484 -343278869 -203429346</internalNodes>
      <leafValues>
        -5.6396186351776123e-01 5.0716710090637207e-01</leafValues></_>
    <_>
      <internalNodes>
        0 -1 97069 -680272417 1903812571 1902891767 1427333343 968939966
        -204761149 1240182943 203420127</internalNodes>
      <leafValues>
        -6.9911372661590576e-01 4.2464280128479004e-01</leafValues></_></weakClassifiers></stage8>
</opencv_storage>
