<?xml version="1.0"?>
<opencv_storage>
<stage16>
  <maxWeakCount>6</maxWeakCount>
  <stageThreshold>-1.2779625654220581e+00</stageThreshold>
  <weakClassifiers>
    <_>
      <internalNodes>
        0 -1 19273 -251921167 -336600318 1736324080 -575199742
        -276844625 -606078025 1618433008 -34845</internalNodes>
      <leafValues>
        -4.7046414017677307e-01 5.2347415685653687e-01</leafValues></_>
    <_>
      <internalNodes>
        0 -1 65212 -2012274149 -11186108 -78572856 1963316174 -774920049
        -246129956 669606319 288463771</internalNodes>
      <leafValues>
        -5.5050730705261230e-01 4.5062893629074097e-01</leafValues></_>
    <_>
      <internalNodes>
        0 -1 125747 -913076791 -1048497272 -1325180461 -803503365
        -1065311862 -1458588758 -8130277 -846204513</internalNodes>
      <leafValues>
        -4.8156204819679260e-01 4.7928842902183533e-01</leafValues></_>
    <_>
      <internalNodes>
        0 -1 91918 -1455205441 1072894097 4666911 1564954741 -1933039302
        426457256 177748143 458202711</internalNodes>
      <leafValues>
        -6.2616360187530518e-01 3.9072018861770630e-01</leafValues></_>
    <_>
      <internalNodes>
        0 -1 85865 -1661214514 -450707443 -266868000 1912037574
        860090182 17977353 -258759946 -205535493</internalNodes>
      <leafValues>
        -5.4463583230972290e-01 4.5172584056854248e-01</leafValues></_>
    <_>
      <internalNodes>
        0 -1 125091 -220865514 -678346659 -2074754506 815706241
        -1853799932 -130478063 1049880746 -1158419826</internalNodes>
      <leafValues>
        -5.9970426559448242e-01 3.8095626235008240e-01</leafValues></_></weakClassifiers></stage16>
</opencv_storage>
