<?xml version="1.0"?>
<opencv_storage>
<stage15>
  <maxWeakCount>7</maxWeakCount>
  <stageThreshold>-8.7546807527542114e-01</stageThreshold>
  <weakClassifiers>
    <_>
      <internalNodes>
        0 -1 74117 -201597238 1369130435 -255452950 1899977085
        -237253746 268700426 -740583185 -234885601</internalNodes>
      <leafValues>
        -5.2714538574218750e-01 4.7853735089302063e-01</leafValues></_>
    <_>
      <internalNodes>
        0 -1 113023 -620758307 -139465 -1094975493 -1615340613
        -357320006 -25247778 -1426146561 -1426068801</internalNodes>
      <leafValues>
        -4.1354084014892578e-01 5.7865989208221436e-01</leafValues></_>
    <_>
      <internalNodes>
        0 -1 93281 359552990 -1224554210 1342108567 1574834460
        1558073334 2076860140 554375253 1073641204</internalNodes>
      <leafValues>
        -7.4629670381546021e-01 3.2772055268287659e-01</leafValues></_>
    <_>
      <internalNodes>
        0 -1 29154 -2063089706 -134671024 -653143565 -1109950160
        162238202 -391505674 1216571571 -33821513</internalNodes>
      <leafValues>
        -4.4521033763885498e-01 5.2347695827484131e-01</leafValues></_>
    <_>
      <internalNodes>
        0 -1 108208 -2892293 1474010911 275468639 2128049935 2039730159
        2059504155 1125550783 1360376287</internalNodes>
      <leafValues>
        -6.3673150539398193e-01 3.5103815793991089e-01</leafValues></_>
    <_>
      <internalNodes>
        0 -1 121391 -19972022 -429013493 1250679456 -531146402
        -894779389 -299229119 -963931462 -1066336485</internalNodes>
      <leafValues>
        -5.3813517093658447e-01 4.4122490286827087e-01</leafValues></_>
    <_>
      <internalNodes>
        0 -1 25620 -577281298 -152533325 1091440704 1325600964
        1688396266 -338627181 1700356669 -280897123</internalNodes>
      <leafValues>
        -5.2623242139816284e-01 4.5722180604934692e-01</leafValues></_></weakClassifiers></stage15>
</opencv_storage>
