<?xml version="1.0"?>
<opencv_storage>
<cascade>
  <stageType>BOOST</stageType>
  <featureType>LBP</featureType>
  <height>48</height>
  <width>48</width>
  <stageParams>
    <boostType>GAB</boostType>
    <minHitRate>9.9500000476837158e-01</minHitRate>
    <maxFalseAlarm>5.0000000000000000e-01</maxFalseAlarm>
    <weightTrimRate>9.4999999999999996e-01</weightTrimRate>
    <maxDepth>1</maxDepth>
    <maxWeakCount>100</maxWeakCount></stageParams>
  <featureParams>
    <maxCatCount>256</maxCatCount>
    <featSize>1</featSize></featureParams>
  <stageNum>20</stageNum>
  <stages>
    <!-- stage 0 -->
    <_>
      <maxWeakCount>2</maxWeakCount>
      <stageThreshold>2.2993285208940506e-02</stageThreshold>
      <weakClassifiers>
        <_>
          <internalNodes>
            0 -1 23 -34539536 -2118145 -134149 -1074063361 -1131367240
            -38535169 -1187909638 -4497489</internalNodes>
          <leafValues>
            -6.8471336364746094e-01 8.5390949249267578e-01</leafValues></_>
        <_>
          <internalNodes>
            0 -1 55 -615124743 -216973223 1811994005 -687242927
            -1727362886 -1174404984 135792827 134283291</internalNodes>
          <leafValues>
            -7.4623149633407593e-01 7.0770668983459473e-01</leafValues></_></weakClassifiers></_>
    <!-- stage 1 -->
    <_>
      <maxWeakCount>4</maxWeakCount>
      <stageThreshold>-1.2840183079242706e-01</stageThreshold>
      <weakClassifiers>
        <_>
          <internalNodes>
            0 -1 42 -1163150808 -1977581270 -4096037 -36077473 -74931745
            -6291457 -570425859 -2228739</internalNodes>
          <leafValues>
            -6.8707484006881714e-01 7.9446637630462646e-01</leafValues></_>
        <_>
          <internalNodes>
            0 -1 24 -803813156 -589791144 139481237 1423798554
            -624187220 -1868971624 -343832485 -42499846</internalNodes>
          <leafValues>
            -7.0443499088287354e-01 6.6036117076873779e-01</leafValues></_>
        <_>
          <internalNodes>
            0 -1 19 -577568754 -46014453 67635609 1389508234 -2012937216
            -670821743 -1471407989 -1237259845</internalNodes>
          <leafValues>
            -7.8579837083816528e-01 5.9625059366226196e-01</leafValues></_>
        <_>
          <internalNodes>
            0 -1 36 339793245 2131821593 6293787 386072849 -2004252503
            -1988099960 436207835 419627009</internalNodes>
          <leafValues>
            -7.5420701503753662e-01 6.8411022424697876e-01</leafValues></_></weakClassifiers></_>
    <!-- stage 2 -->
    <_>
      <maxWeakCount>5</maxWeakCount>
      <stageThreshold>-5.4126906394958496e-01</stageThreshold>
      <weakClassifiers>
        <_>
          <internalNodes>
            0 -1 10 -12517391 2147467263 1601367927 -405811237
            1934652784 -423565321 -144641025 -11538433</internalNodes>
          <leafValues>
            -5.3013908863067627e-01 7.7964323759078979e-01</leafValues></_>
        <_>
          <internalNodes>
            0 -1 33 -249871237 -247386105 1090701201 1360091392
            -1056919622 -24571775 -90507333 470839187</internalNodes>
          <leafValues>
            -6.7294305562973022e-01 6.6433960199356079e-01</leafValues></_>
        <_>
          <internalNodes>
            0 -1 70 -908070957 -993067127 -690013485 -1722851373
            -280254162 -1899167972 -715155061 -909124133</internalNodes>
          <leafValues>
            -5.6617331504821777e-01 7.8780430555343628e-01</leafValues></_>
        <_>
          <internalNodes>
            0 -1 58 -652347681 -1793638382 -1589438243 -15122220
            469762238 -125796157 337120410 1530990690</internalNodes>
          <leafValues>
            -7.0923691987991333e-01 6.1345350742340088e-01</leafValues></_>
        <_>
          <internalNodes>
            0 -1 13 -191757162 -745324285 -670804965 -1860930377
            -1861222370 -284294765 1744993177 -1748510053</internalNodes>
          <leafValues>
            -7.0984160900115967e-01 6.6060137748718262e-01</leafValues></_></weakClassifiers></_>
    <!-- stage 3 -->
    <_>
      <maxWeakCount>4</maxWeakCount>
      <stageThreshold>-1.2332085371017456e+00</stageThreshold>
      <weakClassifiers>
        <_>
          <internalNodes>
            0 -1 61 -1078199311 864272315 -32779 -1078067215 2147352507
            -1087373381 257933243 185331519</internalNodes>
          <leafValues>
            -5.2647972106933594e-01 7.7035492658615112e-01</leafValues></_>
        <_>
          <internalNodes>
            0 -1 0 -379850254 -1454616576 -1056845504 1204523346
            -804273417 363200642 -1937570176 -84946352</internalNodes>
          <leafValues>
            -7.3229700326919556e-01 5.8920949697494507e-01</leafValues></_>
        <_>
          <internalNodes>
            0 -1 39 -1734680617 488080036 1346374939 454361089
            -2137272167 -1979056094 134453390 1065087389</internalNodes>
          <leafValues>
            -7.4076145887374878e-01 5.5552923679351807e-01</leafValues></_>
        <_>
          <internalNodes>
            0 -1 77 -807412349 -1645355780 89022277 4680900 -536883277
            -688988326 -551682166 -808714289</internalNodes>
          <leafValues>
            -5.5517685413360596e-01 8.3008497953414917e-01</leafValues></_></weakClassifiers></_>
    <!-- stage 4 -->
    <_>
      <maxWeakCount>4</maxWeakCount>
      <stageThreshold>-1.2806531190872192e+00</stageThreshold>
      <weakClassifiers>
        <_>
          <internalNodes>
            0 -1 4 -16646269 -554714115 -284893421 -950046977 -183435280
            -790529 -553583805 -548405761</internalNodes>
          <leafValues>
            -4.6920821070671082e-01 7.8431373834609985e-01</leafValues></_>
        <_>
          <internalNodes>
            0 -1 59 -719626501 -115933182 268637311 2098200659
            1511661579 -133494783 270035279 992692043</internalNodes>
          <leafValues>
            -6.8047916889190674e-01 6.5235918760299683e-01</leafValues></_>
        <_>
          <internalNodes>
            0 -1 44 -631876516 1577140257 -1073685986 -736243198
            -871741384 -838186846 1610670202 -90256694</internalNodes>
          <leafValues>
            -7.6625317335128784e-01 5.6665980815887451e-01</leafValues></_>
        <_>
          <internalNodes>
            0 -1 63 -515380775 -938999477 269537425 -1787094783
            -459190069 -897531712 -1916762751 -909517425</internalNodes>
          <leafValues>
            -6.9762557744979858e-01 5.9340393543243408e-01</leafValues></_></weakClassifiers></_>
    <!-- stage 5 -->
    <_>
      <maxWeakCount>5</maxWeakCount>
      <stageThreshold>-6.3144159317016602e-01</stageThreshold>
      <weakClassifiers>
        <_>
          <internalNodes>
            0 -1 74 -547357448 -578960260 -1654657345 1494209751
            2139029439 -1 521666362 492821759</internalNodes>
          <leafValues>
            -6.2172281742095947e-01 6.8667918443679810e-01</leafValues></_>
        <_>
          <internalNodes>
            0 -1 3 -794834321 -45938735 1476395485 440828171 -802553855
            -103774070 -2112816645 -110901089</internalNodes>
          <leafValues>
            -6.2762665748596191e-01 6.4188152551651001e-01</leafValues></_>
        <_>
          <internalNodes>
            0 -1 38 2063847643 345047248 4445 286100545 101296382
            -1476222821 134334939 186895035</internalNodes>
          <leafValues>
            -7.0667910575866699e-01 5.8388102054595947e-01</leafValues></_>
        <_>
          <internalNodes>
            0 -1 31 -660079990 -180514688 1468022792 813895682
            2018017418 402755584 571113646 -250904517</internalNodes>
          <leafValues>
            -6.6347193717956543e-01 6.8443822860717773e-01</leafValues></_>
        <_>
          <internalNodes>
            0 -1 64 -1645477933 530182022 -268435631 -536912035
            -20971645 -1364267104 499099099 -2029007477</internalNodes>
          <leafValues>
            -5.7200938463211060e-01 7.7459108829498291e-01</leafValues></_></weakClassifiers></_>
    <!-- stage 6 -->
    <_>
      <maxWeakCount>5</maxWeakCount>
      <stageThreshold>-8.4105318784713745e-01</stageThreshold>
      <weakClassifiers>
        <_>
          <internalNodes>
            0 -1 45 536826079 532640030 104140663 233272221 1055647963
            -12695926 242892735 456115167</internalNodes>
          <leafValues>
            -5.8412098884582520e-01 6.6199815273284912e-01</leafValues></_>
        <_>
          <internalNodes>
            0 -1 76 -914185814 -1979143032 -1849337423 -749354989
            -258879253 -2130173799 1635812483 -9965321</internalNodes>
          <leafValues>
            -7.3256760835647583e-01 5.7644003629684448e-01</leafValues></_>
        <_>
          <internalNodes>
            0 -1 5 -282918921 2143284987 21094347 -1644196113 1157689268
            -69730305 1308679775 -548933633</internalNodes>
          <leafValues>
            -6.0280394554138184e-01 6.6751044988632202e-01</leafValues></_>
        <_>
          <internalNodes>
            0 -1 73 -16789826 1522527802 -1203834182 548993722
            2138556168 -1143472513 -89195894 -1695813841</internalNodes>
          <leafValues>
            -6.5233659744262695e-01 6.7167949676513672e-01</leafValues></_>
        <_>
          <internalNodes>
            0 -1 57 -179317793 -145030573 1392726737 1695532321
            -1340371797 1747132422 153242015 323213071</internalNodes>
          <leafValues>
            -8.0616807937622070e-01 4.8465687036514282e-01</leafValues></_></weakClassifiers></_>
    <!-- stage 7 -->
    <_>
      <maxWeakCount>4</maxWeakCount>
      <stageThreshold>-1.1519373655319214e+00</stageThreshold>
      <weakClassifiers>
        <_>
          <internalNodes>
            0 -1 28 -122881 -65546 -196612 1072775165 -1074200579
            -1611122700 -1346838531 -71797259</internalNodes>
          <leafValues>
            -4.8902821540832520e-01 7.4012476205825806e-01</leafValues></_>
        <_>
          <internalNodes>
            0 -1 65 -548145989 -673202173 -2136780709 1594434819
            -397946643 1427282345 2047453295 1359200831</internalNodes>
          <leafValues>
            -6.4503622055053711e-01 5.9185731410980225e-01</leafValues></_>
        <_>
          <internalNodes>
            0 -1 52 -1729367466 -1674571612 1099189019 271156107
            -257589074 -1719525109 -1665103221 -933772341</internalNodes>
          <leafValues>
            -6.6460436582565308e-01 6.0813438892364502e-01</leafValues></_>
        <_>
          <internalNodes>
            0 -1 53 -337913338 79888675 1344278566 304742671 407068676
            270532629 1129005184 -1213226245</internalNodes>
          <leafValues>
            -6.2084555625915527e-01 6.4673143625259399e-01</leafValues></_></weakClassifiers></_>
    <!-- stage 8 -->
    <_>
      <maxWeakCount>4</maxWeakCount>
      <stageThreshold>-1.9497983157634735e-01</stageThreshold>
      <weakClassifiers>
        <_>
          <internalNodes>
            0 -1 43 -41952513 1600122111 -1101005315 285858743
            1471846634 -1713655045 1257963007 134250175</internalNodes>
          <leafValues>
            -5.7042253017425537e-01 7.0155036449432373e-01</leafValues></_>
        <_>
          <internalNodes>
            0 -1 21 -737279804 -183287451 -536817251 -585980627
            -595459948 -351876709 -1954354773 -236781745</internalNodes>
          <leafValues>
            -6.9444757699966431e-01 6.1732017993927002e-01</leafValues></_>
        <_>
          <internalNodes>
            0 -1 62 -1324096837 -1090396139 268656783 -147467869
            268554380 -620714844 395361 1364660225</internalNodes>
          <leafValues>
            -7.8959369659423828e-01 4.8493707180023193e-01</leafValues></_>
        <_>
          <internalNodes>
            0 -1 9 -1043369744 -1675361280 82071 -1795030960 1216381331
            -1476288384 -83353957 -639942592</internalNodes>
          <leafValues>
            -6.8701970577239990e-01 6.0946583747863770e-01</leafValues></_></weakClassifiers></_>
    <!-- stage 9 -->
    <_>
      <maxWeakCount>4</maxWeakCount>
      <stageThreshold>-1.2226337194442749e-01</stageThreshold>
      <weakClassifiers>
        <_>
          <internalNodes>
            0 -1 22 -49618977 2070804429 -538214529 1474629849 -46858245
            -548484101 1552608255 319488963</internalNodes>
          <leafValues>
            -5.5801105499267578e-01 6.6508990526199341e-01</leafValues></_>
        <_>
          <internalNodes>
            0 -1 60 -8391937 -179351334 -1941110731 1394561035 9093323
            1074316033 461416623 285460999</internalNodes>
          <leafValues>
            -7.4708545207977295e-01 5.2723771333694458e-01</leafValues></_>
        <_>
          <internalNodes>
            0 -1 80 -842008182 -922594813 -2097135614 1099482538
            -1744760382 285246358 -779960318 -1011890237</internalNodes>
          <leafValues>
            -6.6076296567916870e-01 5.5045050382614136e-01</leafValues></_>
        <_>
          <internalNodes>
            0 -1 40 -107482170 -518420318 1627389968 1644773418
            1778499586 151027784 1400954919 -989075505</internalNodes>
          <leafValues>
            -5.9071832895278931e-01 6.3909345865249634e-01</leafValues></_></weakClassifiers></_>
    <!-- stage 10 -->
    <_>
      <maxWeakCount>5</maxWeakCount>
      <stageThreshold>-7.6147538423538208e-01</stageThreshold>
      <weakClassifiers>
        <_>
          <internalNodes>
            0 -1 49 -4700039 -579764327 -1611997697 488210425 -4526856
            -333573 -589647874 419432501</internalNodes>
          <leafValues>
            -5.6133830547332764e-01 6.6101694107055664e-01</leafValues></_>
        <_>
          <internalNodes>
            0 -1 18 -425461046 -540540930 503173083 1473773546 581132418
            -546111646 24531963 -10226201</internalNodes>
          <leafValues>
            -6.0279148817062378e-01 6.6562849283218384e-01</leafValues></_>
        <_>
          <internalNodes>
            0 -1 48 -82578946 -580546280 -746031847 2098270481
            -141897045 -373291008 570489485 1476479107</internalNodes>
          <leafValues>
            -6.5093195438385010e-01 5.6528979539871216e-01</leafValues></_>
        <_>
          <internalNodes>
            0 -1 12 -1036536493 -670777280 69905 -695271293 -2012659357
            -1694498816 -2111307557 -1538823101</internalNodes>
          <leafValues>
            -6.9032043218612671e-01 6.0612261295318604e-01</leafValues></_>
        <_>
          <internalNodes>
            0 -1 34 263444 -196493182 -2130706031 -1157397355
            -1333069170 -129104734 -2113681254 -1690038744</internalNodes>
          <leafValues>
            -7.7017623186111450e-01 5.2768498659133911e-01</leafValues></_></weakClassifiers></_>
    <!-- stage 11 -->
    <_>
      <maxWeakCount>4</maxWeakCount>
      <stageThreshold>-1.7252871394157410e-01</stageThreshold>
      <weakClassifiers>
        <_>
          <internalNodes>
            0 -1 37 1393876168 1560281104 195100851 -547927657
            -2011946321 -2046819584 -1308475377 1871440863</internalNodes>
          <leafValues>
            -7.1232879161834717e-01 6.1273664236068726e-01</leafValues></_>
        <_>
          <internalNodes>
            0 -1 47 -1789947425 318870977 756026483 155385929 1074889407
            939739148 625263787 402866651</internalNodes>
          <leafValues>
            -7.3674076795578003e-01 5.4456460475921631e-01</leafValues></_>
        <_>
          <internalNodes>
            0 -1 11 -898380633 -12418 1198004735 1054850471 272672179
            -42467473 1423267839 -50340359</internalNodes>
          <leafValues>
            -5.7250833511352539e-01 7.4096852540969849e-01</leafValues></_>
        <_>
          <internalNodes>
            0 -1 79 -2080206438 -1204285424 -2145349364 -650034688
            -1879021560 -2096392192 18940101 -1199053187</internalNodes>
          <leafValues>
            -7.4573308229446411e-01 5.6823384761810303e-01</leafValues></_></weakClassifiers></_>
    <!-- stage 12 -->
    <_>
      <maxWeakCount>5</maxWeakCount>
      <stageThreshold>-6.2186467647552490e-01</stageThreshold>
      <weakClassifiers>
        <_>
          <internalNodes>
            0 -1 50 2013167583 392117807 1025421052 1035354108 259986812
            106365964 212701180 2147180479</internalNodes>
          <leafValues>
            -5.7751935720443726e-01 6.4391142129898071e-01</leafValues></_>
        <_>
          <internalNodes>
            0 -1 8 -920915454 -1721925632 411064397 -795377660
            -2002194432 -343259136 -2128508326 -208669941</internalNodes>
          <leafValues>
            -6.6675561666488647e-01 5.6438106298446655e-01</leafValues></_>
        <_>
          <internalNodes>
            0 -1 69 -724577699 -1328545280 268440985 269604864
            -2139061816 -1475803134 733053166 -1411179558</internalNodes>
          <leafValues>
            -6.0696399211883545e-01 6.0009509325027466e-01</leafValues></_>
        <_>
          <internalNodes>
            0 -1 54 -38668325 339054309 1072705535 1032851926
            -1942946316 1063009780 385906164 -469770241</internalNodes>
          <leafValues>
            -4.5853698253631592e-01 7.9826360940933228e-01</leafValues></_>
        <_>
          <internalNodes>
            0 -1 51 -575014561 -674152378 -782154855 -1009556876
            -377034006 -878146425 404802703 325787931</internalNodes>
          <leafValues>
            -7.4057865142822266e-01 5.1110732555389404e-01</leafValues></_></weakClassifiers></_>
    <!-- stage 13 -->
    <_>
      <maxWeakCount>4</maxWeakCount>
      <stageThreshold>-1.0983124971389771e+00</stageThreshold>
      <weakClassifiers>
        <_>
          <internalNodes>
            0 -1 27 1877532119 -45287440 2147385341 -311001615 989364221
            -1175177729 -1074726929 -1947184652</internalNodes>
          <leafValues>
            -5.3846156597137451e-01 7.0443350076675415e-01</leafValues></_>
        <_>
          <internalNodes>
            0 -1 30 -825404295 1074926730 -2147450791 1895825793
            -1744646518 -1987575639 943762059 33594795</internalNodes>
          <leafValues>
            -7.1735101938247681e-01 6.1172819137573242e-01</leafValues></_>
        <_>
          <internalNodes>
            0 -1 7 -901396789 -13713876 -419533249 -769921439 -8593664
            -262840563 -1367419685 -432015825</internalNodes>
          <leafValues>
            -5.8606451749801636e-01 7.4857479333877563e-01</leafValues></_>
        <_>
          <internalNodes>
            0 -1 78 -1248087166 295768099 -765493321 834108695
            -536897576 -1107513379 1440733044 -1650463233</internalNodes>
          <leafValues>
            -5.8551466464996338e-01 7.2036510705947876e-01</leafValues></_></weakClassifiers></_>
    <!-- stage 14 -->
    <_>
      <maxWeakCount>4</maxWeakCount>
      <stageThreshold>-1.3754138946533203e+00</stageThreshold>
      <weakClassifiers>
        <_>
          <internalNodes>
            0 -1 14 -64458 -7345025 2147481887 -1023217665 -318831532
            -8421377 -671613538 -1191968897</internalNodes>
          <leafValues>
            -5.9511345624923706e-01 7.2151899337768555e-01</leafValues></_>
        <_>
          <internalNodes>
            0 -1 31 -682912090 -682164222 135364616 -250933248
            -1869302898 193495040 1250723885 1942952608</internalNodes>
          <leafValues>
            -6.5540993213653564e-01 6.5009200572967529e-01</leafValues></_>
        <_>
          <internalNodes>
            0 -1 41 1073793950 268698386 1678016524 -644216768
            -1186430046 -1299939312 -536212765 -88473576</internalNodes>
          <leafValues>
            -6.9177722930908203e-01 6.4550125598907471e-01</leafValues></_>
        <_>
          <internalNodes>
            0 -1 67 1208075792 1880244354 -1677655532 1342259200
            -1845480856 176161152 -503305050 -32897005</internalNodes>
          <leafValues>
            -7.7920609712600708e-01 5.6688672304153442e-01</leafValues></_></weakClassifiers></_>
    <!-- stage 15 -->
    <_>
      <maxWeakCount>4</maxWeakCount>
      <stageThreshold>-7.7357403934001923e-02</stageThreshold>
      <weakClassifiers>
        <_>
          <internalNodes>
            0 -1 71 1898050079 -1660321245 -2143170460 385974360
            1946200234 118006145 100554 152283224</internalNodes>
          <leafValues>
            -6.8674701452255249e-01 6.7332124710083008e-01</leafValues></_>
        <_>
          <internalNodes>
            0 -1 68 1515278546 -783219968 419528977 2031157523
            1073873386 810025472 1778452506 1042174475</internalNodes>
          <leafValues>
            -7.7513509988784790e-01 5.5807775259017944e-01</leafValues></_>
        <_>
          <internalNodes>
            0 -1 1 -578692461 -1069481961 16843033 598016016 705692037
            2046951424 21409 -209079645</internalNodes>
          <leafValues>
            -6.6179150342941284e-01 7.6034641265869141e-01</leafValues></_>
        <_>
          <internalNodes>
            0 -1 2 -283656504 942599850 -18207168 -1599165717 2088091500
            -1523253483 -445339639 -160870833</internalNodes>
          <leafValues>
            -6.4344537258148193e-01 7.1310329437255859e-01</leafValues></_></weakClassifiers></_>
    <!-- stage 16 -->
    <_>
      <maxWeakCount>4</maxWeakCount>
      <stageThreshold>3.9263267070055008e-02</stageThreshold>
      <weakClassifiers>
        <_>
          <internalNodes>
            0 -1 29 1005197305 -1074071557 2147287037 1543045115
            -17269251 -1074235403 2145452029 -1147620363</internalNodes>
          <leafValues>
            -4.5961821079254150e-01 7.7584332227706909e-01</leafValues></_>
        <_>
          <internalNodes>
            0 -1 72 -22632066 1005514491 -83951878 985595902 -303077880
            -822083753 -50960738 -95523313</internalNodes>
          <leafValues>
            -5.9888553619384766e-01 6.8479049205780029e-01</leafValues></_>
        <_>
          <internalNodes>
            0 -1 6 -2114849301 -1891532304 -487526403 -1124274574
            1710290422 -304072990 -187337226 -361740810</internalNodes>
          <leafValues>
            -6.0675555467605591e-01 7.0828950405120850e-01</leafValues></_>
        <_>
          <internalNodes>
            0 -1 56 286814681 1360019730 1074860315 366026785 169869547
            1648361472 8395035 723962079</internalNodes>
          <leafValues>
            -8.1461495161056519e-01 5.3346663713455200e-01</leafValues></_></weakClassifiers></_>
    <!-- stage 17 -->
    <_>
      <maxWeakCount>4</maxWeakCount>
      <stageThreshold>-1.1067368984222412e+00</stageThreshold>
      <weakClassifiers>
        <_>
          <internalNodes>
            0 -1 15 -524834358 -908136781 1288633672 -553177265
            1449254707 -1807618278 1230446411 -45117853</internalNodes>
          <leafValues>
            -4.4382023811340332e-01 8.0630630254745483e-01</leafValues></_>
        <_>
          <internalNodes>
            0 -1 32 -600356711 -650010367 -804716523 268435712
            -1710250997 -802418557 -2008383009 36001</internalNodes>
          <leafValues>
            -7.8634017705917358e-01 5.9029531478881836e-01</leafValues></_>
        <_>
          <internalNodes>
            0 -1 16 -335609868 1271069350 -336645152 -537399632
            -268452867 2134343541 -1216383567 -744513486</internalNodes>
          <leafValues>
            -6.3686281442642212e-01 7.1792727708816528e-01</leafValues></_>
        <_>
          <internalNodes>
            0 -1 26 -531118375 -68071171 -88082441 -210309100
            -1732996410 955261693 -1163873595 -1473707878</internalNodes>
          <leafValues>
            -5.9595447778701782e-01 7.6028627157211304e-01</leafValues></_></weakClassifiers></_>
    <!-- stage 18 -->
    <_>
      <maxWeakCount>4</maxWeakCount>
      <stageThreshold>-1.2458667159080505e-01</stageThreshold>
      <weakClassifiers>
        <_>
          <internalNodes>
            0 -1 66 -1992127606 -2146918398 268439553 -142589951
            436240541 -671088591 16826416 -452294520</internalNodes>
          <leafValues>
            -7.6851850748062134e-01 6.2671232223510742e-01</leafValues></_>
        <_>
          <internalNodes>
            0 -1 46 -804012032 -783703800 1084293141 1141211400 8749290
            268435465 -1811628031 -1605433801</internalNodes>
          <leafValues>
            -6.6765409708023071e-01 6.5134871006011963e-01</leafValues></_>
        <_>
          <internalNodes>
            0 -1 20 -909471574 1212614850 -2134620636 429199747 34046144
            -635813888 541245610 2012667939</internalNodes>
          <leafValues>
            -6.8758732080459595e-01 6.6192626953125000e-01</leafValues></_>
        <_>
          <internalNodes>
            0 -1 35 538149151 -922583040 4285 50403345 -1610577014
            -1644167168 643 453763211</internalNodes>
          <leafValues>
            -7.0686656236648560e-01 6.8017047643661499e-01</leafValues></_></weakClassifiers></_>
    <!-- stage 19 -->
    <_>
      <maxWeakCount>4</maxWeakCount>
      <stageThreshold>-1.1268650293350220e+00</stageThreshold>
      <weakClassifiers>
        <_>
          <internalNodes>
            0 -1 17 -54329662 1965551301 5991744 660317315 812839602
            -2123038723 1342640153 -179839001</internalNodes>
          <leafValues>
            -5.1090341806411743e-01 7.5991648435592651e-01</leafValues></_>
        <_>
          <internalNodes>
            0 -1 75 -1514288750 833631264 809182458 825867571
            -1711407745 -218234891 90066391 -1311374105</internalNodes>
          <leafValues>
            -5.7670700550079346e-01 7.1975415945053101e-01</leafValues></_>
        <_>
          <internalNodes>
            0 -1 25 33599514 1622178 1073824085 1086423042 131233
            704710668 67633731 1059556099</internalNodes>
          <leafValues>
            -7.6629990339279175e-01 5.6820505857467651e-01</leafValues></_>
        <_>
          <internalNodes>
            0 -1 81 -2028689941 -787457536 285356033 -1811726336
            566820898 134218240 90248 -355122559</internalNodes>
          <leafValues>
            -6.0745966434478760e-01 7.0060867071151733e-01</leafValues></_></weakClassifiers></_></stages>
  <features>
    <_>
      <rect>
        0 5 9 4</rect></_>
    <_>
      <rect>
        0 9 8 6</rect></_>
    <_>
      <rect>
        0 19 4 5</rect></_>
    <_>
      <rect>
        0 34 10 3</rect></_>
    <_>
      <rect>
        1 9 9 10</rect></_>
    <_>
      <rect>
        1 12 8 7</rect></_>
    <_>
      <rect>
        1 17 13 6</rect></_>
    <_>
      <rect>
        1 23 5 5</rect></_>
    <_>
      <rect>
        1 32 6 2</rect></_>
    <_>
      <rect>
        2 4 6 6</rect></_>
    <_>
      <rect>
        2 11 11 9</rect></_>
    <_>
      <rect>
        2 12 8 6</rect></_>
    <_>
      <rect>
        2 20 7 6</rect></_>
    <_>
      <rect>
        2 31 9 5</rect></_>
    <_>
      <rect>
        2 32 9 4</rect></_>
    <_>
      <rect>
        3 15 5 7</rect></_>
    <_>
      <rect>
        4 9 5 3</rect></_>
    <_>
      <rect>
        4 13 4 7</rect></_>
    <_>
      <rect>
        6 14 4 6</rect></_>
    <_>
      <rect>
        6 31 4 4</rect></_>
    <_>
      <rect>
        7 20 4 4</rect></_>
    <_>
      <rect>
        7 33 5 4</rect></_>
    <_>
      <rect>
        9 26 9 5</rect></_>
    <_>
      <rect>
        10 10 7 9</rect></_>
    <_>
      <rect>
        12 13 12 8</rect></_>
    <_>
      <rect>
        12 14 12 9</rect></_>
    <_>
      <rect>
        13 18 8 8</rect></_>
    <_>
      <rect>
        13 21 7 6</rect></_>
    <_>
      <rect>
        13 22 7 5</rect></_>
    <_>
      <rect>
        13 23 7 5</rect></_>
    <_>
      <rect>
        13 34 3 2</rect></_>
    <_>
      <rect>
        15 20 3 3</rect></_>
    <_>
      <rect>
        16 34 3 2</rect></_>
    <_>
      <rect>
        16 35 3 2</rect></_>
    <_>
      <rect>
        16 36 6 4</rect></_>
    <_>
      <rect>
        17 10 3 1</rect></_>
    <_>
      <rect>
        17 10 5 1</rect></_>
    <_>
      <rect>
        17 11 7 8</rect></_>
    <_>
      <rect>
        17 12 3 1</rect></_>
    <_>
      <rect>
        18 11 2 1</rect></_>
    <_>
      <rect>
        18 20 2 3</rect></_>
    <_>
      <rect>
        18 21 6 5</rect></_>
    <_>
      <rect>
        18 32 10 4</rect></_>
    <_>
      <rect>
        18 34 2 1</rect></_>
    <_>
      <rect>
        19 3 9 4</rect></_>
    <_>
      <rect>
        19 11 3 1</rect></_>
    <_>
      <rect>
        19 15 3 5</rect></_>
    <_>
      <rect>
        19 33 2 1</rect></_>
    <_>
      <rect>
        19 36 3 1</rect></_>
    <_>
      <rect>
        19 37 2 1</rect></_>
    <_>
      <rect>
        20 28 2 2</rect></_>
    <_>
      <rect>
        21 12 1 1</rect></_>
    <_>
      <rect>
        21 15 9 7</rect></_>
    <_>
      <rect>
        21 25 1 2</rect></_>
    <_>
      <rect>
        21 26 1 4</rect></_>
    <_>
      <rect>
        21 35 2 1</rect></_>
    <_>
      <rect>
        22 11 2 1</rect></_>
    <_>
      <rect>
        22 12 1 1</rect></_>
    <_>
      <rect>
        22 35 3 1</rect></_>
    <_>
      <rect>
        23 11 3 1</rect></_>
    <_>
      <rect>
        23 13 1 1</rect></_>
    <_>
      <rect>
        23 27 7 5</rect></_>
    <_>
      <rect>
        23 34 4 2</rect></_>
    <_>
      <rect>
        24 21 8 6</rect></_>
    <_>
      <rect>
        24 25 7 5</rect></_>
    <_>
      <rect>
        24 34 1 1</rect></_>
    <_>
      <rect>
        25 33 7 3</rect></_>
    <_>
      <rect>
        26 6 7 3</rect></_>
    <_>
      <rect>
        26 10 2 1</rect></_>
    <_>
      <rect>
        26 10 7 7</rect></_>
    <_>
      <rect>
        29 20 6 6</rect></_>
    <_>
      <rect>
        29 23 4 5</rect></_>
    <_>
      <rect>
        30 8 5 3</rect></_>
    <_>
      <rect>
        30 9 6 5</rect></_>
    <_>
      <rect>
        30 11 4 9</rect></_>
    <_>
      <rect>
        30 11 5 6</rect></_>
    <_>
      <rect>
        30 31 5 3</rect></_>
    <_>
      <rect>
        31 10 5 9</rect></_>
    <_>
      <rect>
        31 13 4 6</rect></_>
    <_>
      <rect>
        31 26 4 6</rect></_>
    <_>
      <rect>
        35 15 4 7</rect></_>
    <_>
      <rect>
        36 30 1 5</rect></_></features></cascade>
</opencv_storage>
