<?xml version="1.0"?>
<opencv_storage>
<stage3>
  <maxWeakCount>4</maxWeakCount>
  <stageThreshold>-1.2332085371017456e+00</stageThreshold>
  <weakClassifiers>
    <_>
      <internalNodes>
        0 -1 106270 -1078199311 864272315 -32779 -1078067215 2147352507
        -1087373381 257933243 185331519</internalNodes>
      <leafValues>
        -5.2647972106933594e-01 7.7035492658615112e-01</leafValues></_>
    <_>
      <internalNodes>
        0 -1 1315 -379850254 -1454616576 -1056845504 1204523346
        -804273417 363200642 -1937570176 -84946352</internalNodes>
      <leafValues>
        -7.3229700326919556e-01 5.8920949697494507e-01</leafValues></_>
    <_>
      <internalNodes>
        0 -1 88408 -1734680617 488080036 1346374939 454361089
        -2137272167 -1979056094 134453390 1065087389</internalNodes>
      <leafValues>
        -7.4076145887374878e-01 5.5552923679351807e-01</leafValues></_>
    <_>
      <internalNodes>
        0 -1 125222 -807412349 -1645355780 89022277 4680900 -536883277
        -688988326 -551682166 -808714289</internalNodes>
      <leafValues>
        -5.5517685413360596e-01 8.3008497953414917e-01</leafValues></_></weakClassifiers></stage3>
</opencv_storage>
