<?xml version="1.0"?>
<opencv_storage>
<stage13>
  <maxWeakCount>4</maxWeakCount>
  <stageThreshold>-1.0983124971389771e+00</stageThreshold>
  <weakClassifiers>
    <_>
      <internalNodes>
        0 -1 69836 1877532119 -45287440 2147385341 -311001615 989364221
        -1175177729 -1074726929 -1947184652</internalNodes>
      <leafValues>
        -5.3846156597137451e-01 7.0443350076675415e-01</leafValues></_>
    <_>
      <internalNodes>
        0 -1 70743 -825404295 1074926730 -2147450791 1895825793
        -1744646518 -1987575639 943762059 33594795</internalNodes>
      <leafValues>
        -7.1735101938247681e-01 6.1172819137573242e-01</leafValues></_>
    <_>
      <internalNodes>
        0 -1 10192 -901396789 -13713876 -419533249 -769921439 -8593664
        -262840563 -1367419685 -432015825</internalNodes>
      <leafValues>
        -5.8606451749801636e-01 7.4857479333877563e-01</leafValues></_>
    <_>
      <internalNodes>
        0 -1 125384 -1248087166 295768099 -765493321 834108695
        -536897576 -1107513379 1440733044 -1650463233</internalNodes>
      <leafValues>
        -5.8551466464996338e-01 7.2036510705947876e-01</leafValues></_></weakClassifiers></stage13>
</opencv_storage>
