<?xml version="1.0"?>
<opencv_storage>
<stage0>
  <maxWeakCount>10</maxWeakCount>
  <stageThreshold>-1.2364270687103271e+00</stageThreshold>
  <weakClassifiers>
    <_>
      <internalNodes>
        0 -1 170283 5.4791726171970367e-02</internalNodes>
      <leafValues>
        -2.0800000429153442e-01 8.0000001192092896e-01</leafValues></_>
    <_>
      <internalNodes>
        0 -1 263034 -1.9517734181135893e-03</internalNodes>
      <leafValues>
        7.6792603731155396e-01 -2.7996435761451721e-01</leafValues></_>
    <_>
      <internalNodes>
        0 -1 277604 -2.2174324840307236e-03</internalNodes>
      <leafValues>
        8.1539398431777954e-01 -2.0413827896118164e-01</leafValues></_>
    <_>
      <internalNodes>
        0 -1 247263 -5.9510674327611923e-04</internalNodes>
      <leafValues>
        5.8994752168655396e-01 -3.0777728557586670e-01</leafValues></_>
    <_>
      <internalNodes>
        0 -1 316592 -1.2033227831125259e-03</internalNodes>
      <leafValues>
        5.5472683906555176e-01 -2.1145953238010406e-01</leafValues></_>
    <_>
      <internalNodes>
        0 -1 305558 1.6592975589446723e-04</internalNodes>
      <leafValues>
        -3.2541260123252869e-01 3.5075584053993225e-01</leafValues></_>
    <_>
      <internalNodes>
        0 -1 235606 -4.9352422356605530e-03</internalNodes>
      <leafValues>
        8.2535719871520996e-01 -1.5213705599308014e-01</leafValues></_>
    <_>
      <internalNodes>
        0 -1 111357 -2.9744603671133518e-04</internalNodes>
      <leafValues>
        5.4626941680908203e-01 -1.7521075904369354e-01</leafValues></_>
    <_>
      <internalNodes>
        0 -1 389467 -8.0049759708344936e-04</internalNodes>
      <leafValues>
        5.3156948089599609e-01 -2.1140210330486298e-01</leafValues></_>
    <_>
      <internalNodes>
        0 -1 251502 -2.9915045015513897e-03</internalNodes>
      <leafValues>
        5.4358279705047607e-01 -1.6892507672309875e-01</leafValues></_></weakClassifiers></stage0>
</opencv_storage>
