<?xml version="1.0"?>
<opencv_storage>
<stage9>
  <maxWeakCount>5</maxWeakCount>
  <stageThreshold>-1.1438168287277222e+00</stageThreshold>
  <weakClassifiers>
    <_>
      <internalNodes>
        0 -1 111619 -11010689 -2301764 -2130668164 -575543395 -269419780
        -226052 -1082369 -25857</internalNodes>
      <leafValues>
        -7.3091405630111694e-01 4.0215325355529785e-01</leafValues></_>
    <_>
      <internalNodes>
        0 -1 59637 -230690210 -35663769 -140250113 -2097505 -1324355250
        -1209950755 -1297112146 -1610637393</internalNodes>
      <leafValues>
        -6.6587328910827637e-01 4.8638099431991577e-01</leafValues></_>
    <_>
      <internalNodes>
        0 -1 82772 -100729857 -2122885 860156765 -538979427 -1178670928
        -67372375 955043977 -69615607</internalNodes>
      <leafValues>
        -5.2954864501953125e-01 6.3538777828216553e-01</leafValues></_>
    <_>
      <internalNodes>
        0 -1 1755 -136975109 -807993392 201916592 -840963550 -309592065
        -67123273 2080196212 -536874190</internalNodes>
      <leafValues>
        -6.7232799530029297e-01 5.3778761625289917e-01</leafValues></_>
    <_>
      <internalNodes>
        0 -1 96493 -75497746 -623913297 -198024662 842185727 -67117489
        1075689742 -202117157 1970798591</internalNodes>
      <leafValues>
        -8.8833576440811157e-01 4.2032030224800110e-01</leafValues></_></weakClassifiers></stage9>
</opencv_storage>
