<?xml version="1.0"?>
<opencv_storage>
<stage11>
  <maxWeakCount>5</maxWeakCount>
  <stageThreshold>-7.2359251976013184e-01</stageThreshold>
  <weakClassifiers>
    <_>
      <internalNodes>
        0 -1 93755 -173810245 -1475362431 -1589444523 -369241649
        -805023525 -1196052343 1314907 1045087</internalNodes>
      <leafValues>
        -7.1549296379089355e-01 6.2583732604980469e-01</leafValues></_>
    <_>
      <internalNodes>
        0 -1 64206 -1183637665 -1076264939 -1123797991 -1651408639
        -1885165509 -1979580416 -1106188133 -552344549</internalNodes>
      <leafValues>
        -5.9791052341461182e-01 6.5258049964904785e-01</leafValues></_>
    <_>
      <internalNodes>
        0 -1 30885 -388240790 -356198190 211311994 -70528046 286326962
        -939523742 1362317403 -11535809</internalNodes>
      <leafValues>
        -7.4921649694442749e-01 5.1078784465789795e-01</leafValues></_>
    <_>
      <internalNodes>
        0 -1 120538 -84149737 -88150273 783475643 1002437175 -1157713350
        -352585104 -1426083138 -1195376914</internalNodes>
      <leafValues>
        -6.1681228876113892e-01 6.6077315807342529e-01</leafValues></_>
    <_>
      <internalNodes>
        0 -1 68366 -769395369 -1082130433 -134219905 -654311425
        -1820592784 -1744833025 -1859209826 -1677740129</internalNodes>
      <leafValues>
        -5.5465561151504517e-01 6.9622796773910522e-01</leafValues></_></weakClassifiers></stage11>
</opencv_storage>
