<?xml version="1.0"?>
<opencv_storage>
<cascade>
  <stageType>BOOST</stageType>
  <featureType>LBP</featureType>
  <height>48</height>
  <width>48</width>
  <stageParams>
    <boostType>GAB</boostType>
    <minHitRate>9.9500000476837158e-01</minHitRate>
    <maxFalseAlarm>5.0000000000000000e-01</maxFalseAlarm>
    <weightTrimRate>9.4999999999999996e-01</weightTrimRate>
    <maxDepth>1</maxDepth>
    <maxWeakCount>100</maxWeakCount></stageParams>
  <featureParams>
    <maxCatCount>256</maxCatCount>
    <featSize>1</featSize></featureParams>
  <stageNum>20</stageNum>
  <stages>
    <!-- stage 0 -->
    <_>
      <maxWeakCount>3</maxWeakCount>
      <stageThreshold>-6.5754950046539307e-01</stageThreshold>
      <weakClassifiers>
        <_>
          <internalNodes>
            0 -1 11 -16713776 -10162179 -1929335049 2134190003
            -397347088 -13565967 -1218324741 -12087393</internalNodes>
          <leafValues>
            -6.4968150854110718e-01 8.6006826162338257e-01</leafValues></_>
        <_>
          <internalNodes>
            0 -1 66 -666838788 1502089224 -1862267431 368530497
            -987522817 -612139006 -1860718369 -1613803122</internalNodes>
          <leafValues>
            -6.2079864740371704e-01 7.6752787828445435e-01</leafValues></_>
        <_>
          <internalNodes>
            0 -1 62 -615189511 -208580583 -1946135151 1426653265
            -654141253 -92274550 202377375 419430427</internalNodes>
          <leafValues>
            -7.7539587020874023e-01 7.0771670341491699e-01</leafValues></_></weakClassifiers></_>
    <!-- stage 1 -->
    <_>
      <maxWeakCount>4</maxWeakCount>
      <stageThreshold>-1.2550573348999023e+00</stageThreshold>
      <weakClassifiers>
        <_>
          <internalNodes>
            0 -1 26 -120532784 -655169602 -134516737 -1090408449
            -38739784 -786948 -42750469 -1351713</internalNodes>
          <leafValues>
            -6.5576589107513428e-01 8.0475801229476929e-01</leafValues></_>
        <_>
          <internalNodes>
            0 -1 84 -2080200550 -2004746240 -2063513251 -1790737979
            -2139061861 419473562 -1996211767 -581087567</internalNodes>
          <leafValues>
            -6.7865687608718872e-01 7.4459099769592285e-01</leafValues></_>
        <_>
          <internalNodes>
            0 -1 20 -335331320 -544882392 67142872 143687963 -1039531008
            -108887917 166063 -2139044689</internalNodes>
          <leafValues>
            -8.1171113252639771e-01 6.2912356853485107e-01</leafValues></_>
        <_>
          <internalNodes>
            0 -1 2 -290992385 -16905036 -285277217 2070023911 -135002945
            -17431436 -1392816417 -4766625</internalNodes>
          <leafValues>
            -5.6944733858108521e-01 7.7623414993286133e-01</leafValues></_></weakClassifiers></_>
    <!-- stage 2 -->
    <_>
      <maxWeakCount>4</maxWeakCount>
      <stageThreshold>-1.2488126754760742e+00</stageThreshold>
      <weakClassifiers>
        <_>
          <internalNodes>
            0 -1 65 -545260065 -545260808 1266667903 1467998191
            898367487 1967126522 863862783 356472831</internalNodes>
          <leafValues>
            -5.5213677883148193e-01 7.5967079401016235e-01</leafValues></_>
        <_>
          <internalNodes>
            0 -1 23 -70254625 -134812193 -1 -808464259 -268452145
            -1073851395 -20997217 319779267</internalNodes>
          <leafValues>
            -6.2735217809677124e-01 7.3592197895050049e-01</leafValues></_>
        <_>
          <internalNodes>
            0 -1 9 -820868624 -578678766 1157666257 -1110425520
            1778433680 -79453560 420121776 -8131872</internalNodes>
          <leafValues>
            -6.9016879796981812e-01 6.4215213060379028e-01</leafValues></_>
        <_>
          <internalNodes>
            0 -1 3 -786963958 -140570157 -1676572645 685908245
            -1207893938 -1196293976 -2010542101 -137248565</internalNodes>
          <leafValues>
            -7.1147584915161133e-01 5.9259366989135742e-01</leafValues></_></weakClassifiers></_>
    <!-- stage 3 -->
    <_>
      <maxWeakCount>4</maxWeakCount>
      <stageThreshold>-1.5666320919990540e-01</stageThreshold>
      <weakClassifiers>
        <_>
          <internalNodes>
            0 -1 49 -1346659536 679651336 -35567687 -665321 -272385
            -1073741893 -738304764 -1179781635</internalNodes>
          <leafValues>
            -6.5376782417297363e-01 7.0359051227569580e-01</leafValues></_>
        <_>
          <internalNodes>
            0 -1 70 -172099613 1397817873 1342265353 1964212227
            277450955 310870022 194638255 1463286251</internalNodes>
          <leafValues>
            -7.0668494701385498e-01 6.2337690591812134e-01</leafValues></_>
        <_>
          <internalNodes>
            0 -1 31 -202124933 -784924665 285347857 1359413253 6529262
            1527554184 2736266 185532675</internalNodes>
          <leafValues>
            -7.2560113668441772e-01 6.0834795236587524e-01</leafValues></_>
        <_>
          <internalNodes>
            0 -1 63 -633874338 2098864467 -2013226798 -65908723
            1241548810 1258520576 -989855222 -365180706</internalNodes>
          <leafValues>
            -7.3462027311325073e-01 6.6479575634002686e-01</leafValues></_></weakClassifiers></_>
    <!-- stage 4 -->
    <_>
      <maxWeakCount>4</maxWeakCount>
      <stageThreshold>-1.0771682858467102e-01</stageThreshold>
      <weakClassifiers>
        <_>
          <internalNodes>
            0 -1 47 -249760580 -871317344 1610859051 -686847999
            -114964081 -267678697 587508907 2136420267</internalNodes>
          <leafValues>
            -7.4133950471878052e-01 6.7373812198638916e-01</leafValues></_>
        <_>
          <internalNodes>
            0 -1 75 -145370117 -649752108 1431393497 1494917120
            445030793 -1816133470 1146612270 251871867</internalNodes>
          <leafValues>
            -7.1407598257064819e-01 6.2121975421905518e-01</leafValues></_>
        <_>
          <internalNodes>
            0 -1 6 -224136717 -706780269 1207961923 757032962 -131032910
            -1146421078 1812039719 -874786433</internalNodes>
          <leafValues>
            -6.0765475034713745e-01 7.5512731075286865e-01</leafValues></_>
        <_>
          <internalNodes>
            0 -1 86 -1652311398 -1475837440 1627979985 -209620991
            -2025700101 -7585664 -931047887 -376486763</internalNodes>
          <leafValues>
            -6.7875510454177856e-01 6.2005770206451416e-01</leafValues></_></weakClassifiers></_>
    <!-- stage 5 -->
    <_>
      <maxWeakCount>4</maxWeakCount>
      <stageThreshold>-1.0077639818191528e+00</stageThreshold>
      <weakClassifiers>
        <_>
          <internalNodes>
            0 -1 69 1537175283 2138378272 92346231 1563885651 867646650
            1472140858 354046975 1058559839</internalNodes>
          <leafValues>
            -6.0792076587677002e-01 7.0038610696792603e-01</leafValues></_>
        <_>
          <internalNodes>
            0 -1 87 -707790629 -597052005 1305399112 223005892
            -816840821 -168628241 1239396315 -820510801</internalNodes>
          <leafValues>
            -4.8164507746696472e-01 8.4645396471023560e-01</leafValues></_>
        <_>
          <internalNodes>
            0 -1 40 -206047762 -202965684 -252790616 1906801890
            -277872724 1371824012 -202401654 -741372242</internalNodes>
          <leafValues>
            -5.8702152967453003e-01 6.4477825164794922e-01</leafValues></_>
        <_>
          <internalNodes>
            0 -1 46 1360712955 1494286336 201525275 525029655
            -1610577747 -1735358464 167805087 487303183</internalNodes>
          <leafValues>
            -6.3948357105255127e-01 6.5090644359588623e-01</leafValues></_></weakClassifiers></_>
    <!-- stage 6 -->
    <_>
      <maxWeakCount>5</maxWeakCount>
      <stageThreshold>-4.3980062007904053e-01</stageThreshold>
      <weakClassifiers>
        <_>
          <internalNodes>
            0 -1 8 -553661438 -1048577 -1904185601 -151323905 -67173376
            -358 -2465 -16777217</internalNodes>
          <leafValues>
            -5.7714283466339111e-01 7.0823532342910767e-01</leafValues></_>
        <_>
          <internalNodes>
            0 -1 67 -738200837 1471398296 26301551 1431013802
            -1174240593 1252827147 -1718515521 1597235247</internalNodes>
          <leafValues>
            -6.0457336902618408e-01 6.2946563959121704e-01</leafValues></_>
        <_>
          <internalNodes>
            0 -1 27 -509747233 -1253043196 -883776737 -552283952
            1660964600 -1919909376 -891282513 -67579396</internalNodes>
          <leafValues>
            -6.2986332178115845e-01 6.9467079639434814e-01</leafValues></_>
        <_>
          <internalNodes>
            0 -1 92 -570971741 -1999274817 -1360099583 -1930777533
            -675044925 1576140631 -849988157 -910166133</internalNodes>
          <leafValues>
            -5.2862972021102905e-01 7.3793876171112061e-01</leafValues></_>
        <_>
          <internalNodes>
            0 -1 14 -884280141 -616476480 125895729 -251198430 285449351
            2139263107 419435035 -6332303</internalNodes>
          <leafValues>
            -5.9120523929595947e-01 6.6636967658996582e-01</leafValues></_></weakClassifiers></_>
    <!-- stage 7 -->
    <_>
      <maxWeakCount>4</maxWeakCount>
      <stageThreshold>-1.0672258138656616e+00</stageThreshold>
      <weakClassifiers>
        <_>
          <internalNodes>
            0 -1 74 2143025371 1602183005 -167811145 2139086847
            2146959262 -683712513 825979903 1467448831</internalNodes>
          <leafValues>
            -5.4681646823883057e-01 7.0458137989044189e-01</leafValues></_>
        <_>
          <internalNodes>
            0 -1 81 -669792103 -1073462652 1900396884 -574254903
            -2130083508 -927334009 -1648247607 -908333685</internalNodes>
          <leafValues>
            -6.1063778400421143e-01 6.3094300031661987e-01</leafValues></_>
        <_>
          <internalNodes>
            0 -1 18 -247207186 -1219821574 140439327 -586457227
            -1046224646 -30343169 1615872795 -11010209</internalNodes>
          <leafValues>
            -5.2723050117492676e-01 7.0001262426376343e-01</leafValues></_>
        <_>
          <internalNodes>
            0 -1 50 -673459241 -1652436968 20895 327532689 1347996651
            -793935684 142657595 1209782459</internalNodes>
          <leafValues>
            -6.6538208723068237e-01 6.1745893955230713e-01</leafValues></_></weakClassifiers></_>
    <!-- stage 8 -->
    <_>
      <maxWeakCount>4</maxWeakCount>
      <stageThreshold>-1.0134552717208862e+00</stageThreshold>
      <weakClassifiers>
        <_>
          <internalNodes>
            0 -1 79 -553660906 1584857054 -16847236 -1428226338
            -16888308 1282702958 -285229922 -28379638</internalNodes>
          <leafValues>
            -5.7936507463455200e-01 6.8827158212661743e-01</leafValues></_>
        <_>
          <internalNodes>
            0 -1 39 -70790482 -2181238 -77145366 -102796468 -25434740
            1464139660 -221578582 -135272597</internalNodes>
          <leafValues>
            -5.4886490106582642e-01 7.1452987194061279e-01</leafValues></_>
        <_>
          <internalNodes>
            0 -1 80 -841228861 -594105208 -1881288943 -980299959
            -557930565 -50331817 -539321077 -543425137</internalNodes>
          <leafValues>
            -4.9877163767814636e-01 7.2722965478897095e-01</leafValues></_>
        <_>
          <internalNodes>
            0 -1 59 2098393563 -217755632 486595445 -547236471 536908954
            -83754967 402653210 1593918483</internalNodes>
          <leafValues>
            -6.4984840154647827e-01 5.9300094842910767e-01</leafValues></_></weakClassifiers></_>
    <!-- stage 9 -->
    <_>
      <maxWeakCount>5</maxWeakCount>
      <stageThreshold>-5.1585191488265991e-01</stageThreshold>
      <weakClassifiers>
        <_>
          <internalNodes>
            0 -1 15 -10420510 -1074409483 -1080647681 -2013310977
            -167707184 -1074399245 2137387003 -268447745</internalNodes>
          <leafValues>
            -5.2873563766479492e-01 6.8544602394104004e-01</leafValues></_>
        <_>
          <internalNodes>
            0 -1 64 -216006725 -14073592 83953487 1024282889 622024894
            -131720437 322723499 2136694959</internalNodes>
          <leafValues>
            -6.1792707443237305e-01 6.0210072994232178e-01</leafValues></_>
        <_>
          <internalNodes>
            0 -1 44 155456868 -69347863 -251309765 -140934205 -903174753
            -353843064 -262626579 -870887400</internalNodes>
          <leafValues>
            -6.3013118505477905e-01 5.8309620618820190e-01</leafValues></_>
        <_>
          <internalNodes>
            0 -1 73 -621813109 -83903426 -16814529 469761301 -1157710158
            -98309 989772475 -1966084373</internalNodes>
          <leafValues>
            -5.0391066074371338e-01 7.0687949657440186e-01</leafValues></_>
        <_>
          <internalNodes>
            0 -1 42 624912127 822151432 -2120467683 286359937
            -2139059570 -628424320 470018303 153331371</internalNodes>
          <leafValues>
            -6.5193873643875122e-01 5.5067098140716553e-01</leafValues></_></weakClassifiers></_>
    <!-- stage 10 -->
    <_>
      <maxWeakCount>5</maxWeakCount>
      <stageThreshold>-7.7825564146041870e-01</stageThreshold>
      <weakClassifiers>
        <_>
          <internalNodes>
            0 -1 10 242221040 -1074528286 1879048176 2071396336
            264237043 1333772276 1870135281 -3932688</internalNodes>
          <leafValues>
            -5.4330706596374512e-01 6.7801856994628906e-01</leafValues></_>
        <_>
          <internalNodes>
            0 -1 71 -182217295 -1181693936 1362104665 867254489
            -662648406 -1425506269 302424713 252697243</internalNodes>
          <leafValues>
            -6.1998528242111206e-01 5.7817590236663818e-01</leafValues></_>
        <_>
          <internalNodes>
            0 -1 16 -648077302 -644398817 -1811623747 503742464
            -628617204 -72773576 -247141634 -100402677</internalNodes>
          <leafValues>
            -6.7245328426361084e-01 5.1464992761611938e-01</leafValues></_>
        <_>
          <internalNodes>
            0 -1 38 -1329086262 -710574054 -1853763578 -804421547
            411552654 1342722178 1917037451 -1656122037</internalNodes>
          <leafValues>
            -6.0172992944717407e-01 6.2722980976104736e-01</leafValues></_>
        <_>
          <internalNodes>
            0 -1 61 -784219169 399348162 1231327471 1461226193
            1637263563 684214417 -792616741 419553695</internalNodes>
          <leafValues>
            -7.6026690006256104e-01 4.7986024618148804e-01</leafValues></_></weakClassifiers></_>
    <!-- stage 11 -->
    <_>
      <maxWeakCount>5</maxWeakCount>
      <stageThreshold>-5.1241058111190796e-01</stageThreshold>
      <weakClassifiers>
        <_>
          <internalNodes>
            0 -1 54 -1671545090 533528572 1856961852 1072627708
            1594687400 1603076092 -135332370 -2198020</internalNodes>
          <leafValues>
            -5.0000000000000000e-01 6.9808304309844971e-01</leafValues></_>
        <_>
          <internalNodes>
            0 -1 19 -25166833 -15560906 1056582399 -56361438 1601920780
            -569112827 -562060086 -854331525</internalNodes>
          <leafValues>
            -4.8308187723159790e-01 6.7776340246200562e-01</leafValues></_>
        <_>
          <internalNodes>
            0 -1 45 -1269556005 419500516 152113881 167182673 1226549738
            -1937735512 186304955 317418379</internalNodes>
          <leafValues>
            -7.1760183572769165e-01 5.3513026237487793e-01</leafValues></_>
        <_>
          <internalNodes>
            0 -1 83 -594550831 -855245426 1828716425 -576733731
            -1378898038 -1367020306 -304096245 -908067557</internalNodes>
          <leafValues>
            -5.3735148906707764e-01 6.8947106599807739e-01</leafValues></_>
        <_>
          <internalNodes>
            0 -1 88 -45112832 1896304817 1628047393 352579843
            -2140240181 -1735544416 1082704269 -857737045</internalNodes>
          <leafValues>
            -6.3330376148223877e-01 5.8622628450393677e-01</leafValues></_></weakClassifiers></_>
    <!-- stage 12 -->
    <_>
      <maxWeakCount>6</maxWeakCount>
      <stageThreshold>-1.6811682283878326e-01</stageThreshold>
      <weakClassifiers>
        <_>
          <internalNodes>
            0 -1 77 -273682710 -366039314 -1073764365 -67371097
            2147479551 -8388611 1870134775 -671612937</internalNodes>
          <leafValues>
            -4.8983365297317505e-01 6.8705320358276367e-01</leafValues></_>
        <_>
          <internalNodes>
            0 -1 5 -769919504 -2028084920 268767440 -318388334
            -1073021812 414386180 -1968545632 -1954570093</internalNodes>
          <leafValues>
            -6.0081148147583008e-01 5.5099916458129883e-01</leafValues></_>
        <_>
          <internalNodes>
            0 -1 13 -1092616530 -553648276 2063560302 -251723993
            -159387896 -302022771 -143149313 -523239570</internalNodes>
          <leafValues>
            -5.7119429111480713e-01 5.9849190711975098e-01</leafValues></_>
        <_>
          <internalNodes>
            0 -1 51 1551552538 -1710030829 -1853566448 -99532413
            1073871896 1478494338 -293435236 -90288630</internalNodes>
          <leafValues>
            -7.0106148719787598e-01 5.0021153688430786e-01</leafValues></_>
        <_>
          <internalNodes>
            0 -1 76 -1853637199 -115781327 151163145 -1191116735 4489227
            -670400511 136186027 1394812997</internalNodes>
          <leafValues>
            -7.1174281835556030e-01 5.4574406147003174e-01</leafValues></_>
        <_>
          <internalNodes>
            0 -1 89 -1047293477 -784117756 -2130499063 1141411851
            -2013031773 -166723510 -737443702 -642265981</internalNodes>
          <leafValues>
            -6.1624300479888916e-01 6.3106089830398560e-01</leafValues></_></weakClassifiers></_>
    <!-- stage 13 -->
    <_>
      <maxWeakCount>6</maxWeakCount>
      <stageThreshold>-8.2044750452041626e-02</stageThreshold>
      <weakClassifiers>
        <_>
          <internalNodes>
            0 -1 65 2146958303 1602185466 1266662911 1937506159
            871100351 1430124538 309854207 393738111</internalNodes>
          <leafValues>
            -5.1491051912307739e-01 6.6229760646820068e-01</leafValues></_>
        <_>
          <internalNodes>
            0 -1 21 -134225286 1598684899 1413479898 -581304357
            1076032498 -281935902 341047099 -15466698</internalNodes>
          <leafValues>
            -5.6188291311264038e-01 6.3066297769546509e-01</leafValues></_>
        <_>
          <internalNodes>
            0 -1 30 -14220203 -615431807 1368412491 520241169 1585978622
            -645264325 -368965237 302142155</internalNodes>
          <leafValues>
            -7.1629005670547485e-01 4.6502667665481567e-01</leafValues></_>
        <_>
          <internalNodes>
            0 -1 85 -135939167 292729649 846632993 811794405 -637536108
            -168427563 -38283828 -706754594</internalNodes>
          <leafValues>
            -5.4668396711349487e-01 6.5505105257034302e-01</leafValues></_>
        <_>
          <internalNodes>
            0 -1 72 -216934689 -178962302 -1858006949 -175828203
            218151866 192962689 37749643 1494417667</internalNodes>
          <leafValues>
            -7.1439540386199951e-01 4.6662089228630066e-01</leafValues></_>
        <_>
          <internalNodes>
            0 -1 57 -213124662 -986543869 -1305747324 -783351245
            -490012242 635018 -519915359 -516459863</internalNodes>
          <leafValues>
            -5.6742310523986816e-01 6.4064043760299683e-01</leafValues></_></weakClassifiers></_>
    <!-- stage 14 -->
    <_>
      <maxWeakCount>5</maxWeakCount>
      <stageThreshold>-5.4622524976730347e-01</stageThreshold>
      <weakClassifiers>
        <_>
          <internalNodes>
            0 -1 28 -9502853 -1074528260 1073676287 2079932148
            -1082633729 -1150255632 -67567617 -67570187</internalNodes>
          <leafValues>
            -2.8455284237861633e-01 7.6271188259124756e-01</leafValues></_>
        <_>
          <internalNodes>
            0 -1 1 -160707038 -1827821686 -1941662979 -1174310329
            -1610231760 -368934906 -379581064 -98043313</internalNodes>
          <leafValues>
            -5.1601767539978027e-01 5.8629614114761353e-01</leafValues></_>
        <_>
          <internalNodes>
            0 -1 93 -845773430 -937485864 201400512 -865959227 -98877310
            -1186955135 -970486653 -910843101</internalNodes>
          <leafValues>
            -6.3559049367904663e-01 4.9698758125305176e-01</leafValues></_>
        <_>
          <internalNodes>
            0 -1 68 -1077546021 -618560937 1107368923 -1790357309
            -200703269 -1605791616 -2147437337 352370749</internalNodes>
          <leafValues>
            -7.4256491661071777e-01 4.3405953049659729e-01</leafValues></_>
        <_>
          <internalNodes>
            0 -1 53 -263720766 1178992367 -168558670 -302844427
            -176820785 -1259077767 1146481843 -524815413</internalNodes>
          <leafValues>
            -5.4734206199645996e-01 6.3693368434906006e-01</leafValues></_></weakClassifiers></_>
    <!-- stage 15 -->
    <_>
      <maxWeakCount>5</maxWeakCount>
      <stageThreshold>-5.2367120981216431e-01</stageThreshold>
      <weakClassifiers>
        <_>
          <internalNodes>
            0 -1 4 -280035374 -566857886 -1342182474 -4465952 1593831398
            -1610612749 -545825805 -268479744</internalNodes>
          <leafValues>
            -4.4134077429771423e-01 6.6270786523818970e-01</leafValues></_>
        <_>
          <internalNodes>
            0 -1 17 -554546442 -69633 -4264193 -1128071169 -278986006
            2147450743 -4227329 -80220161</internalNodes>
          <leafValues>
            -5.0836533308029175e-01 6.0597443580627441e-01</leafValues></_>
        <_>
          <internalNodes>
            0 -1 41 -1854932690 1128469038 -2080106422 1884424214
            463485824 1495290240 312552123 -201328117</internalNodes>
          <leafValues>
            -5.7588613033294678e-01 5.4599970579147339e-01</leafValues></_>
        <_>
          <internalNodes>
            0 -1 37 -1652044431 421200160 444665939 1082591488 47230123
            4706705 -1341992277 62626953</internalNodes>
          <leafValues>
            -6.5643310546875000e-01 4.8877131938934326e-01</leafValues></_>
        <_>
          <internalNodes>
            0 -1 35 -800720182 -584740849 -1467558826 -250674494
            285848027 -37222398 -1862164333 -686972153</internalNodes>
          <leafValues>
            -5.7787144184112549e-01 5.7160395383834839e-01</leafValues></_></weakClassifiers></_>
    <!-- stage 16 -->
    <_>
      <maxWeakCount>6</maxWeakCount>
      <stageThreshold>-9.8621016740798950e-01</stageThreshold>
      <weakClassifiers>
        <_>
          <internalNodes>
            0 -1 91 -357643478 -1431655766 670544689 -68047873
            -1073758209 -1888501761 -168356491 -437389321</internalNodes>
          <leafValues>
            -4.4954127073287964e-01 6.7330676317214966e-01</leafValues></_>
        <_>
          <internalNodes>
            0 -1 36 -1143310345 -8392207 -1082198043 2046534071
            -1337868485 586420733 -1140917505 -1165199915</internalNodes>
          <leafValues>
            -4.7493571043014526e-01 6.2657690048217773e-01</leafValues></_>
        <_>
          <internalNodes>
            0 -1 32 886569789 -1794103536 17322389 396443828 1510640319
            721633929 973114331 531580629</internalNodes>
          <leafValues>
            -5.9959697723388672e-01 5.4039531946182251e-01</leafValues></_>
        <_>
          <internalNodes>
            0 -1 7 -648551801 -298865046 1533533702 -1750089942
            -1863068477 1475868150 17756928 -152699089</internalNodes>
          <leafValues>
            -4.8655137419700623e-01 6.3152951002120972e-01</leafValues></_>
        <_>
          <internalNodes>
            0 -1 25 -2130210237 -250623667 -939294517 105222273
            -1951555411 -1607991072 -2137942872 -1255061362</internalNodes>
          <leafValues>
            -5.4337823390960693e-01 5.8901864290237427e-01</leafValues></_>
        <_>
          <internalNodes>
            0 -1 90 -217283336 1565852693 -1073344254 293822666
            -251582577 -1040039405 688095659 1528502731</internalNodes>
          <leafValues>
            -6.9504696130752563e-01 4.9541440606117249e-01</leafValues></_></weakClassifiers></_>
    <!-- stage 17 -->
    <_>
      <maxWeakCount>5</maxWeakCount>
      <stageThreshold>-5.3176099061965942e-01</stageThreshold>
      <weakClassifiers>
        <_>
          <internalNodes>
            0 -1 29 -1359642625 2079948765 -1074466828 -985099
            -570900482 1073020912 -806322183 -1346880555</internalNodes>
          <leafValues>
            -3.3333334326744080e-01 7.1378707885742188e-01</leafValues></_>
        <_>
          <internalNodes>
            0 -1 60 -1142687017 1896992850 310746446 1433362771
            222493886 163679474 179711 1399811839</internalNodes>
          <leafValues>
            -6.6779386997222900e-01 4.9255496263504028e-01</leafValues></_>
        <_>
          <internalNodes>
            0 -1 12 1982594751 -7606690 2145578659 -300962206 1560407815
            1023868249 1577576015 -296231089</internalNodes>
          <leafValues>
            -5.2480661869049072e-01 6.0833054780960083e-01</leafValues></_>
        <_>
          <internalNodes>
            0 -1 24 -869810110 -1647099894 -1400828612 51970179
            147497608 135514176 -1427668278 -604040690</internalNodes>
          <leafValues>
            -5.4290473461151123e-01 5.8400702476501465e-01</leafValues></_>
        <_>
          <internalNodes>
            0 -1 94 -385881974 1361482662 270344 2328641 -921892352
            -259469245 1208328431 -389305210</internalNodes>
          <leafValues>
            -6.7039167881011963e-01 4.7800558805465698e-01</leafValues></_></weakClassifiers></_>
    <!-- stage 18 -->
    <_>
      <maxWeakCount>6</maxWeakCount>
      <stageThreshold>-3.1958651542663574e-01</stageThreshold>
      <weakClassifiers>
        <_>
          <internalNodes>
            0 -1 34 -1078043393 -983044 -1073856513 -1074480140
            -1126416902 1071185144 2147418110 -67586820</internalNodes>
          <leafValues>
            -4.0268456935882568e-01 6.9767439365386963e-01</leafValues></_>
        <_>
          <internalNodes>
            0 -1 22 -318613290 -315252727 -2147462525 889342850
            -2071903056 -914161118 -889173665 -1282260353</internalNodes>
          <leafValues>
            -5.7549721002578735e-01 5.5452555418014526e-01</leafValues></_>
        <_>
          <internalNodes>
            0 -1 58 -5259349 -1953120485 -32843 -1074006017 -91
            -1348993117 2077707701 -284166297</internalNodes>
          <leafValues>
            -4.9030974507331848e-01 6.0858750343322754e-01</leafValues></_>
        <_>
          <internalNodes>
            0 -1 78 956337311 1532035200 134418903 796991583 302674106
            161811265 67383837 2135048783</internalNodes>
          <leafValues>
            -7.7180415391921997e-01 4.0047350525856018e-01</leafValues></_>
        <_>
          <internalNodes>
            0 -1 82 101239484 84680968 1141080324 -1794555520 26215272
            562106506 567148692 -1343290761</internalNodes>
          <leafValues>
            -6.6775894165039062e-01 4.5264765620231628e-01</leafValues></_>
        <_>
          <internalNodes>
            0 -1 0 -459288232 -1002438272 1091781696 1628688658
            201509576 -121007999 -2104749499 -1372849452</internalNodes>
          <leafValues>
            -7.6232022047042847e-01 4.1440060734748840e-01</leafValues></_></weakClassifiers></_>
    <!-- stage 19 -->
    <_>
      <maxWeakCount>6</maxWeakCount>
      <stageThreshold>-9.9355053901672363e-01</stageThreshold>
      <weakClassifiers>
        <_>
          <internalNodes>
            0 -1 52 -671393164 -201330822 -1224741219 805256929
            -92554070 -118751250 716845706 174779060</internalNodes>
          <leafValues>
            -4.3656715750694275e-01 6.5981012582778931e-01</leafValues></_>
        <_>
          <internalNodes>
            0 -1 33 -1341400926 -145261572 -335609876 -205685781
            -1219629105 -740425745 -707985411 -1780648113</internalNodes>
          <leafValues>
            -5.0181680917739868e-01 5.6909638643264771e-01</leafValues></_>
        <_>
          <internalNodes>
            0 -1 56 -575146769 -230750079 1891688733 1911636042
            -1457215494 -1780998086 -2038264902 16904319</internalNodes>
          <leafValues>
            -6.7837548255920410e-01 4.5124557614326477e-01</leafValues></_>
        <_>
          <internalNodes>
            0 -1 55 -1753500927 -1826970734 1350582449 -675037108
            -930772597 -601014132 -1568110403 -3323675</internalNodes>
          <leafValues>
            -5.6046485900878906e-01 5.6889581680297852e-01</leafValues></_>
        <_>
          <internalNodes>
            0 -1 43 -1325140794 -1845002033 -2137505272 -774799354
            1112062856 1346897024 -1341599094 -154186037</internalNodes>
          <leafValues>
            -5.8075952529907227e-01 5.6429183483123779e-01</leafValues></_>
        <_>
          <internalNodes>
            0 -1 48 1921499247 2144334591 -262867977 -207707025
            -539633979 520058223 625455324 -239029857</internalNodes>
          <leafValues>
            -4.7699537873268127e-01 7.1182614564895630e-01</leafValues></_></weakClassifiers></_></stages>
  <features>
    <_>
      <rect>
        0 5 9 4</rect></_>
    <_>
      <rect>
        0 22 5 5</rect></_>
    <_>
      <rect>
        0 26 10 6</rect></_>
    <_>
      <rect>
        0 34 10 3</rect></_>
    <_>
      <rect>
        1 3 9 5</rect></_>
    <_>
      <rect>
        1 8 6 3</rect></_>
    <_>
      <rect>
        1 10 8 9</rect></_>
    <_>
      <rect>
        1 13 4 6</rect></_>
    <_>
      <rect>
        1 33 8 3</rect></_>
    <_>
      <rect>
        2 2 10 4</rect></_>
    <_>
      <rect>
        2 3 9 4</rect></_>
    <_>
      <rect>
        2 13 10 8</rect></_>
    <_>
      <rect>
        2 19 5 6</rect></_>
    <_>
      <rect>
        2 31 5 2</rect></_>
    <_>
      <rect>
        3 4 7 6</rect></_>
    <_>
      <rect>
        3 11 10 9</rect></_>
    <_>
      <rect>
        3 32 5 3</rect></_>
    <_>
      <rect>
        3 32 9 4</rect></_>
    <_>
      <rect>
        4 13 4 7</rect></_>
    <_>
      <rect>
        4 24 3 4</rect></_>
    <_>
      <rect>
        4 33 4 3</rect></_>
    <_>
      <rect>
        5 14 4 7</rect></_>
    <_>
      <rect>
        5 29 5 5</rect></_>
    <_>
      <rect>
        7 26 11 5</rect></_>
    <_>
      <rect>
        9 21 3 3</rect></_>
    <_>
      <rect>
        10 18 4 5</rect></_>
    <_>
      <rect>
        11 10 7 9</rect></_>
    <_>
      <rect>
        12 19 8 6</rect></_>
    <_>
      <rect>
        12 22 8 5</rect></_>
    <_>
      <rect>
        12 23 7 4</rect></_>
    <_>
      <rect>
        12 34 5 3</rect></_>
    <_>
      <rect>
        12 34 8 2</rect></_>
    <_>
      <rect>
        13 5 4 3</rect></_>
    <_>
      <rect>
        13 15 3 5</rect></_>
    <_>
      <rect>
        13 21 8 5</rect></_>
    <_>
      <rect>
        14 12 3 6</rect></_>
    <_>
      <rect>
        14 20 7 7</rect></_>
    <_>
      <rect>
        15 11 2 1</rect></_>
    <_>
      <rect>
        15 17 3 4</rect></_>
    <_>
      <rect>
        15 20 3 3</rect></_>
    <_>
      <rect>
        15 22 3 2</rect></_>
    <_>
      <rect>
        15 23 3 2</rect></_>
    <_>
      <rect>
        16 10 4 1</rect></_>
    <_>
      <rect>
        16 21 3 2</rect></_>
    <_>
      <rect>
        16 35 5 4</rect></_>
    <_>
      <rect>
        17 11 3 1</rect></_>
    <_>
      <rect>
        17 11 5 1</rect></_>
    <_>
      <rect>
        18 11 7 9</rect></_>
    <_>
      <rect>
        18 18 3 4</rect></_>
    <_>
      <rect>
        18 31 10 5</rect></_>
    <_>
      <rect>
        18 33 2 1</rect></_>
    <_>
      <rect>
        19 2 9 4</rect></_>
    <_>
      <rect>
        19 5 9 5</rect></_>
    <_>
      <rect>
        19 15 2 5</rect></_>
    <_>
      <rect>
        19 22 6 4</rect></_>
    <_>
      <rect>
        19 32 9 4</rect></_>
    <_>
      <rect>
        19 35 1 1</rect></_>
    <_>
      <rect>
        20 19 2 3</rect></_>
    <_>
      <rect>
        20 30 9 4</rect></_>
    <_>
      <rect>
        20 34 4 1</rect></_>
    <_>
      <rect>
        21 12 1 1</rect></_>
    <_>
      <rect>
        21 34 1 1</rect></_>
    <_>
      <rect>
        21 35 2 1</rect></_>
    <_>
      <rect>
        22 7 8 2</rect></_>
    <_>
      <rect>
        22 11 2 1</rect></_>
    <_>
      <rect>
        22 12 1 1</rect></_>
    <_>
      <rect>
        22 12 6 8</rect></_>
    <_>
      <rect>
        22 34 1 1</rect></_>
    <_>
      <rect>
        22 36 1 1</rect></_>
    <_>
      <rect>
        23 10 2 1</rect></_>
    <_>
      <rect>
        23 12 1 1</rect></_>
    <_>
      <rect>
        23 28 7 5</rect></_>
    <_>
      <rect>
        23 34 3 1</rect></_>
    <_>
      <rect>
        24 2 7 7</rect></_>
    <_>
      <rect>
        24 12 1 1</rect></_>
    <_>
      <rect>
        24 33 1 1</rect></_>
    <_>
      <rect>
        24 33 4 3</rect></_>
    <_>
      <rect>
        24 34 8 2</rect></_>
    <_>
      <rect>
        25 10 2 1</rect></_>
    <_>
      <rect>
        27 5 7 4</rect></_>
    <_>
      <rect>
        27 12 7 9</rect></_>
    <_>
      <rect>
        27 21 7 5</rect></_>
    <_>
      <rect>
        27 23 1 3</rect></_>
    <_>
      <rect>
        28 20 6 6</rect></_>
    <_>
      <rect>
        28 31 5 4</rect></_>
    <_>
      <rect>
        31 15 5 4</rect></_>
    <_>
      <rect>
        31 31 4 4</rect></_>
    <_>
      <rect>
        32 12 5 8</rect></_>
    <_>
      <rect>
        32 15 4 6</rect></_>
    <_>
      <rect>
        33 11 5 9</rect></_>
    <_>
      <rect>
        33 13 3 8</rect></_>
    <_>
      <rect>
        33 31 4 3</rect></_>
    <_>
      <rect>
        35 15 4 7</rect></_>
    <_>
      <rect>
        36 14 4 7</rect></_>
    <_>
      <rect>
        37 16 3 4</rect></_></features></cascade>
</opencv_storage>
