<?xml version="1.0"?>
<opencv_storage>
<stage19>
  <maxWeakCount>6</maxWeakCount>
  <stageThreshold>-9.9355053901672363e-01</stageThreshold>
  <weakClassifiers>
    <_>
      <internalNodes>
        0 -1 91407 -671393164 -201330822 -1224741219 805256929 -92554070
        -118751250 716845706 174779060</internalNodes>
      <leafValues>
        -4.3656715750694275e-01 6.5981012582778931e-01</leafValues></_>
    <_>
      <internalNodes>
        0 -1 69154 -1341400926 -145261572 -335609876 -205685781
        -1219629105 -740425745 -707985411 -1780648113</internalNodes>
      <leafValues>
        -5.0181680917739868e-01 5.6909638643264771e-01</leafValues></_>
    <_>
      <internalNodes>
        0 -1 93766 -575146769 -230750079 1891688733 1911636042
        -1457215494 -1780998086 -2038264902 16904319</internalNodes>
      <leafValues>
        -6.7837548255920410e-01 4.5124557614326477e-01</leafValues></_>
    <_>
      <internalNodes>
        0 -1 93683 -1753500927 -1826970734 1350582449 -675037108
        -930772597 -601014132 -1568110403 -3323675</internalNodes>
      <leafValues>
        -5.6046485900878906e-01 5.6889581680297852e-01</leafValues></_>
    <_>
      <internalNodes>
        0 -1 81945 -1325140794 -1845002033 -2137505272 -774799354
        1112062856 1346897024 -1341599094 -154186037</internalNodes>
      <leafValues>
        -5.8075952529907227e-01 5.6429183483123779e-01</leafValues></_>
    <_>
      <internalNodes>
        0 -1 89189 1921499247 2144334591 -262867977 -207707025
        -539633979 520058223 625455324 -239029857</internalNodes>
      <leafValues>
        -4.7699537873268127e-01 7.1182614564895630e-01</leafValues></_></weakClassifiers></stage19>
</opencv_storage>
