<?xml version="1.0"?>
<opencv_storage>
<stage17>
  <maxWeakCount>5</maxWeakCount>
  <stageThreshold>-5.3176099061965942e-01</stageThreshold>
  <weakClassifiers>
    <_>
      <internalNodes>
        0 -1 65779 -1359642625 2079948765 -1074466828 -985099 -570900482
        1073020912 -806322183 -1346880555</internalNodes>
      <leafValues>
        -3.3333334326744080e-01 7.1378707885742188e-01</leafValues></_>
    <_>
      <internalNodes>
        0 -1 98878 -1142687017 1896992850 310746446 1433362771 222493886
        163679474 179711 1399811839</internalNodes>
      <leafValues>
        -6.6779386997222900e-01 4.9255496263504028e-01</leafValues></_>
    <_>
      <internalNodes>
        0 -1 15312 1982594751 -7606690 2145578659 -300962206 1560407815
        1023868249 1577576015 -296231089</internalNodes>
      <leafValues>
        -5.2480661869049072e-01 6.0833054780960083e-01</leafValues></_>
    <_>
      <internalNodes>
        0 -1 51891 -869810110 -1647099894 -1400828612 51970179 147497608
        135514176 -1427668278 -604040690</internalNodes>
      <leafValues>
        -5.4290473461151123e-01 5.8400702476501465e-01</leafValues></_>
    <_>
      <internalNodes>
        0 -1 135264 -385881974 1361482662 270344 2328641 -921892352
        -259469245 1208328431 -389305210</internalNodes>
      <leafValues>
        -6.7039167881011963e-01 4.7800558805465698e-01</leafValues></_></weakClassifiers></stage17>
</opencv_storage>
