<?xml version="1.0"?>
<opencv_storage>
<stage13>
  <maxWeakCount>6</maxWeakCount>
  <stageThreshold>-8.2044750452041626e-02</stageThreshold>
  <weakClassifiers>
    <_>
      <internalNodes>
        0 -1 102096 2146958303 1602185466 1266662911 1937506159
        871100351 1430124538 309854207 393738111</internalNodes>
      <leafValues>
        -5.1491051912307739e-01 6.6229760646820068e-01</leafValues></_>
    <_>
      <internalNodes>
        0 -1 30885 -134225286 1598684899 1413479898 -581304357
        1076032498 -281935902 341047099 -15466698</internalNodes>
      <leafValues>
        -5.6188291311264038e-01 6.3066297769546509e-01</leafValues></_>
    <_>
      <internalNodes>
        0 -1 66586 -14220203 -615431807 1368412491 520241169 1585978622
        -645264325 -368965237 302142155</internalNodes>
      <leafValues>
        -7.1629005670547485e-01 4.6502667665481567e-01</leafValues></_>
    <_>
      <internalNodes>
        0 -1 125503 -135939167 292729649 846632993 811794405 -637536108
        -168427563 -38283828 -706754594</internalNodes>
      <leafValues>
        -5.4668396711349487e-01 6.5505105257034302e-01</leafValues></_>
    <_>
      <internalNodes>
        0 -1 106552 -216934689 -178962302 -1858006949 -175828203
        218151866 192962689 37749643 1494417667</internalNodes>
      <leafValues>
        -7.1439540386199951e-01 4.6662089228630066e-01</leafValues></_>
    <_>
      <internalNodes>
        0 -1 96180 -213124662 -986543869 -1305747324 -783351245
        -490012242 635018 -519915359 -516459863</internalNodes>
      <leafValues>
        -5.6742310523986816e-01 6.4064043760299683e-01</leafValues></_></weakClassifiers></stage13>
</opencv_storage>
