<?xml version="1.0"?>
<opencv_storage>
<stage14>
  <maxWeakCount>5</maxWeakCount>
  <stageThreshold>-5.4622524976730347e-01</stageThreshold>
  <weakClassifiers>
    <_>
      <internalNodes>
        0 -1 65692 -9502853 -1074528260 1073676287 2079932148
        -1082633729 -1150255632 -67567617 -67570187</internalNodes>
      <leafValues>
        -2.8455284237861633e-01 7.6271188259124756e-01</leafValues></_>
    <_>
      <internalNodes>
        0 -1 4324 -160707038 -1827821686 -1941662979 -1174310329
        -1610231760 -368934906 -379581064 -98043313</internalNodes>
      <leafValues>
        -5.1601767539978027e-01 5.8629614114761353e-01</leafValues></_>
    <_>
      <internalNodes>
        0 -1 133899 -845773430 -937485864 201400512 -865959227 -98877310
        -1186955135 -970486653 -910843101</internalNodes>
      <leafValues>
        -6.3559049367904663e-01 4.9698758125305176e-01</leafValues></_>
    <_>
      <internalNodes>
        0 -1 103600 -1077546021 -618560937 1107368923 -1790357309
        -200703269 -1605791616 -2147437337 352370749</internalNodes>
      <leafValues>
        -7.4256491661071777e-01 4.3405953049659729e-01</leafValues></_>
    <_>
      <internalNodes>
        0 -1 92431 -263720766 1178992367 -168558670 -302844427
        -176820785 -1259077767 1146481843 -524815413</internalNodes>
      <leafValues>
        -5.4734206199645996e-01 6.3693368434906006e-01</leafValues></_></weakClassifiers></stage14>
</opencv_storage>
