<?xml version="1.0"?>
<opencv_storage>
<stage18>
  <maxWeakCount>6</maxWeakCount>
  <stageThreshold>-3.1958651542663574e-01</stageThreshold>
  <weakClassifiers>
    <_>
      <internalNodes>
        0 -1 69844 -1078043393 -983044 -1073856513 -1074480140
        -1126416902 1071185144 2147418110 -67586820</internalNodes>
      <leafValues>
        -4.0268456935882568e-01 6.9767439365386963e-01</leafValues></_>
    <_>
      <internalNodes>
        0 -1 32694 -318613290 -315252727 -2147462525 889342850
        -2071903056 -914161118 -889173665 -1282260353</internalNodes>
      <leafValues>
        -5.7549721002578735e-01 5.5452555418014526e-01</leafValues></_>
    <_>
      <internalNodes>
        0 -1 96976 -5259349 -1953120485 -32843 -1074006017 -91
        -1348993117 2077707701 -284166297</internalNodes>
      <leafValues>
        -4.9030974507331848e-01 6.0858750343322754e-01</leafValues></_>
    <_>
      <internalNodes>
        0 -1 110798 956337311 1532035200 134418903 796991583 302674106
        161811265 67383837 2135048783</internalNodes>
      <leafValues>
        -7.7180415391921997e-01 4.0047350525856018e-01</leafValues></_>
    <_>
      <internalNodes>
        0 -1 116990 101239484 84680968 1141080324 -1794555520 26215272
        562106506 567148692 -1343290761</internalNodes>
      <leafValues>
        -6.6775894165039062e-01 4.5264765620231628e-01</leafValues></_>
    <_>
      <internalNodes>
        0 -1 1315 -459288232 -1002438272 1091781696 1628688658 201509576
        -121007999 -2104749499 -1372849452</internalNodes>
      <leafValues>
        -7.6232022047042847e-01 4.1440060734748840e-01</leafValues></_></weakClassifiers></stage18>
</opencv_storage>
