<?xml version="1.0"?>
<opencv_storage>
<stage7>
  <maxWeakCount>6</maxWeakCount>
  <stageThreshold>-1.5634275674819946e+00</stageThreshold>
  <weakClassifiers>
    <_>
      <internalNodes>
        0 -1 5429 -17578241 -40379137 -712057121 -10710659 -57473281
        -2131797 -73273349 -72614657</internalNodes>
      <leafValues>
        -6.4619547128677368e-01 4.6785360574722290e-01</leafValues></_>
    <_>
      <internalNodes>
        0 -1 69844 -1079092737 -42675436 -1640102913 -4943659 1015823854
        -1949799208 -71368705 -67582723</internalNodes>
      <leafValues>
        -5.6793582439422607e-01 4.8418691754341125e-01</leafValues></_>
    <_>
      <internalNodes>
        0 -1 135233 -152577074 1415041783 1083328666 3079933 1837713930
        -446885562 -590370577 -453018822</internalNodes>
      <leafValues>
        -5.5722230672836304e-01 4.6532598137855530e-01</leafValues></_>
    <_>
      <internalNodes>
        0 -1 105104 -7474177 1568530421 -83952897 1972862831 570423295
        1527042007 465398527 1427636219</internalNodes>
      <leafValues>
        -7.2257524728775024e-01 3.9081215858459473e-01</leafValues></_>
    <_>
      <internalNodes>
        0 -1 131405 -1181050888 -1223020520 -1820081187 2111279205
        -1079051585 -1081087835 311674363 -708881667</internalNodes>
      <leafValues>
        -5.7664239406585693e-01 5.0548672676086426e-01</leafValues></_>
    <_>
      <internalNodes>
        0 -1 99475 -733491006 -637018010 1863244166 -41221561 -389178360
        -997637342 -720643057 -979414765</internalNodes>
      <leafValues>
        -6.2710821628570557e-01 4.6344727277755737e-01</leafValues></_></weakClassifiers></stage7>
</opencv_storage>
