<?xml version="1.0"?>
<opencv_storage>
<stage10>
  <maxWeakCount>6</maxWeakCount>
  <stageThreshold>-1.5522067546844482e+00</stageThreshold>
  <weakClassifiers>
    <_>
      <internalNodes>
        0 -1 20005 -171969537 -12321873 1510411531 -540030197 -238886165
        -23856901 1079470411 -8912917</internalNodes>
      <leafValues>
        -6.0176014900207520e-01 5.0515460968017578e-01</leafValues></_>
    <_>
      <internalNodes>
        0 -1 129802 -269762630 -1358265432 -1752313391 -671918955
        -315897409 -1903526900 1705376241 -1343225861</internalNodes>
      <leafValues>
        -5.8786332607269287e-01 4.1350817680358887e-01</leafValues></_>
    <_>
      <internalNodes>
        0 -1 100551 -1153769479 -1087649871 -827909 -306717225
        -863246083 -546398213 3866825 85938229</internalNodes>
      <leafValues>
        -6.6285920143127441e-01 3.8370165228843689e-01</leafValues></_>
    <_>
      <internalNodes>
        0 -1 12455 1322254321 -2630974 -2062295817 -6292862 1318776251
        -1346660429 -901260290 -806399116</internalNodes>
      <leafValues>
        -5.0399726629257202e-01 5.0553965568542480e-01</leafValues></_>
    <_>
      <internalNodes>
        0 -1 107932 1037717465 1581196818 327612767 2145337883 822751738
        2031747259 464215743 2136609727</internalNodes>
      <leafValues>
        -7.1766829490661621e-01 3.7310594320297241e-01</leafValues></_>
    <_>
      <internalNodes>
        0 -1 56627 -22050198 -606615358 -1004398448 394121411
        -1181877080 -1228553080 -1683301940 -1145210901</internalNodes>
      <leafValues>
        -5.7020425796508789e-01 4.7650849819183350e-01</leafValues></_></weakClassifiers></stage10>
</opencv_storage>
