<?xml version="1.0"?>
<opencv_storage>
<stage12>
  <maxWeakCount>6</maxWeakCount>
  <stageThreshold>-1.3319042921066284e+00</stageThreshold>
  <weakClassifiers>
    <_>
      <internalNodes>
        0 -1 77102 -1869070121 -14715041 -67240449 -305571 -3148801
        -1075152469 -340788229 -7429</internalNodes>
      <leafValues>
        -6.4710640907287598e-01 3.5341009497642517e-01</leafValues></_>
    <_>
      <internalNodes>
        0 -1 69384 -16279606 -75514404 -1325358316 -213553187 -410274881
        -1879258204 -73288453 -135159041</internalNodes>
      <leafValues>
        -5.1527577638626099e-01 4.5128449797630310e-01</leafValues></_>
    <_>
      <internalNodes>
        0 -1 100542 -2885377 -7105378 -244327939 -10619809 -124600097
        -23407149 1426084555 1392709667</internalNodes>
      <leafValues>
        -6.3085818290710449e-01 3.7142923474311829e-01</leafValues></_>
    <_>
      <internalNodes>
        0 -1 16461 -228082104 -208540117 -2106027794 1894072135
        -14806528 -981657055 -524033860 -445121969</internalNodes>
      <leafValues>
        -6.6099381446838379e-01 3.7494197487831116e-01</leafValues></_>
    <_>
      <internalNodes>
        0 -1 132338 -769144605 -235719872 814101084 542589635 -659559929
        -427715897 -1127817057 -251663377</internalNodes>
      <leafValues>
        -4.8576578497886658e-01 5.1468580961227417e-01</leafValues></_>
    <_>
      <internalNodes>
        0 -1 68224 -266078213 -1376404482 -22028289 -1073746433
        -492579909 -1249902593 -1205732872 -1355034534</internalNodes>
      <leafValues>
        -3.9464330673217773e-01 6.4788740873336792e-01</leafValues></_></weakClassifiers></stage12>
</opencv_storage>
