<?xml version="1.0"?>
<opencv_storage>
<stage9>
  <maxWeakCount>6</maxWeakCount>
  <stageThreshold>-1.6858766078948975e+00</stageThreshold>
  <weakClassifiers>
    <_>
      <internalNodes>
        0 -1 30731 -69212422 -144450925 286252255 1534057295 818094754
        -78593846 1347646299 -8913921</internalNodes>
      <leafValues>
        -7.3131501674652100e-01 2.3283983767032623e-01</leafValues></_>
    <_>
      <internalNodes>
        0 -1 83545 -26280940 2118080831 -515558369 -551848201 -65380216
        -189740200 -1197278482 -1426129234</internalNodes>
      <leafValues>
        -6.1294925212860107e-01 3.5497653484344482e-01</leafValues></_>
    <_>
      <internalNodes>
        0 -1 82844 -9699845 -606351143 -1321167909 318837209 -7603734
        -91622505 -1145401665 49346</internalNodes>
      <leafValues>
        -6.7668485641479492e-01 3.8473096489906311e-01</leafValues></_>
    <_>
      <internalNodes>
        0 -1 90295 33617456 -5007 -149056033 -48301611 -921318757
        -23096397 437098751 -1679847184</internalNodes>
      <leafValues>
        -6.2133854627609253e-01 4.3487891554832458e-01</leafValues></_>
    <_>
      <internalNodes>
        0 -1 99726 -209720662 -228925365 -76395862 -219135405 1351223426
        -1000177594 -497922085 -266900865</internalNodes>
      <leafValues>
        -5.7089579105377197e-01 4.4354909658432007e-01</leafValues></_>
    <_>
      <internalNodes>
        0 -1 81946 2138830798 -136859580 -1070341824 -182985222
        1917823470 1199960330 2045178602 -242236758</internalNodes>
      <leafValues>
        -5.4335552453994751e-01 4.8001447319984436e-01</leafValues></_></weakClassifiers></stage9>
</opencv_storage>
