<?xml version="1.0"?>
<opencv_storage>
<stage15>
  <maxWeakCount>7</maxWeakCount>
  <stageThreshold>-1.3087776899337769e+00</stageThreshold>
  <weakClassifiers>
    <_>
      <internalNodes>
        0 -1 27155 -33567009 -79437149 -665562625 -136737758 -1948040984
        -561831776 -309120769 -566913</internalNodes>
      <leafValues>
        -6.7390376329421997e-01 3.0615508556365967e-01</leafValues></_>
    <_>
      <internalNodes>
        0 -1 119107 511849090 462620624 -1182284928 -10497404
        -1950182770 -1286599751 -372510248 -33563215</internalNodes>
      <leafValues>
        -6.2126570940017700e-01 3.4035402536392212e-01</leafValues></_>
    <_>
      <internalNodes>
        0 -1 125783 1163379858 -1725353968 -1056079788 -235488622
        -650511719 -1458642149 -890255173 1530904650</internalNodes>
      <leafValues>
        -5.7633054256439209e-01 3.8269892334938049e-01</leafValues></_>
    <_>
      <internalNodes>
        0 -1 62956 -27602884 478744922 -506898760 -27305711 2014922813
        2015496457 -376828484 -123885512</internalNodes>
      <leafValues>
        -6.9179034233093262e-01 3.3902886509895325e-01</leafValues></_>
    <_>
      <internalNodes>
        0 -1 82192 -1859914482 -179102650 -535634996 -1856452277
        -2147269311 1129314851 -1566881661 -1296174373</internalNodes>
      <leafValues>
        -5.5773520469665527e-01 4.6329909563064575e-01</leafValues></_>
    <_>
      <internalNodes>
        0 -1 56198 -1928907229 1590004036 566329691 1296924765
        -2036393038 -43413336 -1518234997 -1213117553</internalNodes>
      <leafValues>
        -4.6605485677719116e-01 5.1700729131698608e-01</leafValues></_>
    <_>
      <internalNodes>
        0 -1 81127 -583087045 -1648756386 2063680735 1347506290
        -1769243923 -1463068023 -1173812737 3568619</internalNodes>
      <leafValues>
        -6.8898200988769531e-01 3.5765352845191956e-01</leafValues></_></weakClassifiers></stage15>
</opencv_storage>
