<?xml version="1.0"?>
<opencv_storage>
<stage11>
  <maxWeakCount>6</maxWeakCount>
  <stageThreshold>-9.1074788570404053e-01</stageThreshold>
  <weakClassifiers>
    <_>
      <internalNodes>
        0 -1 45354 -72222721 -136328497 -611069561 -1081281 -545198406
        -36058725 -64759301 -10503681</internalNodes>
      <leafValues>
        -6.4313727617263794e-01 4.1904762387275696e-01</leafValues></_>
    <_>
      <internalNodes>
        0 -1 7269 -854074378 -1376366110 733994386 -8661136 1319754235
        -5406480 1858066867 -1140852752</internalNodes>
      <leafValues>
        -6.1948615312576294e-01 3.7680420279502869e-01</leafValues></_>
    <_>
      <internalNodes>
        0 -1 132792 -461443422 -896630394 -1760420957 -99542782
        -471336273 241598369 -141137934 -805312649</internalNodes>
      <leafValues>
        -6.4268642663955688e-01 3.8406595587730408e-01</leafValues></_>
    <_>
      <internalNodes>
        0 -1 96762 215918590 1021182221 679512686 811209407 686566220
        390334980 165650428 1064267775</internalNodes>
      <leafValues>
        -8.1949466466903687e-01 2.8164777159690857e-01</leafValues></_>
    <_>
      <internalNodes>
        0 -1 70110 -405350404 -552318536 -1089953809 -539312174
        -1968297740 -559916292 247076343 -69425227</internalNodes>
      <leafValues>
        -5.5521625280380249e-01 4.4326943159103394e-01</leafValues></_>
    <_>
      <internalNodes>
        0 -1 97147 -959264374 -368678518 -650292741 -149470783
        -1920143969 -577715805 125924343 -175681358</internalNodes>
      <leafValues>
        -6.5225559473037720e-01 3.7353309988975525e-01</leafValues></_></weakClassifiers></stage11>
</opencv_storage>
