<?xml version="1.0"?>
<opencv_storage>
<stage14>
  <maxWeakCount>6</maxWeakCount>
  <stageThreshold>-1.5466094017028809e+00</stageThreshold>
  <weakClassifiers>
    <_>
      <internalNodes>
        0 -1 18706 -135006245 -44365581 -711210511 -48685 1636496111
        -14039919 1762352063 -2133261</internalNodes>
      <leafValues>
        -6.2824428081512451e-01 4.5510202646255493e-01</leafValues></_>
    <_>
      <internalNodes>
        0 -1 124230 -1467301200 -548069104 -1852842449 -707790711
        -620655633 -1160584962 -1643429729 -1644180399</internalNodes>
      <leafValues>
        -6.5980452299118042e-01 3.2985797524452209e-01</leafValues></_>
    <_>
      <internalNodes>
        0 -1 125654 -1149911776 1897026869 -1185089792 992582679
        -277378098 -371012944 -1741749367 -979638325</internalNodes>
      <leafValues>
        -5.1335078477859497e-01 4.3759137392044067e-01</leafValues></_>
    <_>
      <internalNodes>
        0 -1 51686 -32813715 -1154369131 -1402601200 -10642128
        -333664339 -91811404 1803653049 -59730695</internalNodes>
      <leafValues>
        -4.9577343463897705e-01 4.6774056553840637e-01</leafValues></_>
    <_>
      <internalNodes>
        0 -1 103544 -687416869 -69889073 1368734420 2085738243
        -132594949 -616069704 1493248515 1376079873</internalNodes>
      <leafValues>
        -7.6348906755447388e-01 3.5979089140892029e-01</leafValues></_>
    <_>
      <internalNodes>
        0 -1 3060 -208676986 -1396258426 -2133653182 -1648163764
        1351210683 -761222150 928075796 -1342178674</internalNodes>
      <leafValues>
        -5.9888970851898193e-01 4.2502242326736450e-01</leafValues></_></weakClassifiers></stage14>
</opencv_storage>
