<?xml version="1.0"?>
<opencv_storage>
<cascade>
  <stageType>BOOST</stageType>
  <featureType>LBP</featureType>
  <height>48</height>
  <width>48</width>
  <stageParams>
    <boostType>GAB</boostType>
    <minHitRate>9.9500000476837158e-01</minHitRate>
    <maxFalseAlarm>5.0000000000000000e-01</maxFalseAlarm>
    <weightTrimRate>9.4999999999999996e-01</weightTrimRate>
    <maxDepth>1</maxDepth>
    <maxWeakCount>100</maxWeakCount></stageParams>
  <featureParams>
    <maxCatCount>256</maxCatCount>
    <featSize>1</featSize></featureParams>
  <stageNum>20</stageNum>
  <stages>
    <!-- stage 0 -->
    <_>
      <maxWeakCount>4</maxWeakCount>
      <stageThreshold>-5.6032069027423859e-02</stageThreshold>
      <weakClassifiers>
        <_>
          <internalNodes>
            0 -1 30 -105843216 -8933889 -134151 -51201 -1131365192
            -38010881 -1196359685 -4497425</internalNodes>
          <leafValues>
            -6.5605098009109497e-01 8.3539092540740967e-01</leafValues></_>
        <_>
          <internalNodes>
            0 -1 61 -1869897030 -1474165888 -1848295051 -650566315
            -402615553 -341144945 365476817 -611337771</internalNodes>
          <leafValues>
            -6.4797735214233398e-01 6.7438668012619019e-01</leafValues></_>
        <_>
          <internalNodes>
            0 -1 46 -603393796 -574537576 -174504636 -579763976
            -1045890881 -644308830 -609952773 2144057499</internalNodes>
          <leafValues>
            -6.7520952224731445e-01 6.2413811683654785e-01</leafValues></_>
        <_>
          <internalNodes>
            0 -1 63 -749340165 -137276071 2097468881 -552795823
            -653534981 -1149235072 806783195 151191775</internalNodes>
          <leafValues>
            -6.9180315732955933e-01 6.2385809421539307e-01</leafValues></_></weakClassifiers></_>
    <!-- stage 1 -->
    <_>
      <maxWeakCount>4</maxWeakCount>
      <stageThreshold>-1.1272568702697754e+00</stageThreshold>
      <weakClassifiers>
        <_>
          <internalNodes>
            0 -1 5 -184942078 -14902307 -935196049 -1299802783
            -218038268 -108451798 -226443073 -371729205</internalNodes>
          <leafValues>
            -7.0331948995590210e-01 6.6100180149078369e-01</leafValues></_>
        <_>
          <internalNodes>
            0 -1 39 -656410404 -799485800 1623814217 -727846433
            -661550661 -6158435 2064190239 -548405425</internalNodes>
          <leafValues>
            -6.6201800107955933e-01 5.9709644317626953e-01</leafValues></_>
        <_>
          <internalNodes>
            0 -1 0 -5571873 -7714064 2137982943 -65504 -276896001
            -337643529 -536934417 -67149743</internalNodes>
          <leafValues>
            -5.0876981019973755e-01 7.4571090936660767e-01</leafValues></_>
        <_>
          <internalNodes>
            0 -1 54 -537005569 -134614341 2012442327 1369300831
            -924854533 -1161930502 1380122107 440076879</internalNodes>
          <leafValues>
            -6.1747086048126221e-01 6.6893219947814941e-01</leafValues></_></weakClassifiers></_>
    <!-- stage 2 -->
    <_>
      <maxWeakCount>5</maxWeakCount>
      <stageThreshold>-5.0842463970184326e-01</stageThreshold>
      <weakClassifiers>
        <_>
          <internalNodes>
            0 -1 21 2009595903 -1208230917 1192672383 858091455 -65537
            2066831359 1702363135 1427592831</internalNodes>
          <leafValues>
            -5.2046781778335571e-01 7.1043437719345093e-01</leafValues></_>
        <_>
          <internalNodes>
            0 -1 76 -33558127 -864162485 -42205371 -571613481 -840438109
            -856764435 -1655747127 -842273393</internalNodes>
          <leafValues>
            -4.7503459453582764e-01 6.8599975109100342e-01</leafValues></_>
        <_>
          <internalNodes>
            0 -1 73 1400755963 2136409475 654555133 2141051123
            2131256302 -880054118 25909438 488626639</internalNodes>
          <leafValues>
            -6.5646356344223022e-01 5.5263465642929077e-01</leafValues></_>
        <_>
          <internalNodes>
            0 -1 29 1201444603 1467011160 -1048570921 -754967183
            -1657779982 -4716416 -376847409 -74410511</internalNodes>
          <leafValues>
            -5.9415990114212036e-01 6.2629860639572144e-01</leafValues></_>
        <_>
          <internalNodes>
            0 -1 65 -558414210 1603396439 -1844377570 2120111836
            1510623774 -98002918 -1912349490 -21234950</internalNodes>
          <leafValues>
            -6.3243132829666138e-01 5.6105190515518188e-01</leafValues></_></weakClassifiers></_>
    <!-- stage 3 -->
    <_>
      <maxWeakCount>5</maxWeakCount>
      <stageThreshold>-7.7510160207748413e-01</stageThreshold>
      <weakClassifiers>
        <_>
          <internalNodes>
            0 -1 6 1857028080 -819003584 -8421456 -270696496 -543424521
            -813826108 1341652976 -16</internalNodes>
          <leafValues>
            -6.0157793760299683e-01 6.4501374959945679e-01</leafValues></_>
        <_>
          <internalNodes>
            0 -1 86 -537395759 -1288511086 -787753633 -712648553
            -1153172549 -1455761135 97241275 251915323</internalNodes>
          <leafValues>
            -6.2562054395675659e-01 5.9568637609481812e-01</leafValues></_>
        <_>
          <internalNodes>
            0 -1 41 -87306038 -749386932 -1072017208 -242788213
            541169838 319324224 -1587422290 -753927477</internalNodes>
          <leafValues>
            -6.0305631160736084e-01 5.7735180854797363e-01</leafValues></_>
        <_>
          <internalNodes>
            0 -1 62 -35914469 -740518349 -699906851 2106135006 -98006117
            2056781954 -515836933 1393150971</internalNodes>
          <leafValues>
            -6.5468454360961914e-01 6.0651630163192749e-01</leafValues></_>
        <_>
          <internalNodes>
            0 -1 82 -727007010 -636282671 167809238 -334888938
            -556269492 704741418 -746018086 -87307553</internalNodes>
          <leafValues>
            -7.1716207265853882e-01 4.9632629752159119e-01</leafValues></_></weakClassifiers></_>
    <!-- stage 4 -->
    <_>
      <maxWeakCount>5</maxWeakCount>
      <stageThreshold>-6.5286684036254883e-01</stageThreshold>
      <weakClassifiers>
        <_>
          <internalNodes>
            0 -1 44 -1363701504 2099200 -570425507 -33571587 -67109377
            -1073741825 -33567587 -37748867</internalNodes>
          <leafValues>
            -5.8754861354827881e-01 6.4640885591506958e-01</leafValues></_>
        <_>
          <internalNodes>
            0 -1 22 -111414278 -10490350 -19681286 -8388934 285274290
            -551231584 1146353626 -15729037</internalNodes>
          <leafValues>
            -4.9836879968643188e-01 6.6682851314544678e-01</leafValues></_>
        <_>
          <internalNodes>
            0 -1 58 -35660801 2107183449 1359190207 1561708867 42527167
            1469300779 1344264891 285988283</internalNodes>
          <leafValues>
            -6.5808767080307007e-01 5.7029461860656738e-01</leafValues></_>
        <_>
          <internalNodes>
            0 -1 96 -839402031 -655778575 -1005630964 1158208837
            -269505565 2105536499 -808990821 -840958077</internalNodes>
          <leafValues>
            -5.6293344497680664e-01 6.2357151508331299e-01</leafValues></_>
        <_>
          <internalNodes>
            0 -1 66 -8390145 1406231904 152801755 2075101031 2072776682
            1359628289 537281179 1398758399</internalNodes>
          <leafValues>
            -6.9959032535552979e-01 4.8887443542480469e-01</leafValues></_></weakClassifiers></_>
    <!-- stage 5 -->
    <_>
      <maxWeakCount>5</maxWeakCount>
      <stageThreshold>-5.8665978908538818e-01</stageThreshold>
      <weakClassifiers>
        <_>
          <internalNodes>
            0 -1 11 -10435085 1597374448 1196486525 -537571371
            -782178384 -28223504 54591487 -268972065</internalNodes>
          <leafValues>
            -4.8856207728385925e-01 7.0748990774154663e-01</leafValues></_>
        <_>
          <internalNodes>
            0 -1 42 -247726642 -202574264 1893523688 -246418738
            -537395474 1431240648 -1328551286 -1009793073</internalNodes>
          <leafValues>
            -5.4352396726608276e-01 6.3859146833419800e-01</leafValues></_>
        <_>
          <internalNodes>
            0 -1 67 -4456961 -106974992 -653635179 1527366915
            -1181238789 -125713207 1734301103 1400869787</internalNodes>
          <leafValues>
            -6.3845044374465942e-01 5.5214136838912964e-01</leafValues></_>
        <_>
          <internalNodes>
            0 -1 99 -978597150 -359775934 687879202 -1647251199
            -1064309265 9348171 -779889725 -841754633</internalNodes>
          <leafValues>
            -6.3736546039581299e-01 5.8005064725875854e-01</leafValues></_>
        <_>
          <internalNodes>
            0 -1 14 -37754358 -170798463 -1526259498 -334120948
            -394131455 -615856110 -1587742577 -307506661</internalNodes>
          <leafValues>
            -6.5146505832672119e-01 5.3680944442749023e-01</leafValues></_></weakClassifiers></_>
    <!-- stage 6 -->
    <_>
      <maxWeakCount>5</maxWeakCount>
      <stageThreshold>-6.9215214252471924e-01</stageThreshold>
      <weakClassifiers>
        <_>
          <internalNodes>
            0 -1 45 36 -2562 1040171007 -1 -268506113 -21303300 -1
            -19113218</internalNodes>
          <leafValues>
            -5.3265869617462158e-01 6.5262657403945923e-01</leafValues></_>
        <_>
          <internalNodes>
            0 -1 2 -551288837 -3166469 -16744689 -41220145 -415170576
            -34113537 -83558409 -45088769</internalNodes>
          <leafValues>
            -4.3687087297439575e-01 6.6265821456909180e-01</leafValues></_>
        <_>
          <internalNodes>
            0 -1 53 -741346341 1398523391 290577375 1977551218 160426215
            1408295215 1293806586 290577407</internalNodes>
          <leafValues>
            -6.3587832450866699e-01 5.0153857469558716e-01</leafValues></_>
        <_>
          <internalNodes>
            0 -1 43 -268444726 1435324551 538366624 -255868722
            -933373462 1161990796 -1288994134 -1008780533</internalNodes>
          <leafValues>
            -6.5371960401535034e-01 5.0148433446884155e-01</leafValues></_>
        <_>
          <internalNodes>
            0 -1 80 1939337471 2010588235 51889269 2010091659 1880773051
            714802198 188696191 1467695599</internalNodes>
          <leafValues>
            -6.9216310977935791e-01 4.2955848574638367e-01</leafValues></_></weakClassifiers></_>
    <!-- stage 7 -->
    <_>
      <maxWeakCount>5</maxWeakCount>
      <stageThreshold>-6.1199045181274414e-01</stageThreshold>
      <weakClassifiers>
        <_>
          <internalNodes>
            0 -1 89 -1079002448 -1566000454 -1207992843 -1140851716
            -1090535526 -1414873158 -1983907336 -1383079941</internalNodes>
          <leafValues>
            -5.3084111213684082e-01 6.4225351810455322e-01</leafValues></_>
        <_>
          <internalNodes>
            0 -1 38 -1073558838 -672139333 -302026821 -705708045
            -1853034273 -1048577 -1064464209 -787487973</internalNodes>
          <leafValues>
            -5.3431856632232666e-01 5.6604516506195068e-01</leafValues></_>
        <_>
          <internalNodes>
            0 -1 78 -4991501 -112047783 377087967 1394559809 -587156549
            504799369 1293134163 1566044479</internalNodes>
          <leafValues>
            -6.4529281854629517e-01 4.7329515218734741e-01</leafValues></_>
        <_>
          <internalNodes>
            0 -1 91 -174063736 287789472 556866873 290831535 -1610613603
            -956368932 -1728772661 -706757377</internalNodes>
          <leafValues>
            -5.4221767187118530e-01 5.8286279439926147e-01</leafValues></_>
        <_>
          <internalNodes>
            0 -1 8 -250873006 -280941050 1275072848 1940889607
            -246491486 1531674851 545285184 -537922793</internalNodes>
          <leafValues>
            -5.5550396442413330e-01 5.4031598567962646e-01</leafValues></_></weakClassifiers></_>
    <!-- stage 8 -->
    <_>
      <maxWeakCount>6</maxWeakCount>
      <stageThreshold>-9.7745573520660400e-01</stageThreshold>
      <weakClassifiers>
        <_>
          <internalNodes>
            0 -1 33 2146402269 -3047947 -196611 -720907 1006223359
            -1078690314 -1418657797 -1146062859</internalNodes>
          <leafValues>
            -4.3589743971824646e-01 6.6649925708770752e-01</leafValues></_>
        <_>
          <internalNodes>
            0 -1 1 -1364197389 -672991039 -268436297 -76029296
            -1482692641 -34079085 779999199 -36783</internalNodes>
          <leafValues>
            -3.9179041981697083e-01 6.9007539749145508e-01</leafValues></_>
        <_>
          <internalNodes>
            0 -1 64 -780930305 -539626799 1435619544 2131445825
            1481943274 -1995406716 1476438220 1107513427</internalNodes>
          <leafValues>
            -5.7579082250595093e-01 5.0749260187149048e-01</leafValues></_>
        <_>
          <internalNodes>
            0 -1 68 -556938010 1347617261 1090050 -527199209 -666218934
            1244873995 1235403591 -217057433</internalNodes>
          <leafValues>
            -5.5078691244125366e-01 5.3368782997131348e-01</leafValues></_>
        <_>
          <internalNodes>
            0 -1 85 -1797799935 -976482235 823251351 -577398693
            -1543919478 -2004254695 -909665781 -842010209</internalNodes>
          <leafValues>
            -5.8338016271591187e-01 4.9517545104026794e-01</leafValues></_>
        <_>
          <internalNodes>
            0 -1 50 2080591964 -686733293 -1874777315 -92143394
            -91092820 -1105330159 -1878372098 -17896674</internalNodes>
          <leafValues>
            -6.0615062713623047e-01 4.9629604816436768e-01</leafValues></_></weakClassifiers></_>
    <!-- stage 9 -->
    <_>
      <maxWeakCount>5</maxWeakCount>
      <stageThreshold>-1.4469400644302368e+00</stageThreshold>
      <weakClassifiers>
        <_>
          <internalNodes>
            0 -1 97 -810566982 -1431638104 -201623151 -212647941
            -1048581 -1583087621 -311695887 -944507525</internalNodes>
          <leafValues>
            -4.5578232407569885e-01 6.6007906198501587e-01</leafValues></_>
        <_>
          <internalNodes>
            0 -1 59 -784081174 -423698390 -499563902 -471345565
            -460340020 1078936652 -322748385 -804273161</internalNodes>
          <leafValues>
            -5.0102084875106812e-01 6.2677133083343506e-01</leafValues></_>
        <_>
          <internalNodes>
            0 -1 75 -76021857 -77643053 119985789 1975475071 1925151481
            -43042825 190742254 257676783</internalNodes>
          <leafValues>
            -5.4279130697250366e-01 6.1686593294143677e-01</leafValues></_>
        <_>
          <internalNodes>
            0 -1 18 -269491213 -537111984 -575503 -65360 662368195
            -8391722 -539091489 -1097663</internalNodes>
          <leafValues>
            -5.5217951536178589e-01 6.6377866268157959e-01</leafValues></_>
        <_>
          <internalNodes>
            0 -1 92 -700016104 -650067706 -1543475183 294736193
            -1864760670 -1839202278 -2105368914 -1440026482</internalNodes>
          <leafValues>
            -6.1112427711486816e-01 5.0444912910461426e-01</leafValues></_></weakClassifiers></_>
    <!-- stage 10 -->
    <_>
      <maxWeakCount>5</maxWeakCount>
      <stageThreshold>-5.5824446678161621e-01</stageThreshold>
      <weakClassifiers>
        <_>
          <internalNodes>
            0 -1 20 -363141414 1583939238 511471195 1460199005 575853210
            1459814386 1381203739 2068053871</internalNodes>
          <leafValues>
            -4.5132744312286377e-01 6.3285022974014282e-01</leafValues></_>
        <_>
          <internalNodes>
            0 -1 74 -646712385 1594847428 1108472187 1733153611
            -372255303 1983348872 843479279 1393550763</internalNodes>
          <leafValues>
            -5.8370637893676758e-01 5.1712000370025635e-01</leafValues></_>
        <_>
          <internalNodes>
            0 -1 28 -251554853 -775839329 343969878 -72679413
            -1224681238 -121257830 2130755722 -215381569</internalNodes>
          <leafValues>
            -5.0217324495315552e-01 6.0534751415252686e-01</leafValues></_>
        <_>
          <internalNodes>
            0 -1 49 -149048598 -227302514 271798796 -781581623
            -804670066 390660480 -472911665 -171971873</internalNodes>
          <leafValues>
            -5.4527932405471802e-01 5.2876776456832886e-01</leafValues></_>
        <_>
          <internalNodes>
            0 -1 36 -1328177008 1412956165 -2130689743 2030358593
            -1736340800 -1145567025 -628585475 -5723683</internalNodes>
          <leafValues>
            -6.3398289680480957e-01 4.5213669538497925e-01</leafValues></_></weakClassifiers></_>
    <!-- stage 11 -->
    <_>
      <maxWeakCount>5</maxWeakCount>
      <stageThreshold>-4.8430842161178589e-01</stageThreshold>
      <weakClassifiers>
        <_>
          <internalNodes>
            0 -1 13 2080325820 2147417854 -1073833089 -139541398 -64488
            -33799154 -411612289 -634174369</internalNodes>
          <leafValues>
            -4.8045179247856140e-01 6.6032212972640991e-01</leafValues></_>
        <_>
          <internalNodes>
            0 -1 70 -779618817 1364706831 -1254894245 2097395715
            -1597968934 -1335820159 48480907 1092076111</internalNodes>
          <leafValues>
            -5.5126869678497314e-01 5.6019598245620728e-01</leafValues></_>
        <_>
          <internalNodes>
            0 -1 32 -1601568515 -1210362310 -1074397185 -538181633
            -71435109 -1145104850 -1646593 -1355096707</internalNodes>
          <leafValues>
            -4.9306938052177429e-01 6.3335251808166504e-01</leafValues></_>
        <_>
          <internalNodes>
            0 -1 25 1095490006 -781720486 1627718039 -1653382656
            34385194 -1048575967 1233643662 2045716696</internalNodes>
          <leafValues>
            -5.7679766416549683e-01 5.5047231912612915e-01</leafValues></_>
        <_>
          <internalNodes>
            0 -1 23 -383786246 -716340991 16842884 -719462076 1082229434
            1109443235 1343209898 -716996093</internalNodes>
          <leafValues>
            -6.0284495353698730e-01 5.0581443309783936e-01</leafValues></_></weakClassifiers></_>
    <!-- stage 12 -->
    <_>
      <maxWeakCount>6</maxWeakCount>
      <stageThreshold>-9.1972464323043823e-01</stageThreshold>
      <weakClassifiers>
        <_>
          <internalNodes>
            0 -1 10 -72218409 -1 -268668161 -1761808385 -194510764
            -32897 -17255169 -494575649</internalNodes>
          <leafValues>
            -4.4408428668975830e-01 6.8565613031387329e-01</leafValues></_>
        <_>
          <internalNodes>
            0 -1 95 -10617943 -909587303 -1073818159 -104874084
            -403706482 -921777152 -580937973 -908346977</internalNodes>
          <leafValues>
            -4.5559519529342651e-01 7.1148097515106201e-01</leafValues></_>
        <_>
          <internalNodes>
            0 -1 72 1500215247 -1824699285 268518447 1595482377
            135839983 147694159 395444763 2101035763</internalNodes>
          <leafValues>
            -6.2730282545089722e-01 5.5519926548004150e-01</leafValues></_>
        <_>
          <internalNodes>
            0 -1 12 -60558133 -127824184 1176562754 -804137110 303357775
            -1941911808 -1944924577 -27418789</internalNodes>
          <leafValues>
            -5.1731914281845093e-01 7.1667432785034180e-01</leafValues></_>
        <_>
          <internalNodes>
            0 -1 40 -1325379368 -919683 -286232737 -545366177 -872026900
            -2099436 -1430610770 -1139702001</internalNodes>
          <leafValues>
            -5.4174381494522095e-01 6.3650786876678467e-01</leafValues></_>
        <_>
          <internalNodes>
            0 -1 77 2143017439 -1824308719 318871831 815743047
            1644208655 1157660864 539129978 1279476483</internalNodes>
          <leafValues>
            -7.4592459201812744e-01 5.3434479236602783e-01</leafValues></_></weakClassifiers></_>
    <!-- stage 13 -->
    <_>
      <maxWeakCount>5</maxWeakCount>
      <stageThreshold>-4.8581278324127197e-01</stageThreshold>
      <weakClassifiers>
        <_>
          <internalNodes>
            0 -1 34 -302338063 2147233780 -1074768388 -38748171
            -1392721527 2147237872 -864518662 -4653835</internalNodes>
          <leafValues>
            -4.4987571239471436e-01 6.7385852336883545e-01</leafValues></_>
        <_>
          <internalNodes>
            0 -1 55 1497871199 1934218259 1342198373 1968292755
            101114057 276840448 1610676702 2037340329</internalNodes>
          <leafValues>
            -5.6263589859008789e-01 5.5854743719100952e-01</leafValues></_>
        <_>
          <internalNodes>
            0 -1 93 -128265663 157485571 -1873752661 -1870536697
            -1476024184 -1979709365 -1711241543 -1866728773</internalNodes>
          <leafValues>
            -5.3408980369567871e-01 6.4520561695098877e-01</leafValues></_>
        <_>
          <internalNodes>
            0 -1 4 -720336298 1912602772 -1879039017 -652115948
            -1073543120 -603836798 -1451202403 -49326441</internalNodes>
          <leafValues>
            -6.0655653476715088e-01 5.5552321672439575e-01</leafValues></_>
        <_>
          <internalNodes>
            0 -1 87 -99505359 1073808768 -795864165 -1323818987
            -502923623 -1029701629 -771014015 -921968487</internalNodes>
          <leafValues>
            -5.7757240533828735e-01 5.6192559003829956e-01</leafValues></_></weakClassifiers></_>
    <!-- stage 14 -->
    <_>
      <maxWeakCount>5</maxWeakCount>
      <stageThreshold>-5.7577627897262573e-01</stageThreshold>
      <weakClassifiers>
        <_>
          <internalNodes>
            0 -1 7 -285016157 -536892677 755392289 -809857241 -419369006
            -17336321 1442971511 -11825953</internalNodes>
          <leafValues>
            -4.1230767965316772e-01 7.0315790176391602e-01</leafValues></_>
        <_>
          <internalNodes>
            0 -1 81 -117181445 -577416829 1350811869 1024071950
            -528234471 1409810464 -2130099700 1426422963</internalNodes>
          <leafValues>
            -6.2920188903808594e-01 5.2025443315505981e-01</leafValues></_>
        <_>
          <internalNodes>
            0 -1 52 1342423202 -210272385 -536872961 -301989909
            -1801455617 -1073741826 -1782727169 -626314609</internalNodes>
          <leafValues>
            -5.6746882200241089e-01 6.1460351943969727e-01</leafValues></_>
        <_>
          <internalNodes>
            0 -1 88 -715532071 -1795157614 1107505173 -783089663
            -2138845179 -1123737552 1074857995 185581579</internalNodes>
          <leafValues>
            -6.1838304996490479e-01 5.4635059833526611e-01</leafValues></_>
        <_>
          <internalNodes>
            0 -1 16 -343034096 -1169669628 5246980 -241205054 1090709937
            1335034001 2209 -355810846</internalNodes>
          <leafValues>
            -6.0449272394180298e-01 5.3611963987350464e-01</leafValues></_></weakClassifiers></_>
    <!-- stage 15 -->
    <_>
      <maxWeakCount>5</maxWeakCount>
      <stageThreshold>-5.5327814817428589e-01</stageThreshold>
      <weakClassifiers>
        <_>
          <internalNodes>
            0 -1 3 -536871053 654310975 -64 1676672940 -134217789
            1180598251 2147471154 -269484085</internalNodes>
          <leafValues>
            -4.1873499751091003e-01 6.7811375856399536e-01</leafValues></_>
        <_>
          <internalNodes>
            0 -1 57 -7414274 399278076 1324134399 -1476626561 264699478
            -540213380 501022699 -269486312</internalNodes>
          <leafValues>
            -5.1403045654296875e-01 6.0731995105743408e-01</leafValues></_>
        <_>
          <internalNodes>
            0 -1 51 -609495585 1895858257 1359134735 1481658505
            873111773 -2137849728 1166585855 17500187</internalNodes>
          <leafValues>
            -6.4979565143585205e-01 5.0431972742080688e-01</leafValues></_>
        <_>
          <internalNodes>
            0 -1 48 -645701486 -1845239549 402720282 -654196390
            -1870462306 1225523466 -1961647733 -170542966</internalNodes>
          <leafValues>
            -5.6917804479598999e-01 5.6899333000183105e-01</leafValues></_>
        <_>
          <internalNodes>
            0 -1 100 -221778282 268779797 -1879047946 269222036
            1092239424 -108476416 1161904538 -1085286077</internalNodes>
          <leafValues>
            -6.2174564599990845e-01 5.0161218643188477e-01</leafValues></_></weakClassifiers></_>
    <!-- stage 16 -->
    <_>
      <maxWeakCount>6</maxWeakCount>
      <stageThreshold>-9.5145833492279053e-01</stageThreshold>
      <weakClassifiers>
        <_>
          <internalNodes>
            0 -1 47 -674505010 -544351100 -1327828470 -715132914
            -1822163294 1464007942 -682302737 1401943371</internalNodes>
          <leafValues>
            -5.0519359111785889e-01 6.2354040145874023e-01</leafValues></_>
        <_>
          <internalNodes>
            0 -1 15 -897793 -1 716881919 -210309377 -64225128 -2057
            -302596097 -78206977</internalNodes>
          <leafValues>
            -4.1379261016845703e-01 7.3175913095474243e-01</leafValues></_>
        <_>
          <internalNodes>
            0 -1 90 -1829653581 -729374814 816561085 -1179599616
            -2131029361 -1428357321 -1874874120 -2002000386</internalNodes>
          <leafValues>
            -4.6493545174598694e-01 6.5582537651062012e-01</leafValues></_>
        <_>
          <internalNodes>
            0 -1 84 -805285413 290522273 -2112872009 218108049
            1258375386 822892699 159533087 990003215</internalNodes>
          <leafValues>
            -6.6995519399642944e-01 5.1379609107971191e-01</leafValues></_>
        <_>
          <internalNodes>
            0 -1 19 -919604974 -503095262 -2130606841 70766592
            -2128485757 -893386743 -905822039 1470615955</internalNodes>
          <leafValues>
            -5.4339599609375000e-01 5.8635669946670532e-01</leafValues></_>
        <_>
          <internalNodes>
            0 -1 101 369163018 -1874821120 25231431 -653940027
            -2013231989 -1593704448 285573257 -1186510847</internalNodes>
          <leafValues>
            -6.2847125530242920e-01 5.2443510293960571e-01</leafValues></_></weakClassifiers></_>
    <!-- stage 17 -->
    <_>
      <maxWeakCount>5</maxWeakCount>
      <stageThreshold>-5.8584004640579224e-01</stageThreshold>
      <weakClassifiers>
        <_>
          <internalNodes>
            0 -1 94 -172623656 1497466880 286331024 1426546705
            2133810907 -1215602913 1090979979 487576843</internalNodes>
          <leafValues>
            -5.5717253684997559e-01 5.9696155786514282e-01</leafValues></_>
        <_>
          <internalNodes>
            0 -1 27 -155500315 803124862 -16814762 -810221602 -527282984
            -185025 -1208412934 -1160342053</internalNodes>
          <leafValues>
            -4.8651576042175293e-01 6.3645392656326294e-01</leafValues></_>
        <_>
          <internalNodes>
            0 -1 71 -1073622846 -1969043232 18350493 -507310064
            -1062463349 -515407872 -1031448213 2009813083</internalNodes>
          <leafValues>
            -6.0767239332199097e-01 5.0370812416076660e-01</leafValues></_>
        <_>
          <internalNodes>
            0 -1 24 -14548993 1311913098 234937904 1365302432 1545159754
            -870447406 -309143618 -815833845</internalNodes>
          <leafValues>
            -4.8137727379798889e-01 6.6032898426055908e-01</leafValues></_>
        <_>
          <internalNodes>
            0 -1 79 -1693396591 -1257199068 -805283983 -174750583
            -801079055 -1331691072 444748489 285344009</internalNodes>
          <leafValues>
            -6.8745225667953491e-01 4.7881591320037842e-01</leafValues></_></weakClassifiers></_>
    <!-- stage 18 -->
    <_>
      <maxWeakCount>7</maxWeakCount>
      <stageThreshold>-4.8306906223297119e-01</stageThreshold>
      <weakClassifiers>
        <_>
          <internalNodes>
            0 -1 17 -72550510 1877616672 -268474864 -1150604640
            -1241524753 -280051887 -294161376 -275814798</internalNodes>
          <leafValues>
            -4.4209635257720947e-01 6.5592461824417114e-01</leafValues></_>
        <_>
          <internalNodes>
            0 -1 56 -783826814 -1336290750 -478418741 -109369976
            -1983525399 -496050186 -985148257 -1052261689</internalNodes>
          <leafValues>
            -5.0922209024429321e-01 6.2005746364593506e-01</leafValues></_>
        <_>
          <internalNodes>
            0 -1 102 -662965333 52953226 -1743777679 -113012733
            -1203683073 -1476263552 1224847859 461881483</internalNodes>
          <leafValues>
            -5.2528166770935059e-01 6.3648259639739990e-01</leafValues></_>
        <_>
          <internalNodes>
            0 -1 37 -748685882 295666028 -1877864320 1968374083
            -754929014 1343258754 134318762 838831747</internalNodes>
          <leafValues>
            -6.2634545564651489e-01 5.0253474712371826e-01</leafValues></_>
        <_>
          <internalNodes>
            0 -1 35 1140913217 -780665680 1606369279 -1107329025
            -464209450 -16779282 -18469 -534279712</internalNodes>
          <leafValues>
            -5.2222377061843872e-01 6.4257317781448364e-01</leafValues></_>
        <_>
          <internalNodes>
            0 -1 9 -91576822 -778463134 37889 -1005383678 -1073573576
            -1237171687 -1844866912 -919082413</internalNodes>
          <leafValues>
            -5.6519645452499390e-01 6.0662406682968140e-01</leafValues></_>
        <_>
          <internalNodes>
            0 -1 69 1343379475 -687270638 -1878945741 1399652417
            140525818 1496453234 429166779 2019627027</internalNodes>
          <leafValues>
            -6.8136876821517944e-01 4.9129557609558105e-01</leafValues></_></weakClassifiers></_>
    <!-- stage 19 -->
    <_>
      <maxWeakCount>6</maxWeakCount>
      <stageThreshold>-1.2164900302886963e+00</stageThreshold>
      <weakClassifiers>
        <_>
          <internalNodes>
            0 -1 31 -927753 805208050 -269451271 2146549749 -1912954883
            -1074759952 -17760259 -1682377487</internalNodes>
          <leafValues>
            -3.8117283582687378e-01 6.7962187528610229e-01</leafValues></_>
        <_>
          <internalNodes>
            0 -1 60 -132947842 -134125567 -2143289292 538050627
            -796720040 1612910657 143344283 913777359</internalNodes>
          <leafValues>
            -6.0223990678787231e-01 4.9610936641693115e-01</leafValues></_>
        <_>
          <internalNodes>
            0 -1 98 -766256866 -1207938974 -738000816 -2104442664
            -536206840 -905445054 -392592726 -901785461</internalNodes>
          <leafValues>
            -5.7711559534072876e-01 5.3596627712249756e-01</leafValues></_>
        <_>
          <internalNodes>
            0 -1 26 1203419306 1494714568 -796388348 364758617
            1644476858 1149251747 545384652 196857874</internalNodes>
          <leafValues>
            -6.2552613019943237e-01 4.9225312471389771e-01</leafValues></_>
        <_>
          <internalNodes>
            0 -1 103 -795674106 -1878085366 134742016 578816027
            -2138955776 842008656 -796720936 -1036524573</internalNodes>
          <leafValues>
            -5.5108553171157837e-01 5.6285333633422852e-01</leafValues></_>
        <_>
          <internalNodes>
            0 -1 83 353072767 -12573696 285298889 1826443264 1074266361
            1594368160 35719304 1443041300</internalNodes>
          <leafValues>
            -7.1469622850418091e-01 4.5985525846481323e-01</leafValues></_></weakClassifiers></_></stages>
  <features>
    <_>
      <rect>
        0 5 10 5</rect></_>
    <_>
      <rect>
        0 5 11 4</rect></_>
    <_>
      <rect>
        0 8 9 10</rect></_>
    <_>
      <rect>
        0 9 8 2</rect></_>
    <_>
      <rect>
        0 28 10 6</rect></_>
    <_>
      <rect>
        0 34 9 3</rect></_>
    <_>
      <rect>
        1 5 9 3</rect></_>
    <_>
      <rect>
        1 8 8 10</rect></_>
    <_>
      <rect>
        1 12 4 4</rect></_>
    <_>
      <rect>
        2 26 3 3</rect></_>
    <_>
      <rect>
        2 33 9 4</rect></_>
    <_>
      <rect>
        3 12 11 9</rect></_>
    <_>
      <rect>
        3 19 4 6</rect></_>
    <_>
      <rect>
        3 28 6 5</rect></_>
    <_>
      <rect>
        3 33 5 2</rect></_>
    <_>
      <rect>
        3 35 9 3</rect></_>
    <_>
      <rect>
        4 6 5 3</rect></_>
    <_>
      <rect>
        4 8 4 3</rect></_>
    <_>
      <rect>
        5 5 5 5</rect></_>
    <_>
      <rect>
        5 10 2 6</rect></_>
    <_>
      <rect>
        5 14 3 7</rect></_>
    <_>
      <rect>
        6 5 11 5</rect></_>
    <_>
      <rect>
        6 15 4 7</rect></_>
    <_>
      <rect>
        6 17 4 5</rect></_>
    <_>
      <rect>
        6 21 3 6</rect></_>
    <_>
      <rect>
        8 10 4 7</rect></_>
    <_>
      <rect>
        8 20 3 4</rect></_>
    <_>
      <rect>
        8 31 4 5</rect></_>
    <_>
      <rect>
        9 8 4 10</rect></_>
    <_>
      <rect>
        9 24 9 4</rect></_>
    <_>
      <rect>
        10 10 7 9</rect></_>
    <_>
      <rect>
        12 22 7 5</rect></_>
    <_>
      <rect>
        13 10 8 6</rect></_>
    <_>
      <rect>
        13 21 6 6</rect></_>
    <_>
      <rect>
        13 23 7 4</rect></_>
    <_>
      <rect>
        13 33 8 5</rect></_>
    <_>
      <rect>
        14 0 7 4</rect></_>
    <_>
      <rect>
        14 24 3 2</rect></_>
    <_>
      <rect>
        15 10 2 7</rect></_>
    <_>
      <rect>
        15 10 11 9</rect></_>
    <_>
      <rect>
        15 15 5 3</rect></_>
    <_>
      <rect>
        15 20 3 3</rect></_>
    <_>
      <rect>
        15 21 3 2</rect></_>
    <_>
      <rect>
        15 22 3 2</rect></_>
    <_>
      <rect>
        15 34 11 4</rect></_>
    <_>
      <rect>
        15 36 6 4</rect></_>
    <_>
      <rect>
        16 13 8 8</rect></_>
    <_>
      <rect>
        16 19 3 3</rect></_>
    <_>
      <rect>
        16 20 3 5</rect></_>
    <_>
      <rect>
        16 23 3 2</rect></_>
    <_>
      <rect>
        18 3 10 4</rect></_>
    <_>
      <rect>
        18 34 1 1</rect></_>
    <_>
      <rect>
        19 11 2 6</rect></_>
    <_>
      <rect>
        19 33 1 1</rect></_>
    <_>
      <rect>
        19 34 2 1</rect></_>
    <_>
      <rect>
        20 11 1 1</rect></_>
    <_>
      <rect>
        20 16 2 4</rect></_>
    <_>
      <rect>
        20 22 5 4</rect></_>
    <_>
      <rect>
        20 33 1 1</rect></_>
    <_>
      <rect>
        21 19 2 3</rect></_>
    <_>
      <rect>
        21 26 2 2</rect></_>
    <_>
      <rect>
        21 32 9 4</rect></_>
    <_>
      <rect>
        21 35 1 1</rect></_>
    <_>
      <rect>
        21 35 2 1</rect></_>
    <_>
      <rect>
        21 36 3 1</rect></_>
    <_>
      <rect>
        22 3 8 4</rect></_>
    <_>
      <rect>
        22 11 1 1</rect></_>
    <_>
      <rect>
        22 12 1 1</rect></_>
    <_>
      <rect>
        22 22 2 2</rect></_>
    <_>
      <rect>
        23 10 3 1</rect></_>
    <_>
      <rect>
        23 13 1 1</rect></_>
    <_>
      <rect>
        23 16 2 4</rect></_>
    <_>
      <rect>
        24 10 1 1</rect></_>
    <_>
      <rect>
        24 11 1 1</rect></_>
    <_>
      <rect>
        24 12 1 1</rect></_>
    <_>
      <rect>
        24 12 2 1</rect></_>
    <_>
      <rect>
        24 23 8 5</rect></_>
    <_>
      <rect>
        24 33 1 1</rect></_>
    <_>
      <rect>
        24 34 1 1</rect></_>
    <_>
      <rect>
        24 37 2 1</rect></_>
    <_>
      <rect>
        25 11 1 1</rect></_>
    <_>
      <rect>
        25 34 1 1</rect></_>
    <_>
      <rect>
        26 8 7 2</rect></_>
    <_>
      <rect>
        26 33 3 2</rect></_>
    <_>
      <rect>
        27 10 2 1</rect></_>
    <_>
      <rect>
        27 20 7 6</rect></_>
    <_>
      <rect>
        27 26 5 5</rect></_>
    <_>
      <rect>
        28 22 6 5</rect></_>
    <_>
      <rect>
        28 23 5 6</rect></_>
    <_>
      <rect>
        29 29 5 5</rect></_>
    <_>
      <rect>
        30 5 5 8</rect></_>
    <_>
      <rect>
        30 12 5 6</rect></_>
    <_>
      <rect>
        31 5 4 5</rect></_>
    <_>
      <rect>
        31 5 5 8</rect></_>
    <_>
      <rect>
        31 14 4 8</rect></_>
    <_>
      <rect>
        31 20 5 6</rect></_>
    <_>
      <rect>
        32 13 5 8</rect></_>
    <_>
      <rect>
        32 31 4 3</rect></_>
    <_>
      <rect>
        33 9 3 2</rect></_>
    <_>
      <rect>
        33 28 4 3</rect></_>
    <_>
      <rect>
        34 11 4 4</rect></_>
    <_>
      <rect>
        34 29 2 5</rect></_>
    <_>
      <rect>
        35 21 3 6</rect></_>
    <_>
      <rect>
        40 19 1 2</rect></_></features></cascade>
</opencv_storage>
