<?xml version="1.0"?>
<opencv_storage>
<stage12>
  <maxWeakCount>6</maxWeakCount>
  <stageThreshold>-9.1972464323043823e-01</stageThreshold>
  <weakClassifiers>
    <_>
      <internalNodes>
        0 -1 16814 -72218409 -1 -268668161 -1761808385 -194510764 -32897
        -17255169 -494575649</internalNodes>
      <leafValues>
        -4.4408428668975830e-01 6.8565613031387329e-01</leafValues></_>
    <_>
      <internalNodes>
        0 -1 125747 -10617943 -909587303 -1073818159 -104874084
        -403706482 -921777152 -580937973 -908346977</internalNodes>
      <leafValues>
        -4.5559519529342651e-01 7.1148097515106201e-01</leafValues></_>
    <_>
      <internalNodes>
        0 -1 107920 1500215247 -1824699285 268518447 1595482377
        135839983 147694159 395444763 2101035763</internalNodes>
      <leafValues>
        -6.2730282545089722e-01 5.5519926548004150e-01</leafValues></_>
    <_>
      <internalNodes>
        0 -1 20943 -60558133 -127824184 1176562754 -804137110 303357775
        -1941911808 -1944924577 -27418789</internalNodes>
      <leafValues>
        -5.1731914281845093e-01 7.1667432785034180e-01</leafValues></_>
    <_>
      <internalNodes>
        0 -1 77446 -1325379368 -919683 -286232737 -545366177 -872026900
        -2099436 -1430610770 -1139702001</internalNodes>
      <leafValues>
        -5.4174381494522095e-01 6.3650786876678467e-01</leafValues></_>
    <_>
      <internalNodes>
        0 -1 109512 2143017439 -1824308719 318871831 815743047
        1644208655 1157660864 539129978 1279476483</internalNodes>
      <leafValues>
        -7.4592459201812744e-01 5.3434479236602783e-01</leafValues></_></weakClassifiers></stage12>
</opencv_storage>
