<?xml version="1.0"?>
<opencv_storage>
<stage17>
  <maxWeakCount>5</maxWeakCount>
  <stageThreshold>-5.8584004640579224e-01</stageThreshold>
  <weakClassifiers>
    <_>
      <internalNodes>
        0 -1 125441 -172623656 1497466880 286331024 1426546705
        2133810907 -1215602913 1090979979 487576843</internalNodes>
      <leafValues>
        -5.5717253684997559e-01 5.9696155786514282e-01</leafValues></_>
    <_>
      <internalNodes>
        0 -1 47938 -155500315 803124862 -16814762 -810221602 -527282984
        -185025 -1208412934 -1160342053</internalNodes>
      <leafValues>
        -4.8651576042175293e-01 6.3645392656326294e-01</leafValues></_>
    <_>
      <internalNodes>
        0 -1 105477 -1073622846 -1969043232 18350493 -507310064
        -1062463349 -515407872 -1031448213 2009813083</internalNodes>
      <leafValues>
        -6.0767239332199097e-01 5.0370812416076660e-01</leafValues></_>
    <_>
      <internalNodes>
        0 -1 37113 -14548993 1311913098 234937904 1365302432 1545159754
        -870447406 -309143618 -815833845</internalNodes>
      <leafValues>
        -4.8137727379798889e-01 6.6032898426055908e-01</leafValues></_>
    <_>
      <internalNodes>
        0 -1 109651 -1693396591 -1257199068 -805283983 -174750583
        -801079055 -1331691072 444748489 285344009</internalNodes>
      <leafValues>
        -6.8745225667953491e-01 4.7881591320037842e-01</leafValues></_></weakClassifiers></stage17>
</opencv_storage>
