<?xml version="1.0"?>
<opencv_storage>
<stage19>
  <maxWeakCount>6</maxWeakCount>
  <stageThreshold>-1.2164900302886963e+00</stageThreshold>
  <weakClassifiers>
    <_>
      <internalNodes>
        0 -1 65684 -927753 805208050 -269451271 2146549749 -1912954883
        -1074759952 -17760259 -1682377487</internalNodes>
      <leafValues>
        -3.8117283582687378e-01 6.7962187528610229e-01</leafValues></_>
    <_>
      <internalNodes>
        0 -1 100083 -132947842 -134125567 -2143289292 538050627
        -796720040 1612910657 143344283 913777359</internalNodes>
      <leafValues>
        -6.0223990678787231e-01 4.9610936641693115e-01</leafValues></_>
    <_>
      <internalNodes>
        0 -1 128888 -766256866 -1207938974 -738000816 -2104442664
        -536206840 -905445054 -392592726 -901785461</internalNodes>
      <leafValues>
        -5.7711559534072876e-01 5.3596627712249756e-01</leafValues></_>
    <_>
      <internalNodes>
        0 -1 46887 1203419306 1494714568 -796388348 364758617 1644476858
        1149251747 545384652 196857874</internalNodes>
      <leafValues>
        -6.2552613019943237e-01 4.9225312471389771e-01</leafValues></_>
    <_>
      <internalNodes>
        0 -1 138475 -795674106 -1878085366 134742016 578816027
        -2138955776 842008656 -796720936 -1036524573</internalNodes>
      <leafValues>
        -5.5108553171157837e-01 5.6285333633422852e-01</leafValues></_>
    <_>
      <internalNodes>
        0 -1 114822 353072767 -12573696 285298889 1826443264 1074266361
        1594368160 35719304 1443041300</internalNodes>
      <leafValues>
        -7.1469622850418091e-01 4.5985525846481323e-01</leafValues></_></weakClassifiers></stage19>
</opencv_storage>
