<?xml version="1.0"?>
<opencv_storage>
<stage16>
  <maxWeakCount>6</maxWeakCount>
  <stageThreshold>-9.5145833492279053e-01</stageThreshold>
  <weakClassifiers>
    <_>
      <internalNodes>
        0 -1 81766 -674505010 -544351100 -1327828470 -715132914
        -1822163294 1464007942 -682302737 1401943371</internalNodes>
      <leafValues>
        -5.0519359111785889e-01 6.2354040145874023e-01</leafValues></_>
    <_>
      <internalNodes>
        0 -1 22580 -897793 -1 716881919 -210309377 -64225128 -2057
        -302596097 -78206977</internalNodes>
      <leafValues>
        -4.1379261016845703e-01 7.3175913095474243e-01</leafValues></_>
    <_>
      <internalNodes>
        0 -1 122713 -1829653581 -729374814 816561085 -1179599616
        -2131029361 -1428357321 -1874874120 -2002000386</internalNodes>
      <leafValues>
        -4.6493545174598694e-01 6.5582537651062012e-01</leafValues></_>
    <_>
      <internalNodes>
        0 -1 116062 -805285413 290522273 -2112872009 218108049
        1258375386 822892699 159533087 990003215</internalNodes>
      <leafValues>
        -6.6995519399642944e-01 5.1379609107971191e-01</leafValues></_>
    <_>
      <internalNodes>
        0 -1 30205 -919604974 -503095262 -2130606841 70766592
        -2128485757 -893386743 -905822039 1470615955</internalNodes>
      <leafValues>
        -5.4339599609375000e-01 5.8635669946670532e-01</leafValues></_>
    <_>
      <internalNodes>
        0 -1 131382 369163018 -1874821120 25231431 -653940027
        -2013231989 -1593704448 285573257 -1186510847</internalNodes>
      <leafValues>
        -6.2847125530242920e-01 5.2443510293960571e-01</leafValues></_></weakClassifiers></stage16>
</opencv_storage>
