<?xml version="1.0"?>
<opencv_storage>
<stage11>
  <maxWeakCount>5</maxWeakCount>
  <stageThreshold>-4.8430842161178589e-01</stageThreshold>
  <weakClassifiers>
    <_>
      <internalNodes>
        0 -1 22025 2080325820 2147417854 -1073833089 -139541398 -64488
        -33799154 -411612289 -634174369</internalNodes>
      <leafValues>
        -4.8045179247856140e-01 6.6032212972640991e-01</leafValues></_>
    <_>
      <internalNodes>
        0 -1 105200 -779618817 1364706831 -1254894245 2097395715
        -1597968934 -1335820159 48480907 1092076111</internalNodes>
      <leafValues>
        -5.5126869678497314e-01 5.6019598245620728e-01</leafValues></_>
    <_>
      <internalNodes>
        0 -1 68579 -1601568515 -1210362310 -1074397185 -538181633
        -71435109 -1145104850 -1646593 -1355096707</internalNodes>
      <leafValues>
        -4.9306938052177429e-01 6.3335251808166504e-01</leafValues></_>
    <_>
      <internalNodes>
        0 -1 45504 1095490006 -781720486 1627718039 -1653382656 34385194
        -1048575967 1233643662 2045716696</internalNodes>
      <leafValues>
        -5.7679766416549683e-01 5.5047231912612915e-01</leafValues></_>
    <_>
      <internalNodes>
        0 -1 36592 -383786246 -716340991 16842884 -719462076 1082229434
        1109443235 1343209898 -716996093</internalNodes>
      <leafValues>
        -6.0284495353698730e-01 5.0581443309783936e-01</leafValues></_></weakClassifiers></stage11>
</opencv_storage>
