<?xml version="1.0"?>
<opencv_storage>
<cascade>
  <stageType>BOOST</stageType>
  <featureType>LBP</featureType>
  <height>48</height>
  <width>48</width>
  <stageParams>
    <boostType>GAB</boostType>
    <minHitRate>9.9500000476837158e-01</minHitRate>
    <maxFalseAlarm>5.0000000000000000e-01</maxFalseAlarm>
    <weightTrimRate>9.4999999999999996e-01</weightTrimRate>
    <maxDepth>1</maxDepth>
    <maxWeakCount>100</maxWeakCount></stageParams>
  <featureParams>
    <maxCatCount>256</maxCatCount>
    <featSize>1</featSize></featureParams>
  <stageNum>14</stageNum>
  <stages>
    <!-- stage 0 -->
    <_>
      <maxWeakCount>3</maxWeakCount>
      <stageThreshold>-1.0669833421707153e+00</stageThreshold>
      <weakClassifiers>
        <_>
          <internalNodes>
            0 -1 16 -168755720 -674106948 -783282081 -69346393
            -2137984774 -346848737 -360252417 -263233</internalNodes>
          <leafValues>
            -8.3783781528472900e-01 6.1922717094421387e-01</leafValues></_>
        <_>
          <internalNodes>
            0 -1 39 -1147952712 -1585408336 -1782017315 -115749539
            -125110593 -1153725541 -908543011 -4458023</internalNodes>
          <leafValues>
            -7.5392818450927734e-01 5.6294822692871094e-01</leafValues></_>
        <_>
          <internalNodes>
            0 -1 24 -250359331 1609892369 268566589 1393623049
            -1056394497 -73744215 524490 185139210</internalNodes>
          <leafValues>
            -7.9209369421005249e-01 5.5578809976577759e-01</leafValues></_></weakClassifiers></_>
    <!-- stage 1 -->
    <_>
      <maxWeakCount>4</maxWeakCount>
      <stageThreshold>-1.6900290250778198e+00</stageThreshold>
      <weakClassifiers>
        <_>
          <internalNodes>
            0 -1 1 -45940741 -2104841 -872359609 -44045761 -754914384
            -21501701 -889128369 -33</internalNodes>
          <leafValues>
            -7.7063709497451782e-01 5.9396982192993164e-01</leafValues></_>
        <_>
          <internalNodes>
            0 -1 4 -539031418 -1109943969 -1131585825 2057486815
            -1196752890 -70543169 -661009697 -1493960197</internalNodes>
          <leafValues>
            -8.3148127794265747e-01 4.6963417530059814e-01</leafValues></_>
        <_>
          <internalNodes>
            0 -1 28 -752919553 -150138869 286266655 487657949 440608943
            -1148387200 169576895 454779323</internalNodes>
          <leafValues>
            -7.4869155883789062e-01 5.5518156290054321e-01</leafValues></_>
        <_>
          <internalNodes>
            0 -1 55 -326108001 1284300557 -54624943 -581051113
            -821039929 -856756388 -850420517 -845153137</internalNodes>
          <leafValues>
            -6.4309221506118774e-01 6.8718922138214111e-01</leafValues></_></weakClassifiers></_>
    <!-- stage 2 -->
    <_>
      <maxWeakCount>5</maxWeakCount>
      <stageThreshold>-1.0351006984710693e+00</stageThreshold>
      <weakClassifiers>
        <_>
          <internalNodes>
            0 -1 5 -29953 -33 -16777217 -1048577 -64497 -2097153 -1
            -262145</internalNodes>
          <leafValues>
            -7.0060485601425171e-01 7.2303920984268188e-01</leafValues></_>
        <_>
          <internalNodes>
            0 -1 29 -52503332 -593973188 -1316955751 1427625663
            -83113029 -1733588853 -1087383249 -12592673</internalNodes>
          <leafValues>
            -7.0446985960006714e-01 5.3509557247161865e-01</leafValues></_>
        <_>
          <internalNodes>
            0 -1 50 -2099213 -8407799 -653004705 1363012575 -107550993
            453673352 1259944683 1594351039</internalNodes>
          <leafValues>
            -7.5788873434066772e-01 4.9997338652610779e-01</leafValues></_>
        <_>
          <internalNodes>
            0 -1 57 -1232408136 -1551192056 -1551267435 -8522287
            -759246853 -1970568557 161862593 -811083963</internalNodes>
          <leafValues>
            -7.6775580644607544e-01 4.9142298102378845e-01</leafValues></_>
        <_>
          <internalNodes>
            0 -1 27 -644353841 -99363631 -2012081841 973854037
            1488568456 -559093717 -1600544118 -1431590621</internalNodes>
          <leafValues>
            -6.0180896520614624e-01 6.4122062921524048e-01</leafValues></_></weakClassifiers></_>
    <!-- stage 3 -->
    <_>
      <maxWeakCount>4</maxWeakCount>
      <stageThreshold>-1.6960977315902710e+00</stageThreshold>
      <weakClassifiers>
        <_>
          <internalNodes>
            0 -1 7 -3015181 -2285943 -666840707 -170424097 -74389328
            -78285184 -283063329 -269500945</internalNodes>
          <leafValues>
            -7.1852666139602661e-01 5.1681959629058838e-01</leafValues></_>
        <_>
          <internalNodes>
            0 -1 41 -4202497 -78384034 1528158621 1595896775 2077223419
            1605625022 1636788735 326105919</internalNodes>
          <leafValues>
            -7.6469838619232178e-01 4.5410567522048950e-01</leafValues></_>
        <_>
          <internalNodes>
            0 -1 11 -241229610 -2108965 1275386623 -1695353929
            -224198568 -5252869 -89203521 -1911841</internalNodes>
          <leafValues>
            -7.3453307151794434e-01 4.9218627810478210e-01</leafValues></_>
        <_>
          <internalNodes>
            0 -1 26 -25439138 2086426687 -735455554 -55078819 411605144
            1787750856 -1129382658 -83952946</internalNodes>
          <leafValues>
            -7.0505893230438232e-01 5.0120443105697632e-01</leafValues></_></weakClassifiers></_>
    <!-- stage 4 -->
    <_>
      <maxWeakCount>3</maxWeakCount>
      <stageThreshold>-9.8227161169052124e-01</stageThreshold>
      <weakClassifiers>
        <_>
          <internalNodes>
            0 -1 40 -2099201 -36307493 -715803169 1606504671 -539952722
            -41049676 -341779457 486660607</internalNodes>
          <leafValues>
            -8.0889183282852173e-01 3.2405260205268860e-01</leafValues></_>
        <_>
          <internalNodes>
            0 -1 59 -36701697 -776343420 -938479541 1091002709
            -558903409 -636790357 1234170571 -980418577</internalNodes>
          <leafValues>
            -6.0653871297836304e-01 6.7244434356689453e-01</leafValues></_>
        <_>
          <internalNodes>
            0 -1 46 -9175303 -143241098 171036759 1566556511 1899123199
            -282394061 268586587 1529828923</internalNodes>
          <leafValues>
            -6.9978553056716919e-01 5.2533155679702759e-01</leafValues></_></weakClassifiers></_>
    <!-- stage 5 -->
    <_>
      <maxWeakCount>4</maxWeakCount>
      <stageThreshold>-1.5763933658599854e+00</stageThreshold>
      <weakClassifiers>
        <_>
          <internalNodes>
            0 -1 22 -540017938 -748686387 1926262984 -236989942
            -204750962 -1618181760 -521143570 -68158485</internalNodes>
          <leafValues>
            -7.0280683040618896e-01 4.8524925112724304e-01</leafValues></_>
        <_>
          <internalNodes>
            0 -1 32 -1254367861 -1416916061 -720249445 -44048931
            -91369221 -615527953 -930489679 -7341643</internalNodes>
          <leafValues>
            -6.6734182834625244e-01 5.1681011915206909e-01</leafValues></_>
        <_>
          <internalNodes>
            0 -1 34 -1111538465 -13302478 1313935711 2138511379
            797945295 -74841848 186195743 960200559</internalNodes>
          <leafValues>
            -7.1143078804016113e-01 4.8888686299324036e-01</leafValues></_>
        <_>
          <internalNodes>
            0 -1 60 -10758914 299746373 269129875 286462123 -1156595480
            -611612950 -16669957 454810063</internalNodes>
          <leafValues>
            -6.8286997079849243e-01 4.9065676331520081e-01</leafValues></_></weakClassifiers></_>
    <!-- stage 6 -->
    <_>
      <maxWeakCount>5</maxWeakCount>
      <stageThreshold>-1.0797368288040161e+00</stageThreshold>
      <weakClassifiers>
        <_>
          <internalNodes>
            0 -1 19 -612106753 -539566890 1198849949 2142821789
            -121046291 -2611832 -38215795 -71764491</internalNodes>
          <leafValues>
            -7.4807804822921753e-01 4.1929665207862854e-01</leafValues></_>
        <_>
          <internalNodes>
            0 -1 6 -439420942 -1344645680 -58271375 -2645088 -1987843109
            -113259984 -1465218078 -268483248</internalNodes>
          <leafValues>
            -6.9971036911010742e-01 4.4340884685516357e-01</leafValues></_>
        <_>
          <internalNodes>
            0 -1 37 -1242567169 1610463999 1435557339 367237585
            311017471 297845852 1239735803 1572600747</internalNodes>
          <leafValues>
            -7.0881211757659912e-01 4.5802944898605347e-01</leafValues></_>
        <_>
          <internalNodes>
            0 -1 61 -808539206 -1953773916 1628517265 -238972543
            -492063073 -2052355893 100655315 -805578757</internalNodes>
          <leafValues>
            -6.5527504682540894e-01 5.3699553012847900e-01</leafValues></_>
        <_>
          <internalNodes>
            0 -1 15 -2096653345 -1627355384 1158218228 1598133184
            -2103483745 -704609596 1922140351 -1278105605</internalNodes>
          <leafValues>
            -5.7782196998596191e-01 5.9317570924758911e-01</leafValues></_></weakClassifiers></_>
    <!-- stage 7 -->
    <_>
      <maxWeakCount>5</maxWeakCount>
      <stageThreshold>-1.0408730506896973e+00</stageThreshold>
      <weakClassifiers>
        <_>
          <internalNodes>
            0 -1 13 -8259649 -8436661 1087625631 -19649 -316604486
            -622352501 -134033525 -9709669</internalNodes>
          <leafValues>
            -6.6754615306854248e-01 5.1381218433380127e-01</leafValues></_>
        <_>
          <internalNodes>
            0 -1 45 -67511041 -174630696 1908536799 -585786923 -7804263
            -587249527 1964167629 452989064</internalNodes>
          <leafValues>
            -7.3165708780288696e-01 3.8961851596832275e-01</leafValues></_>
        <_>
          <internalNodes>
            0 -1 62 -573046837 -722379689 1330536398 1162137542 -12550
            -310510089 -574632566 -807412321</internalNodes>
          <leafValues>
            -5.5311709642410278e-01 6.2582743167877197e-01</leafValues></_>
        <_>
          <internalNodes>
            0 -1 9 -27656002 -140537569 -626343937 -202324779 -526122931
            -7755279 -310182977 -734549521</internalNodes>
          <leafValues>
            -6.6910874843597412e-01 4.9263006448745728e-01</leafValues></_>
        <_>
          <internalNodes>
            0 -1 21 -110735109 -908864038 -1815698021 1493272989
            -2005153560 -644850759 327925947 134859743</internalNodes>
          <leafValues>
            -6.9788414239883423e-01 4.5928055047988892e-01</leafValues></_></weakClassifiers></_>
    <!-- stage 8 -->
    <_>
      <maxWeakCount>5</maxWeakCount>
      <stageThreshold>-1.3001053333282471e+00</stageThreshold>
      <weakClassifiers>
        <_>
          <internalNodes>
            0 -1 33 -788279294 -70266645 -668605994 -42737277 -707789873
            -452286229 -242748741 -139460805</internalNodes>
          <leafValues>
            -7.0775234699249268e-01 4.6573981642723083e-01</leafValues></_>
        <_>
          <internalNodes>
            0 -1 25 -1718897384 -1181511416 -12012193 -136505921
            -114636033 -1081160389 -309350947 -33830403</internalNodes>
          <leafValues>
            -6.2471610307693481e-01 5.1279234886169434e-01</leafValues></_>
        <_>
          <internalNodes>
            0 -1 53 -631579042 1448333687 -192128930 1995195094
            -653690292 1746913353 -368391574 -87097810</internalNodes>
          <leafValues>
            -7.5529825687408447e-01 3.9778280258178711e-01</leafValues></_>
        <_>
          <internalNodes>
            0 -1 8 -33577976 -14841257 -2122168065 -833149165 1883832328
            -39079934 -184096002 -251935125</internalNodes>
          <leafValues>
            -7.3815882205963135e-01 4.0944549441337585e-01</leafValues></_>
        <_>
          <internalNodes>
            0 -1 47 -801644837 -880688755 -177873961 -15349679
            -1810329409 -76480494 275251713 521224704</internalNodes>
          <leafValues>
            -7.7486509084701538e-01 4.5199185609817505e-01</leafValues></_></weakClassifiers></_>
    <!-- stage 9 -->
    <_>
      <maxWeakCount>5</maxWeakCount>
      <stageThreshold>-8.2934933900833130e-01</stageThreshold>
      <weakClassifiers>
        <_>
          <internalNodes>
            0 -1 43 -147875397 -1279544903 -125578755 -1583785
            -1248230497 -1162894463 -1548779345 -1891646209</internalNodes>
          <leafValues>
            -6.6808056831359863e-01 5.0328224897384644e-01</leafValues></_>
        <_>
          <internalNodes>
            0 -1 12 -234884358 -750256665 -736689765 -547896353
            293773730 -82182141 1364411355 -549202961</internalNodes>
          <leafValues>
            -5.7050794363021851e-01 5.3782755136489868e-01</leafValues></_>
        <_>
          <internalNodes>
            0 -1 42 -1883504645 884737701 830357503 779759487 536756220
            2080053020 1878949886 -1140883457</internalNodes>
          <leafValues>
            -4.7413840889930725e-01 6.5008223056793213e-01</leafValues></_>
        <_>
          <internalNodes>
            0 -1 49 1567060735 -9224192 474701877 2103393143 1780678715
            -32296897 319519359 1058953083</internalNodes>
          <leafValues>
            -7.7657014131546021e-01 4.2938551306724548e-01</leafValues></_>
        <_>
          <internalNodes>
            0 -1 10 -569712392 -649467739 -1906061207 -1542368765
            -1660681716 152256576 -384578853 -916723109</internalNodes>
          <leafValues>
            -6.1137193441390991e-01 5.5161225795745850e-01</leafValues></_></weakClassifiers></_>
    <!-- stage 10 -->
    <_>
      <maxWeakCount>5</maxWeakCount>
      <stageThreshold>-1.1235334873199463e+00</stageThreshold>
      <weakClassifiers>
        <_>
          <internalNodes>
            0 -1 17 -78489601 -2833956 -65482753 -1037924 -1702303745
            -275249732 -660045889 -67570244</internalNodes>
          <leafValues>
            -7.4859285354614258e-01 3.3055788278579712e-01</leafValues></_>
        <_>
          <internalNodes>
            0 -1 0 -242229765 -1122006286 -753514033 -380829600
            -1184695877 -71245149 -311732737 -33598912</internalNodes>
          <leafValues>
            -5.7646638154983521e-01 5.2821916341781616e-01</leafValues></_>
        <_>
          <internalNodes>
            0 -1 30 -1149370885 287028499 21192927 24869085 -2030048773
            -2002253938 -1885667333 168244701</internalNodes>
          <leafValues>
            -7.4738514423370361e-01 3.9812707901000977e-01</leafValues></_>
        <_>
          <internalNodes>
            0 -1 44 -983311958 -336935670 -615443981 -33963879
            -2046776833 -125402909 1621660151 -135017481</internalNodes>
          <leafValues>
            -6.7074686288833618e-01 5.1754337549209595e-01</leafValues></_>
        <_>
          <internalNodes>
            0 -1 56 -536872738 1409785932 -2012138663 285605653
            -612121714 -1155366387 -1890406113 -1626343445</internalNodes>
          <leafValues>
            -6.0500514507293701e-01 5.1545405387878418e-01</leafValues></_></weakClassifiers></_>
    <!-- stage 11 -->
    <_>
      <maxWeakCount>5</maxWeakCount>
      <stageThreshold>-1.2447271347045898e+00</stageThreshold>
      <weakClassifiers>
        <_>
          <internalNodes>
            0 -1 3 -553388065 -136330857 -536562721 -1088961 -82780941
            -151408458 -448267425 -10518561</internalNodes>
          <leafValues>
            -6.7180615663528442e-01 4.2682927846908569e-01</leafValues></_>
        <_>
          <internalNodes>
            0 -1 23 -68428818 1999073679 -206355544 863359070 1224839631
            1413723405 -444372085 -259002165</internalNodes>
          <leafValues>
            -5.8933186531066895e-01 4.6003693342208862e-01</leafValues></_>
        <_>
          <internalNodes>
            0 -1 51 -1650918145 -543177059 1970065759 1577031123
            -1647183141 -539764508 1564540090 1426083920</internalNodes>
          <leafValues>
            -7.6659017801284790e-01 3.7457242608070374e-01</leafValues></_>
        <_>
          <internalNodes>
            0 -1 48 -166210946 -86105699 -1342139726 -19759017 211834892
            2126938241 -1163080002 -18875266</internalNodes>
          <leafValues>
            -6.7926108837127686e-01 4.5276996493339539e-01</leafValues></_>
        <_>
          <internalNodes>
            0 -1 35 -1813186562 -1222722228 1032067460 1472643960
            1527388158 2073831676 1266692351 -102948</internalNodes>
          <leafValues>
            -7.1913772821426392e-01 3.9356711506843567e-01</leafValues></_></weakClassifiers></_>
    <!-- stage 12 -->
    <_>
      <maxWeakCount>5</maxWeakCount>
      <stageThreshold>-1.0532634258270264e+00</stageThreshold>
      <weakClassifiers>
        <_>
          <internalNodes>
            0 -1 36 -671090689 511967999 -1626455216 857613786 232410088
            1049040213 271197676 -33</internalNodes>
          <leafValues>
            -6.4156943559646606e-01 4.4857767224311829e-01</leafValues></_>
        <_>
          <internalNodes>
            0 -1 14 -850933044 -430708925 -36978080 -537926802 47751912
            -1659812925 1773128687 -1312773</internalNodes>
          <leafValues>
            -5.7421416044235229e-01 4.8257032036781311e-01</leafValues></_>
        <_>
          <internalNodes>
            0 -1 2 -715391988 -1214260845 -1269468625 -1063929955
            -570558713 -701769255 -74776770 -153630465</internalNodes>
          <leafValues>
            -7.4321579933166504e-01 3.5151511430740356e-01</leafValues></_>
        <_>
          <internalNodes>
            0 -1 38 -740294657 -78138801 -239120905 501174655 -581435989
            -658843213 1598946303 1631584251</internalNodes>
          <leafValues>
            -6.7232149839401245e-01 4.0598595142364502e-01</leafValues></_>
        <_>
          <internalNodes>
            0 -1 18 -67208715 -154987009 -800827662 -1519922235
            -87183377 -1798565009 -1700073477 -1430777121</internalNodes>
          <leafValues>
            -5.5703437328338623e-01 5.5889481306076050e-01</leafValues></_></weakClassifiers></_>
    <!-- stage 13 -->
    <_>
      <maxWeakCount>5</maxWeakCount>
      <stageThreshold>-9.7974359989166260e-01</stageThreshold>
      <weakClassifiers>
        <_>
          <internalNodes>
            0 -1 54 -791160353 -599441257 -1827972617 -581447657
            -323242501 -1953783650 -745805413 -573571589</internalNodes>
          <leafValues>
            -6.3840001821517944e-01 4.2918917536735535e-01</leafValues></_>
        <_>
          <internalNodes>
            0 -1 20 -213781558 -7366311 -375553317 -677669881
            -2128764453 -878460173 -1142060418 -67127365</internalNodes>
          <leafValues>
            -5.3116393089294434e-01 5.0456655025482178e-01</leafValues></_>
        <_>
          <internalNodes>
            0 -1 52 -10619137 -14977577 -774146083 903825083 -977539585
            -1284528783 221337593 1432704351</internalNodes>
          <leafValues>
            -7.6357072591781616e-01 3.6059653759002686e-01</leafValues></_>
        <_>
          <internalNodes>
            0 -1 31 -766782846 -313797706 269457960 -145981278
            -1528580145 705398986 -1585338750 -515378817</internalNodes>
          <leafValues>
            -5.7561075687408447e-01 5.2105361223220825e-01</leafValues></_>
        <_>
          <internalNodes>
            0 -1 58 -115361402 -1859059708 2069406 838249823 -1616932706
            -339482424 1087372271 -641730401</internalNodes>
          <leafValues>
            -5.7116651535034180e-01 4.9327129125595093e-01</leafValues></_></weakClassifiers></_></stages>
  <features>
    <_>
      <rect>
        0 4 10 6</rect></_>
    <_>
      <rect>
        0 10 9 9</rect></_>
    <_>
      <rect>
        0 33 9 2</rect></_>
    <_>
      <rect>
        1 11 8 9</rect></_>
    <_>
      <rect>
        1 33 9 3</rect></_>
    <_>
      <rect>
        1 33 10 3</rect></_>
    <_>
      <rect>
        2 3 8 5</rect></_>
    <_>
      <rect>
        2 13 11 8</rect></_>
    <_>
      <rect>
        3 31 5 3</rect></_>
    <_>
      <rect>
        3 35 9 3</rect></_>
    <_>
      <rect>
        4 23 4 5</rect></_>
    <_>
      <rect>
        4 32 7 4</rect></_>
    <_>
      <rect>
        6 13 4 7</rect></_>
    <_>
      <rect>
        8 8 5 10</rect></_>
    <_>
      <rect>
        9 15 3 6</rect></_>
    <_>
      <rect>
        10 19 4 5</rect></_>
    <_>
      <rect>
        11 12 8 8</rect></_>
    <_>
      <rect>
        12 21 8 5</rect></_>
    <_>
      <rect>
        13 20 7 7</rect></_>
    <_>
      <rect>
        13 22 7 5</rect></_>
    <_>
      <rect>
        14 9 3 8</rect></_>
    <_>
      <rect>
        14 33 3 2</rect></_>
    <_>
      <rect>
        15 20 3 3</rect></_>
    <_>
      <rect>
        16 25 3 1</rect></_>
    <_>
      <rect>
        16 35 6 1</rect></_>
    <_>
      <rect>
        17 32 10 4</rect></_>
    <_>
      <rect>
        18 3 10 4</rect></_>
    <_>
      <rect>
        18 6 10 5</rect></_>
    <_>
      <rect>
        18 11 4 1</rect></_>
    <_>
      <rect>
        18 11 9 9</rect></_>
    <_>
      <rect>
        18 12 2 1</rect></_>
    <_>
      <rect>
        18 17 2 4</rect></_>
    <_>
      <rect>
        18 33 10 3</rect></_>
    <_>
      <rect>
        19 14 2 5</rect></_>
    <_>
      <rect>
        20 10 4 1</rect></_>
    <_>
      <rect>
        20 23 5 4</rect></_>
    <_>
      <rect>
        20 25 1 3</rect></_>
    <_>
      <rect>
        20 33 1 1</rect></_>
    <_>
      <rect>
        21 12 1 1</rect></_>
    <_>
      <rect>
        21 30 9 5</rect></_>
    <_>
      <rect>
        21 35 1 1</rect></_>
    <_>
      <rect>
        22 12 1 1</rect></_>
    <_>
      <rect>
        22 25 1 3</rect></_>
    <_>
      <rect>
        22 29 8 5</rect></_>
    <_>
      <rect>
        22 35 8 2</rect></_>
    <_>
      <rect>
        22 36 2 1</rect></_>
    <_>
      <rect>
        23 12 3 1</rect></_>
    <_>
      <rect>
        23 35 4 1</rect></_>
    <_>
      <rect>
        24 6 7 3</rect></_>
    <_>
      <rect>
        24 11 3 1</rect></_>
    <_>
      <rect>
        24 34 1 1</rect></_>
    <_>
      <rect>
        24 36 2 1</rect></_>
    <_>
      <rect>
        25 34 1 1</rect></_>
    <_>
      <rect>
        27 6 6 3</rect></_>
    <_>
      <rect>
        27 20 6 6</rect></_>
    <_>
      <rect>
        28 19 6 6</rect></_>
    <_>
      <rect>
        29 12 5 8</rect></_>
    <_>
      <rect>
        29 30 5 4</rect></_>
    <_>
      <rect>
        31 13 4 6</rect></_>
    <_>
      <rect>
        32 11 4 8</rect></_>
    <_>
      <rect>
        33 12 3 9</rect></_>
    <_>
      <rect>
        33 27 4 4</rect></_>
    <_>
      <rect>
        34 14 4 7</rect></_></features></cascade>
</opencv_storage>
