<?xml version="1.0"?>
<opencv_storage>
<stage9>
  <maxWeakCount>7</maxWeakCount>
  <stageThreshold>-1.2021063566207886e+00</stageThreshold>
  <weakClassifiers>
    <_>
      <internalNodes>
        0 -1 45185 -16646147 -708892597 -30778401 -78706645 -16712261
        -343438454 -601818437 -10514949</internalNodes>
      <leafValues>
        -6.5420830249786377e-01 3.9749372005462646e-01</leafValues></_>
    <_>
      <internalNodes>
        0 -1 135294 -187179358 1150480515 138872840 443402 -117603838
        1352255974 -257170998 -457179429</internalNodes>
      <leafValues>
        -6.3973939418792725e-01 3.8585236668586731e-01</leafValues></_>
    <_>
      <internalNodes>
        0 -1 97114 -167905793 -671125193 -1857687553 -1856419463
        -248208133 -540153629 1514123007 1366017535</internalNodes>
      <leafValues>
        -5.9872508049011230e-01 4.3474939465522766e-01</leafValues></_>
    <_>
      <internalNodes>
        0 -1 5646 1115867870 -191752107 -1273668097 -653250418 134218685
        -69599076 -117339397 -1417178165</internalNodes>
      <leafValues>
        -5.2935177087783813e-01 5.1396000385284424e-01</leafValues></_>
    <_>
      <internalNodes>
        0 -1 96519 -950878250 -1085505080 397673884 -1114242964
        862132728 515416744 -743952133 -8749732</internalNodes>
      <leafValues>
        -6.4107406139373779e-01 4.2003825306892395e-01</leafValues></_>
    <_>
      <internalNodes>
        0 -1 98545 924579839 -184069663 1521713913 1467433119 545849065
        1031931905 135719871 393958909</internalNodes>
      <leafValues>
        -7.3625659942626953e-01 3.2888498902320862e-01</leafValues></_>
    <_>
      <internalNodes>
        0 -1 123317 -780151846 896772256 87232784 268805157 -1693724502
        -385575764 1107853467 -707803446</internalNodes>
      <leafValues>
        -5.2695906162261963e-01 5.4184615612030029e-01</leafValues></_></weakClassifiers></stage9>
</opencv_storage>
