<?xml version="1.0"?>
<opencv_storage>
<stage14>
  <maxWeakCount>7</maxWeakCount>
  <stageThreshold>-1.0460749864578247e+00</stageThreshold>
  <weakClassifiers>
    <_>
      <internalNodes>
        0 -1 64973 -720913409 -748684455 1102544920 -145382634
        1271905243 -2241652 -101844785 -168453137</internalNodes>
      <leafValues>
        -5.6660038232803345e-01 5.2845525741577148e-01</leafValues></_>
    <_>
      <internalNodes>
        0 -1 27798 -654317554 -14732973 -737092263 -23948271 -609288128
        -74741504 -440009749 -218641489</internalNodes>
      <leafValues>
        -5.8293324708938599e-01 3.9910906553268433e-01</leafValues></_>
    <_>
      <internalNodes>
        0 -1 75859 -616596388 -1218609409 2113846875 -1073742114
        -50377588 -562135081 -25379138 -50331909</internalNodes>
      <leafValues>
        -4.6034321188926697e-01 5.1677048206329346e-01</leafValues></_>
    <_>
      <internalNodes>
        0 -1 99645 -430441790 1919660170 -230534592 -494943357
        -892970390 -670371794 -486292673 -261107105</internalNodes>
      <leafValues>
        -4.8021778464317322e-01 4.8687440156936646e-01</leafValues></_>
    <_>
      <internalNodes>
        0 -1 117462 -1476229072 -1856400956 -499105285 -101770991
        -796225033 -704607741 -232488785 -910344076</internalNodes>
      <leafValues>
        -6.6739314794540405e-01 3.8811725378036499e-01</leafValues></_>
    <_>
      <internalNodes>
        0 -1 113502 2075120315 -652258409 757549141 326177883 335676383
        -2053721553 69347311 2137682363</internalNodes>
      <leafValues>
        -6.8542969226837158e-01 3.6333945393562317e-01</leafValues></_>
    <_>
      <internalNodes>
        0 -1 129855 -876481864 -1954119678 318887249 -76431005
        -2003701037 -2029426552 1300709627 -427442717</internalNodes>
      <leafValues>
        -5.2940577268600464e-01 4.6827465295791626e-01</leafValues></_></weakClassifiers></stage14>
</opencv_storage>
