<?xml version="1.0"?>
<opencv_storage>
<stage11>
  <maxWeakCount>7</maxWeakCount>
  <stageThreshold>-9.9437785148620605e-01</stageThreshold>
  <weakClassifiers>
    <_>
      <internalNodes>
        0 -1 105790 -748684289 -875183578 -651410236 -572243821
        -156461192 -1081338358 -272053510 -5377</internalNodes>
      <leafValues>
        -5.6886529922485352e-01 4.8671418428421021e-01</leafValues></_>
    <_>
      <internalNodes>
        0 -1 7451 -1044646416 -271447678 -1316945584 -278425742
        386915253 164271058 -443950288 -536875294</internalNodes>
      <leafValues>
        -7.1649515628814697e-01 3.1368827819824219e-01</leafValues></_>
    <_>
      <internalNodes>
        0 -1 25302 -100934950 -749714239 42402385 893857865 -607071510
        1311821931 1364546907 -179046689</internalNodes>
      <leafValues>
        -5.0298422574996948e-01 4.7783899307250977e-01</leafValues></_>
    <_>
      <internalNodes>
        0 -1 125825 -765806992 420619170 -1739307431 1361149137
        -1048334182 -1356730365 -1018754873 521915611</internalNodes>
      <leafValues>
        -5.8045381307601929e-01 4.1234290599822998e-01</leafValues></_>
    <_>
      <internalNodes>
        0 -1 113514 1137864919 -547946492 -2120560021 89459551
        1763195530 -92206973 1195583727 520775427</internalNodes>
      <leafValues>
        -6.4355558156967163e-01 3.9916378259658813e-01</leafValues></_>
    <_>
      <internalNodes>
        0 -1 41292 -206390285 -1143906144 -890011649 -612413067
        -245312805 1072369783 49331195 -1611969585</internalNodes>
      <leafValues>
        -4.7996306419372559e-01 5.4455548524856567e-01</leafValues></_>
    <_>
      <internalNodes>
        0 -1 85786 -1795950394 -1890117994 -939507604 1901588482
        -1328442302 861044865 -1605812064 -247988657</internalNodes>
      <leafValues>
        -5.0586402416229248e-01 4.9623936414718628e-01</leafValues></_></weakClassifiers></stage11>
</opencv_storage>
