<?xml version="1.0"?>
<opencv_storage>
<stage13>
  <maxWeakCount>7</maxWeakCount>
  <stageThreshold>-1.3405179977416992e+00</stageThreshold>
  <weakClassifiers>
    <_>
      <internalNodes>
        0 -1 13744 -993281 -101203579 -511616877 -174645089 1939994615
        -237025900 876529995 -1061137</internalNodes>
      <leafValues>
        -6.0188263654708862e-01 3.5699152946472168e-01</leafValues></_>
    <_>
      <internalNodes>
        0 -1 124060 -75770437 -1484683901 -644787943 -686486877
        -749493827 -1182553949 1226033403 252179595</internalNodes>
      <leafValues>
        -5.7469719648361206e-01 3.7108612060546875e-01</leafValues></_>
    <_>
      <internalNodes>
        0 -1 98986 -239075585 -738724781 1503718619 1238947071
        -1744246097 -721321973 -821466241 1343493375</internalNodes>
      <leafValues>
        -6.5159940719604492e-01 3.8221108913421631e-01</leafValues></_>
    <_>
      <internalNodes>
        0 -1 55947 822212654 -686169225 -796294904 -783343538
        -1374948434 -330640852 -102129014 927318031</internalNodes>
      <leafValues>
        -5.7593220472335815e-01 4.5146405696868896e-01</leafValues></_>
    <_>
      <internalNodes>
        0 -1 81059 -1607445392 -642687617 1049315295 -45565561
        -477826817 -1712793548 880981179 1478150925</internalNodes>
      <leafValues>
        -6.4148843288421631e-01 3.6740389466285706e-01</leafValues></_>
    <_>
      <internalNodes>
        0 -1 78252 -160172094 1629487360 -503214006 -749514652
        -754206290 1145671752 -124854134 -674238242</internalNodes>
      <leafValues>
        -5.9973090887069702e-01 4.2677465081214905e-01</leafValues></_>
    <_>
      <internalNodes>
        0 -1 93685 358841339 1976526787 319949661 899103359 547851935
        478196107 1762907067 471845819</internalNodes>
      <leafValues>
        -6.7636847496032715e-01 3.4497472643852234e-01</leafValues></_></weakClassifiers></stage13>
</opencv_storage>
