<?xml version="1.0"?>
<opencv_storage>
<stage12>
  <maxWeakCount>7</maxWeakCount>
  <stageThreshold>-9.7184079885482788e-01</stageThreshold>
  <weakClassifiers>
    <_>
      <internalNodes>
        0 -1 65876 -204612097 -203462689 -888830625 2046645207 429249215
        -1948497774 -873861185 -67602511</internalNodes>
      <leafValues>
        -6.3821732997894287e-01 3.3430090546607971e-01</leafValues></_>
    <_>
      <internalNodes>
        0 -1 125215 -89391105 -16781345 1052159736 -1158480161
        -160452854 -1098977293 -1073748241 -1048577</internalNodes>
      <leafValues>
        -4.5627561211585999e-01 5.3553628921508789e-01</leafValues></_>
    <_>
      <internalNodes>
        0 -1 126073 -1950706774 -1308579712 -2071871151 -149458863
        -1047923797 -1744072584 -1181476112 -1146105979</internalNodes>
      <leafValues>
        -6.3392835855484009e-01 3.7284111976623535e-01</leafValues></_>
    <_>
      <internalNodes>
        0 -1 100408 1566031359 1402205654 1396986851 487788987 453766831
        2059393675 54209493 352809279</internalNodes>
      <leafValues>
        -6.8700456619262695e-01 3.4900179505348206e-01</leafValues></_>
    <_>
      <internalNodes>
        0 -1 121391 -554186750 -436212130 -1930576210 -530322565
        -285225216 -749274523 -92351766 -534515729</internalNodes>
      <leafValues>
        -4.7945660352706909e-01 5.4355448484420776e-01</leafValues></_>
    <_>
      <internalNodes>
        0 -1 95510 -1073229632 -111413942 -1685142063 -218442229
        -2133986849 -57649019 -724180385 -449903729</internalNodes>
      <leafValues>
        -5.1214987039566040e-01 4.8092630505561829e-01</leafValues></_>
    <_>
      <internalNodes>
        0 -1 18359 -679248229 2069333575 1170310065 841222596 1712916123
        -83331807 -124571095 1227170979</internalNodes>
      <leafValues>
        -5.6514495611190796e-01 4.7069609165191650e-01</leafValues></_></weakClassifiers></stage12>
</opencv_storage>
