<?xml version="1.0"?>
<opencv_storage>
<stage10>
  <maxWeakCount>7</maxWeakCount>
  <stageThreshold>-1.7382508516311646e+00</stageThreshold>
  <weakClassifiers>
    <_>
      <internalNodes>
        0 -1 117237 -14969927 -1718513487 299127765 -36339261 -34628679
        -1415061078 -1005201477 -1953508421</internalNodes>
      <leafValues>
        -6.5797948837280273e-01 3.5827338695526123e-01</leafValues></_>
    <_>
      <internalNodes>
        0 -1 88533 -784089086 -78385094 -1165556451 -140003653
        -258218241 -74727268 -190592773 -473961745</internalNodes>
      <leafValues>
        -5.2748006582260132e-01 4.9558526277542114e-01</leafValues></_>
    <_>
      <internalNodes>
        0 -1 103604 -139462953 -604680175 -134097957 -548204196
        -385306373 -593264510 292616905 117461037</internalNodes>
      <leafValues>
        -6.1801242828369141e-01 4.2073589563369751e-01</leafValues></_>
    <_>
      <internalNodes>
        0 -1 67197 -749172240 -4659119 523535103 -44269281 -561925467
        -885423445 -544613715 -12982616</internalNodes>
      <leafValues>
        -5.2924942970275879e-01 5.0606930255889893e-01</leafValues></_>
    <_>
      <internalNodes>
        0 -1 95912 -753942142 -524029753 -478446936 -247741553
        -907032593 -890316826 -2050650417 -1038889829</internalNodes>
      <leafValues>
        -4.5120182633399963e-01 5.6707179546356201e-01</leafValues></_>
    <_>
      <internalNodes>
        0 -1 37677 -177799055 -449175428 -1325248425 -946988154
        -1585180420 -1400335292 -1574029069 -208645905</internalNodes>
      <leafValues>
        -5.6899708509445190e-01 4.5582628250122070e-01</leafValues></_>
    <_>
      <internalNodes>
        0 -1 125747 -1185952829 -913388147 -1208036909 -573718821
        -1617982034 -909194240 -1390463589 -645140301</internalNodes>
      <leafValues>
        -4.4714409112930298e-01 5.9338593482971191e-01</leafValues></_></weakClassifiers></stage10>
</opencv_storage>
