<?xml version="1.0"?>
<opencv_storage>
<stage6>
  <maxWeakCount>6</maxWeakCount>
  <stageThreshold>-1.3968327045440674e+00</stageThreshold>
  <weakClassifiers>
    <_>
      <internalNodes>
        0 -1 24060 -10487813 -13410477 -607052845 -11074671 -1316297729
        -1632648511 -19171329 -1095821</internalNodes>
      <leafValues>
        -6.1166059970855713e-01 5.1266586780548096e-01</leafValues></_>
    <_>
      <internalNodes>
        0 -1 5569 -38279162 -618685295 2081546383 1285264595 -1081476083
        -74253377 -1450590257 -424957013</internalNodes>
      <leafValues>
        -6.6132581233978271e-01 4.1700246930122375e-01</leafValues></_>
    <_>
      <internalNodes>
        0 -1 73971 1943469023 -145461000 490739607 1069414887 -560931842
        -541539608 -608412945 -498179</internalNodes>
      <leafValues>
        -5.2809494733810425e-01 5.1797348260879517e-01</leafValues></_>
    <_>
      <internalNodes>
        0 -1 90316 -136448277 -1253452324 1347674167 1397959119
        -86334977 -1333303096 -436208449 287015103</internalNodes>
      <leafValues>
        -6.3580441474914551e-01 4.3206611275672913e-01</leafValues></_>
    <_>
      <internalNodes>
        0 -1 76638 -1072971130 -773624015 306271059 -645416703 285839531
        -1291141118 -2075416322 -1822961149</internalNodes>
      <leafValues>
        -5.2840173244476318e-01 5.4045838117599487e-01</leafValues></_>
    <_>
      <internalNodes>
        0 -1 127374 -560222040 85581973 1359451419 84273493 -880047141
        -649887596 1146718670 -913313105</internalNodes>
      <leafValues>
        -5.4548418521881104e-01 4.9461057782173157e-01</leafValues></_></weakClassifiers></stage6>
</opencv_storage>
