<?xml version="1.0"?>
<opencv_storage>
<stage8>
  <maxWeakCount>7</maxWeakCount>
  <stageThreshold>-1.1457362174987793e+00</stageThreshold>
  <weakClassifiers>
    <_>
      <internalNodes>
        0 -1 65780 -707829793 -2403881 -2043358945 -436867 1629006015
        -1092423427 -327102977 -1141315627</internalNodes>
      <leafValues>
        -6.6870450973510742e-01 3.8595640659332275e-01</leafValues></_>
    <_>
      <internalNodes>
        0 -1 123097 -69210882 1479770136 421785801 523714706 690221739
        -211627997 2063788970 522975663</internalNodes>
      <leafValues>
        -6.0004949569702148e-01 4.2402303218841553e-01</leafValues></_>
    <_>
      <internalNodes>
        0 -1 16643 -119555066 -548297191 -590002978 720687247 -231129088
        -90644415 -535897861 -425730033</internalNodes>
      <leafValues>
        -6.3761866092681885e-01 4.0758031606674194e-01</leafValues></_>
    <_>
      <internalNodes>
        0 -1 95410 -1816075073 861214859 86312991 536813979 177144286
        -1415376246 1328380718 190812859</internalNodes>
      <leafValues>
        -6.6526782512664795e-01 3.8823571801185608e-01</leafValues></_>
    <_>
      <internalNodes>
        0 -1 8196 -677643358 131729412 -2105474576 -540337269
        -1320110670 -375291631 1359037136 -277617</internalNodes>
      <leafValues>
        -5.7667064666748047e-01 5.0962251424789429e-01</leafValues></_>
    <_>
      <internalNodes>
        0 -1 131219 -537138181 -886542962 -125961295 -677642269
        1291712185 -1916412532 -589441801 -979641149</internalNodes>
      <leafValues>
        -4.9044415354728699e-01 5.6934630870819092e-01</leafValues></_>
    <_>
      <internalNodes>
        0 -1 101244 -657303970 1565087761 -2013145013 -31813113
        -1197555188 -131562982 -1777805170 -18154962</internalNodes>
      <leafValues>
        -6.6034436225891113e-01 4.3012952804565430e-01</leafValues></_></weakClassifiers></stage8>
</opencv_storage>
