<?xml version="1.0"?>
<opencv_storage>
<stage16>
  <maxWeakCount>7</maxWeakCount>
  <stageThreshold>-1.2851289510726929e+00</stageThreshold>
  <weakClassifiers>
    <_>
      <internalNodes>
        0 -1 60398 -733697 -4124656 1962860511 -67503928 -639848753
        -72968037 -825692741 -4376577</internalNodes>
      <leafValues>
        -6.1464881896972656e-01 4.0684410929679871e-01</leafValues></_>
    <_>
      <internalNodes>
        0 -1 62067 -58916848 -35809118 -1558469669 -75798509 -186597634
        -90455910 -53936453 -355959213</internalNodes>
      <leafValues>
        -5.7155132293701172e-01 3.6845433712005615e-01</leafValues></_>
    <_>
      <internalNodes>
        0 -1 125440 -538329860 1360130228 319067484 1426118679
        -116143219 -642008625 -616424728 218888362</internalNodes>
      <leafValues>
        -6.8296062946319580e-01 3.0819973349571228e-01</leafValues></_>
    <_>
      <internalNodes>
        0 -1 106576 -170131713 -648858633 -1693855425 -228912755
        -745892157 -100171448 1275326861 1343295679</internalNodes>
      <leafValues>
        -6.2032073736190796e-01 3.9196303486824036e-01</leafValues></_>
    <_>
      <internalNodes>
        0 -1 102921 -463670 -255786837 -1328101374 -1292656622
        -620739510 1711956079 1687864135 -206054457</internalNodes>
      <leafValues>
        -5.8945435285568237e-01 4.3452405929565430e-01</leafValues></_>
    <_>
      <internalNodes>
        0 -1 104692 -1621167874 -565076581 -2070838664 -566737678
        -1596806838 1854609792 1368115870 -16817262</internalNodes>
      <leafValues>
        -6.4376568794250488e-01 4.0052980184555054e-01</leafValues></_>
    <_>
      <internalNodes>
        0 -1 20169 -456677122 -549273141 1445825797 1023635867
        -488611074 -1717395207 1902298639 -146411777</internalNodes>
      <leafValues>
        -5.0587725639343262e-01 4.6983128786087036e-01</leafValues></_></weakClassifiers></stage16>
</opencv_storage>
