<?xml version="1.0"?>
<opencv_storage>
<stage15>
  <maxWeakCount>7</maxWeakCount>
  <stageThreshold>-1.1629317998886108e+00</stageThreshold>
  <weakClassifiers>
    <_>
      <internalNodes>
        0 -1 65676 -145927265 -109734185 -786639363 -539683499
        -821851970 -1715126097 -70714371 -4653323</internalNodes>
      <leafValues>
        -6.6790580749511719e-01 2.8873237967491150e-01</leafValues></_>
    <_>
      <internalNodes>
        0 -1 87596 2016539863 -639647529 -921680545 -1084390909
        -526150486 -660422558 -1437930838 -1427120386</internalNodes>
      <leafValues>
        -5.0486826896667480e-01 4.5578747987747192e-01</leafValues></_>
    <_>
      <internalNodes>
        0 -1 88312 190810619 529494157 227740991 1061093663 199854511
        -539295736 421337775 521870551</internalNodes>
      <leafValues>
        -5.3500002622604370e-01 4.2157757282257080e-01</leafValues></_>
    <_>
      <internalNodes>
        0 -1 78246 -287358910 -948550076 -1332735908 1884789244
        1435225050 470710355 300482815 1904212975</internalNodes>
      <leafValues>
        -6.2230104207992554e-01 3.8358700275421143e-01</leafValues></_>
    <_>
      <internalNodes>
        0 -1 116717 -576517966 813925618 -15007734 -1853418479
        -1718174740 -1164341864 -1347511812 -33837926</internalNodes>
      <leafValues>
        -4.9883300065994263e-01 4.7259229421615601e-01</leafValues></_>
    <_>
      <internalNodes>
        0 -1 10303 -729315840 -284516191 -1836801319 -1361704765
        -250499279 -144461824 -94303030 -535301013</internalNodes>
      <leafValues>
        -6.3728868961334229e-01 3.7171748280525208e-01</leafValues></_>
    <_>
      <internalNodes>
        0 -1 39194 -2060802624 -1651337752 1695257084 253284560
        -670461708 -1719435211 1351256312 -1344582927</internalNodes>
      <leafValues>
        -6.1583882570266724e-01 3.7716946005821228e-01</leafValues></_></weakClassifiers></stage15>
</opencv_storage>
